svm_type c_svc
kernel_type rbf
gamma 0.5
nr_class 11
total_sv 5547
rho 0.5215654087352651 0.3357000540126634 0.19154231214363718 0.6861051096749283 -0.2770510657058947 0.6253767692458767 0.9173455790801518 0.8241086285209407 0.9082607757523177 0.8629464065970063 -0.2626450236332032 -0.42016674928231945 0.23087313043936605 -0.7367127303078462 0.15035735514932144 0.8295334843774311 0.5895087377094188 0.8001495679148125 0.6720782033562026 -0.16902488142750993 0.4766182354308649 -0.6853289124899448 0.4067178368572079 0.8908285830073086 0.7336937894208984 0.8738727080486334 0.810995478005565 0.5905757232839116 -0.5271300927316795 0.5272790435417438 0.9061068843835538 0.803631146274903 0.8901685297091918 0.8445449740799332 -0.8701537598878335 -0.07734520005628541 0.7916025052172586 0.42929889838327306 0.7235826212459695 0.5625169652010292 0.8196957617836522 0.9321895794475417 0.908757605800962 0.936634438503838 0.9296622276425748 0.8204301131009324 0.5181260966205491 0.7606541736066103 0.662062028781826 -0.7600570168502176 -0.12708236730056985 -0.4478191367640131 0.43242204814551427 0.12234739509500112 -0.3163110500715502
label 0 1 2 3 4 5 6 7 8 9 10
nr_sv 10 40 47 26 130 12 124 2427 672 1247 812
SV
1.5344014633902243 1.499401157039971 1.4512777922015208 1.7658748936951578 0.8144231856700557 1.7118585483796913 1.8966634347257314 1.8584182168577574 1.8489417769588627 1.9192309348032517 1:1.0 2:1.0 3:1.0 4:1.0 5:1.0 6:1.0 
1.5054252981359086 1.318468670001769 1.2163758959303097 1.6476573335101368 0.7591744160386514 1.615138045047102 1.8404117683417218 1.795276369751268 1.8298556655901623 1.8124112603486624 7:1.0 6:1.0 8:1.0 3:1.0 9:1.0 10:1.0 11:1.0 
1.426723282850661 1.4129992458332596 1.2358580994037704 1.7140599860536674 0.876366369945514 1.6064945507948858 1.785069281040117 1.7677227458209515 1.76272838483953 1.7696120124582553 7:1.0 12:1.0 13:1.0 14:1.0 
1.5159101249174154 1.3506910618168126 1.1920027237803645 1.6440663505198616 0.7218944394055156 1.6135507333172907 1.9011616417842137 1.8022833789111823 1.8429954921564093 1.821923913494039 7:1.0 2:1.0 3:1.0 4:1.0 14:1.0 15:1.0 6:1.0 16:1.0 17:1.0 18:1.0 19:1.0 
1.1857530679570902 1.1126564052327328 0.9653557538694766 1.2785557264590373 0.5850031840773694 1.2290620171242619 1.435439201808091 1.4046692382737864 1.427679665962356 1.41896440024407 7:1.0 15:1.0 6:1.0 8:1.0 20:1.0 21:1.0 
1.154157917980615 1.1365081551246934 0.973601814487703 1.1855497653027158 0.6156746064270212 1.1754268969233648 1.2958972300604341 1.2866352342245462 1.2832848605837526 1.2789823773297953 7:1.0 15:1.0 6:1.0 2:1.0 20:1.0 
1.3235109953013686 1.3110567319657496 1.0329616755575424 1.4482936389091392 0.6637123932971782 1.3742662474784941 1.577546560169224 1.5143369423280624 1.5629344307906452 1.5106213491163842 7:1.0 15:1.0 12:1.0 13:1.0 20:1.0 
1.4988882993199786 1.3115687783346885 1.2215854727435742 1.6658096426791305 0.7517672490929762 1.6367303125991906 1.9240977443275349 1.82427563765149 1.9148111592356947 1.8430673692957933 22:1.0 18:1.0 23:1.0 24:1.0 25:1.0 26:1.0 15:1.0 16:1.0 17:1.0 18:1.0 19:1.0 
1.4910058796934706 1.358855563934834 1.2577699150430932 1.7122530058402707 0.8112487509687241 1.6511596616831636 1.8777308420900682 1.8545476976824375 1.8503949114528426 1.8774993010780558 27:1.0 28:1.0 3:1.0 29:1.0 30:1.0 5:1.0 12:1.0 
1.5413616804713468 1.3110384481410564 1.2709685510966928 1.674826355864565 0.7412097183066519 1.6339794838405999 1.9178108698276157 1.8288654352485254 1.8529575287457059 1.847952796023561 27:1.0 28:1.0 3:1.0 15:1.0 6:1.0 31:1.0 3:1.0 4:1.0 32:1.0 
-0.3328594521781202 0.537631716911581 0.5179416486846966 0.8384648420931888 0.2729713024108758 0.8321200589024045 1.1481227831819723 1.0579417949800463 1.129157585362921 1.1030743611888547 33:1.0 34:1.0 15:1.0 6:1.0 35:1.0 
-0.3152965431909388 0.6648267669940771 0.754649381235758 0.7916159815137711 0.35883485214981875 0.7547226578942886 1.072235557374629 0.9578439352560756 1.0129521732469648 1.016317586242792 33:1.0 34:1.0 6:1.0 35:1.0 
-0.29731087155900354 0.583338529301361 0.5110075399636883 0.7458238121128177 0.24173182411935412 0.7285114981862696 1.1412617480784766 0.962570174364441 1.1213080647620395 1.0071060556352636 11:1.0 15:1.0 34:1.0 15:1.0 6:1.0 35:1.0 
-0.33069813487564964 0.6009280775496022 0.6221981307731833 0.8201855590230831 0.20213336990751568 0.7075709297492448 1.0429970289728647 0.9641564906258295 1.0236417708347954 0.9495968400847116 11:1.0 15:1.0 34:1.0 6:1.0 35:1.0 
-0.40295463263354936 0.6318731316599295 0.4813312680249465 1.0414402091723496 0.18702412923111708 0.9892582064808235 1.4540873781859314 1.3014256866926732 1.4394779466566814 1.3588198755263345 36:1.0 18:1.0 37:1.0 15:1.0 16:1.0 15:1.0 6:1.0 35:1.0 
-0.3321959099125381 0.6305859153900735 0.5218525184890923 1.0155781910728163 0.30263999817894655 0.9482690946656769 1.4422039321214108 1.2404410676851962 1.4299171867083134 1.3643209244431194 36:1.0 18:1.0 37:1.0 15:1.0 16:1.0 6:1.0 35:1.0 
-0.3718555627528567 0.7398089912916124 0.49712341663770404 1.0826798576087175 0.27999023639425547 0.9214777274106991 1.4540349825661345 1.2423997786927132 1.4286316048798202 1.3762158837372402 36:1.0 18:1.0 38:1.0 39:1.0 15:1.0 6:1.0 35:1.0 
-0.38860966574605343 0.7859311440126777 0.5253844663292379 1.1603104932697101 0.29883812087457595 1.0031416898953804 1.4180085915570602 1.2980180859305903 1.4074706241446417 1.3431507977475352 36:1.0 18:1.0 38:1.0 39:1.0 6:1.0 35:1.0 
-0.3901577627290546 0.598413961524392 0.48894565220910235 1.046183239832947 0.2540148258347279 0.9373986511380064 1.4634946775237037 1.253063578772571 1.4475724526099043 1.3794702038964999 40:1.0 15:1.0 6:1.0 35:1.0 41:1.0 21:1.0 42:1.0 
-0.4338818030992858 0.6907408368110537 0.5379584641701538 1.002064181307482 0.27247036265954105 1.0024849117659607 1.4355666776280924 1.3112461781869085 1.410589354062912 1.3476363179998316 40:1.0 6:1.0 35:1.0 41:1.0 21:1.0 42:1.0 
-0.345739119041078 0.6111372726447288 0.5338733486356907 1.060732376072398 0.2069608599890764 0.9500445443203078 1.4730439434943345 1.2410425761985293 1.4382667986944015 1.3767149486491461 26:1.0 43:1.0 3:1.0 32:1.0 34:1.0 15:1.0 6:1.0 35:1.0 
-0.4374308663085801 0.6809303609675217 0.4707477546778449 1.121566457930178 0.2976976202458861 1.0000632975271782 1.453276312033861 1.2995142285588117 1.422936018171599 1.3346631986966877 26:1.0 43:1.0 3:1.0 32:1.0 34:1.0 6:1.0 35:1.0 
-0.4003684048879196 0.6093849177644329 0.5381787309186623 1.092114328420316 0.24675153240931738 0.9876358261635827 1.4638743675779766 1.2995885720831497 1.442836471945899 1.3579276764089028 26:1.0 43:1.0 3:1.0 44:1.0 45:1.0 34:1.0 15:1.0 6:1.0 35:1.0 
-0.36223964486024396 0.6685841800641683 0.43756458052956326 1.0111588377903347 0.2096457950962797 0.9784604510747079 1.4637884165092492 1.2501555192041307 1.4376126351669845 1.3621354277977957 26:1.0 43:1.0 3:1.0 44:1.0 45:1.0 34:1.0 6:1.0 35:1.0 
-0.3852493510466815 0.6815567027435915 0.5390524909162209 0.974481132849563 0.2536576892068966 0.9657478737054582 1.4244587141163858 1.2732299619807175 1.4145144388595658 1.337236292281613 46:1.0 20:1.0 2:1.0 15:1.0 6:1.0 35:1.0 
-0.3767771669052524 0.7363879372935189 0.5120524269380492 1.0268313584846287 0.3207429977678511 0.9406488480343136 1.3227824705538203 1.1711147821528098 1.31242488647545 1.2525203929056823 46:1.0 20:1.0 2:1.0 6:1.0 35:1.0 
-0.41350885783459324 0.6725880632949628 0.4929391987680263 1.0217145737054454 0.30333252365797364 0.9141076796561041 1.4117016180196422 1.2779345493855334 1.4001364125722906 1.328376193021174 46:1.0 14:1.0 2:1.0 15:1.0 6:1.0 35:1.0 
-0.3512457551857778 0.6638184084968255 0.5469225746311029 1.0047843802449334 0.3166840237021077 0.9286358163541916 1.3366434323714842 1.192999488183046 1.3215400951794674 1.2269449990431598 46:1.0 14:1.0 2:1.0 6:1.0 35:1.0 
-0.4112473081855452 0.5625152018436886 0.43124828844056096 0.9956736060049654 0.24342247225177083 0.9371465181439697 1.4621685890768048 1.30613834604888 1.4497406097750127 1.3605024423038834 46:1.0 47:1.0 10:1.0 13:1.0 11:1.0 16:1.0 15:1.0 6:1.0 35:1.0 
-0.4107146998825316 0.6394934147397858 0.5002600726745977 1.0546761463341934 0.26685934857758364 0.938590094365722 1.4611810957278626 1.25439802268141 1.4505648319411124 1.374134119223658 46:1.0 47:1.0 10:1.0 13:1.0 11:1.0 16:1.0 6:1.0 35:1.0 
-0.24050926117008067 0.638389776954547 0.9734711369043524 0.5551100451413696 0.15298223087608548 0.5071668243886167 0.738213479184222 0.7199695355767927 0.7144199364577702 0.7347494584115343 2:1.0 15:1.0 6:1.0 35:1.0 20:1.0 
-0.24914464183990695 0.38274650819576 0.9117981891821071 0.6937725213563618 0.27338013023357566 0.5587566149408013 0.7715977724923968 0.7130253224830921 0.7386497477297393 0.7408464346746259 2:1.0 6:1.0 35:1.0 20:1.0 
-0.39938939808166307 0.5715251976587556 0.521553836194782 0.9928935570388485 0.1816336826052491 0.9161117678672085 1.4723998540044165 1.309917335341644 1.4344643741372076 1.3510361685064318 2:1.0 48:1.0 49:1.0 50:1.0 21:1.0 39:1.0 15:1.0 6:1.0 35:1.0 
-0.3571717381558231 0.6680195476293054 0.4594118385676359 1.0020368009121063 0.25405141959301925 0.9471496427651733 1.4541667724958747 1.2163036416672732 1.4201539287981397 1.350785632062791 2:1.0 48:1.0 49:1.0 50:1.0 21:1.0 39:1.0 6:1.0 35:1.0 
-0.3924844617433266 0.6648486681852548 0.42537195806278066 1.032714786650115 0.26851030697402944 0.9827819250273411 1.4702501490417508 1.228924596557762 1.4227860632130662 1.367574148107599 2:1.0 48:1.0 49:1.0 51:1.0 39:1.0 15:1.0 6:1.0 35:1.0 
-0.3614559116903967 0.6158023690245029 0.502115611776527 1.0050868392492438 0.2586892084788027 0.9135283977816882 1.4521285437013824 1.2717368680482153 1.3947904010867709 1.3178617151183958 2:1.0 48:1.0 49:1.0 51:1.0 39:1.0 6:1.0 35:1.0 
-0.37250979386315564 0.6436906041875341 0.49582321750246533 0.9980264027379832 0.2516951219781864 0.923070602572443 1.4725425807135943 1.3113485722455385 1.4418915186264696 1.3590225372049543 2:1.0 48:1.0 52:1.0 25:1.0 38:1.0 39:1.0 15:1.0 6:1.0 35:1.0 
-0.3833497392249215 0.6094076734678499 0.47114389948273677 1.057074263682215 0.20476249728247034 0.9479356312046816 1.4497490689183261 1.2280370456242875 1.4331602804981227 1.3656008424398818 2:1.0 48:1.0 52:1.0 25:1.0 38:1.0 39:1.0 6:1.0 35:1.0 
-0.28884186489802277 0.4951437968300671 0.9774173600980006 0.5812152761821755 0.21508905699207603 0.516702487841348 0.8236288159904188 0.7117855356421062 0.737648816184391 0.7924492845921767 2:1.0 15:1.0 6:1.0 35:1.0 14:1.0 
-0.23155950361648445 0.5099829454693221 0.939574714148046 0.6052342294073061 0.22547035438019392 0.5358183239888815 0.7362630132989352 0.6718238070939747 0.8111776616753055 0.72504560112381 2:1.0 6:1.0 35:1.0 14:1.0 
-0.22401309480830828 0.576894970183873 0.9356009833655444 0.5609829547753808 0.12011327973233951 0.49265090452882465 0.7508249049833704 0.659486069002738 0.7632107536110111 0.6405471619331843 2:1.0 15:1.0 6:1.0 35:1.0 11:1.0 
-0.27174925580121967 0.4183081488152911 0.9669891698102806 0.5830309680669596 0.28657718903794066 0.6436100355036695 0.7996326791716153 0.7549516970836844 0.6679089823080484 0.8143802382395744 2:1.0 6:1.0 35:1.0 11:1.0 
-0.3231743650433527 0.548041025279949 0.3969870133487535 0.7515717656283938 0.1660850165680947 0.6623790735023057 1.076033526715971 0.9006200146656806 1.048134171715763 0.9484899491389698 15:1.0 32:1.0 53:1.0 15:1.0 6:1.0 35:1.0 
-0.3283571290659488 0.699002580946364 0.4571478287888145 0.7833062783382908 0.3140347604640642 0.7169039814999151 1.012074413520913 0.9336747813318861 1.0146041401197896 1.016354324001449 15:1.0 32:1.0 53:1.0 6:1.0 35:1.0 
-0.34278054353107923 0.5288702472882393 0.44784119875873557 0.8093326985538878 0.18399316661256226 0.8207715455370476 1.2186902366984407 1.0712333419215756 1.1717385458535003 1.1110195440524382 15:1.0 21:1.0 11:1.0 53:1.0 15:1.0 6:1.0 35:1.0 
-0.3159786582158031 0.5810881347243132 0.4228444264339169 0.7962444627931529 0.17984563092258887 0.7403710089228994 1.18021194902902 1.006141905295999 1.1561870553359177 1.0357747835245732 15:1.0 21:1.0 11:1.0 53:1.0 6:1.0 35:1.0 
-0.3802350927081851 0.5620453685193773 0.476261969718448 0.9841065132561722 0.22642637879314462 0.8657846682870819 1.3860622205077413 1.1922791125541914 1.374993946741501 1.293948817503708 27:1.0 28:1.0 3:1.0 15:1.0 32:1.0 53:1.0 15:1.0 6:1.0 35:1.0 
-0.41150604626401793 0.6128731900128854 0.49982024864094193 1.0069087169964894 0.23205180081766588 0.9565054745208275 1.385211643531862 1.2640536068618906 1.3569856921296797 1.3206197591732578 27:1.0 28:1.0 3:1.0 15:1.0 32:1.0 53:1.0 6:1.0 35:1.0 
-0.3753252168277311 0.6122027494136065 0.4310333843528155 1.0673591155040625 0.20673195317411422 0.9595448114813091 1.4832379722281837 1.2644201435003979 1.4663719520015173 1.413201175797121 54:1.0 2:1.0 3:1.0 15:1.0 32:1.0 53:1.0 15:1.0 6:1.0 35:1.0 
-0.43726078065339824 0.6074558381324294 0.5122252977586575 1.0311376596975508 0.31202928651687317 1.0311376596975508 1.4735537042363274 1.3169095955368015 1.4484742698066437 1.4123105916513636 54:1.0 2:1.0 3:1.0 15:1.0 32:1.0 53:1.0 6:1.0 35:1.0 
-0.479480764959156 -0.9282910942846132 0.7179777143680929 1.2256541165296944 0.4916637688595915 1.1604317311795995 1.3851932822052155 1.3835937819830957 1.3317116889664147 1.4597999118443812 1:1.0 55:1.0 18:1.0 38:1.0 
-0.46614631798539136 -0.987855084270247 0.6296834132700978 5.0 0.43806182179527076 1.0104042685940722 1.2852733332527517 1.2191486682404682 1.179383819059605 1.3984081292954127 1:1.0 36:1.0 18:1.0 38:1.0 
-0.4894060465349422 -0.9426603209282319 0.6912334593317897 1.2269309929312433 0.4955201788105754 1.1630611234502413 1.3881992232752458 1.3784137020775111 1.3395404821606482 1.4606677400286858 1:1.0 56:1.0 18:1.0 38:1.0 
-0.3557481229679232 -0.6093849177644329 0.5723748771807109 1.1783040300930216 0.5944350718584194 0.9126905155953688 0.9213393257543755 1.0045673500764798 0.8240225905560086 1.0913732130212423 1:1.0 25:1.0 38:1.0 
-0.45990779184692593 -0.9241626724286782 0.7911733263958496 1.2265565340099789 0.4365426588333884 1.1977637722124095 1.4304568589955036 1.4471689851664231 1.3872296182161419 1.443858750027575 57:1.0 1:1.0 25:1.0 38:1.0 
-0.5332122770558616 -1.067054971714212 0.877914990277856 1.2929552883464883 0.3836087456709711 1.3148237875299171 1.6407716218980992 1.5919266530115153 1.5238735542724848 1.6232139796747396 57:1.0 28:1.0 1:1.0 25:1.0 38:1.0 
-0.22320390404624146 -0.5136097055094556 1.3897664356379529 0.5295637727104996 0.06037354199045177 0.48262305316554144 0.5380799173034372 0.5136001517939367 0.47249620876035486 0.6103431123813358 1:1.0 2:1.0 3:1.0 15:1.0 6:1.0 
-0.2336261053866418 -0.3258111939490568 0.3109183234650923 0.5970483955388426 0.09856180161086289 0.45447923547475544 0.5539870150264113 0.49624687624550895 0.47569576818454656 0.6538012823624193 1:1.0 2:1.0 3:1.0 15:1.0 58:1.0 
-0.21272670142076766 -0.3449914034003542 0.280099789271837 0.5614969501919866 0.08921304152332873 0.47476052511708233 0.6160578850309856 0.5347249766181048 0.5874876262865025 0.6824756370317555 1:1.0 2:1.0 3:1.0 15:1.0 12:1.0 
-0.22344684941104506 -0.3530017523212299 0.2981041491393436 0.5903428653472428 0.08040507182296386 0.5018369435354963 0.5791901754268438 0.4944849277825794 0.4371230147400507 0.7071440854062307 1:1.0 2:1.0 3:1.0 15:1.0 10:1.0 
-0.25080569028852273 -0.48031393715161314 0.34360203940563255 0.6216375189910975 0.18059567413599287 0.5895234334933479 0.7648302710914651 0.668129093901213 0.6977448797122985 0.7643687842028316 1:1.0 2:1.0 3:1.0 15:1.0 15:1.0 6:1.0 
-0.27912961172622247 -0.5061456595592441 0.29313413859637316 0.6630539341929358 0.12105742966183963 0.5782418079180314 0.7536633561388315 0.7258539403467483 0.7635699056730456 0.7579640866392015 1:1.0 2:1.0 3:1.0 15:1.0 15:1.0 10:1.0 
-0.12073305864463449 -0.3407783513717958 0.2152641609595248 0.4014785946778084 0.12598451297021493 0.40214225090450995 0.5082727466429511 0.5009692571817908 0.4824255846275664 0.4998671295240109 3:1.0 59:1.0 15:1.0 6:1.0 
-0.2010270609919196 -0.31970739225722966 0.27437300404970266 0.5005990807930009 0.17551301651210813 0.385739546396477 0.5285315795377534 0.5200768269323182 0.46371391308601106 0.5112818544662805 3:1.0 59:1.0 15:1.0 58:1.0 
-0.16895953600001853 -0.3549446437353866 0.28563395825879356 0.5407278393767472 0.26408446890828463 0.49974638438823105 0.5427240058870049 0.5266046160350909 0.5208382456922536 0.5656225163185031 3:1.0 59:1.0 15:1.0 12:1.0 
-0.20102706099191922 -0.3407783513717957 0.2743730040497028 0.4014785946778083 0.16230031868137623 0.4021422509045105 0.5354250521603983 0.5200768269323186 0.5241723637238469 0.5131015533373625 3:1.0 59:1.0 15:1.0 10:1.0 
-0.3146137141713788 -0.5715251976587556 0.3562734218528869 0.650616511818812 0.1637827483622929 0.6242909853039115 0.83708396181064 0.7826737526309142 0.7971173062915847 0.8314983398248237 3:1.0 59:1.0 15:1.0 15:1.0 6:1.0 
-0.325845468072156 -0.5623464573930208 0.41128240753612 0.7064497168694355 0.21248348242899862 0.614952059208209 0.8370839618106398 0.8656004406618582 0.856541221287858 0.8314983398248241 3:1.0 59:1.0 15:1.0 15:1.0 10:1.0 
-0.47796868799090814 -0.956799399095136 0.7043473077870103 1.1706344294387254 0.29509104184576923 1.1162769553360399 1.4412727479764893 1.3663941927136143 1.4020114468805618 1.4214573083920634 27:1.0 28:1.0 3:1.0 59:1.0 60:1.0 25:1.0 38:1.0 
-0.4185576706268883 -0.7303788437279236 0.6754641292315922 1.0867917297272793 0.5750665442734401 0.9974570906022648 1.1109157957203168 1.2039595077337235 1.0597638927207316 1.1471192759391955 60:1.0 25:1.0 38:1.0 
-0.5468758630586106 -0.954861232581918 0.7396932187938251 1.2182291530961629 0.2999115969611351 1.1538947448116659 1.4480829018084271 1.3910842741404439 1.4053406546422402 1.4361266937483022 27:1.0 28:1.0 3:1.0 59:1.0 60:1.0 53:1.0 15:1.0 
-0.39150363943099153 -0.7911032258380956 0.5188652192509281 1.0131684067759332 0.3072945087746301 0.9330810739625899 1.2121596173324873 1.1415203444481943 1.1697386189494852 1.1721072066443234 3:1.0 59:1.0 60:1.0 53:1.0 15:1.0 
-0.18713138655754255 -0.36948484600028586 0.27970916993125067 0.49040181896928803 0.17774882255378824 0.46095086525636486 0.5688248631616933 0.560039656281352 0.5067510115487758 0.5256216491619032 61:1.0 28:1.0 62:1.0 15:1.0 6:1.0 
-0.19237280325291828 -0.3562428182089756 0.2492534781867116 0.5062432365353827 0.15069461370852047 0.425434136777051 0.5044038747484237 0.4954849321452763 0.5876975003459483 0.5423758352787061 61:1.0 28:1.0 62:1.0 15:1.0 58:1.0 
-0.18798039832326952 -0.37551343310887053 0.2421107953617594 0.4158537674475089 0.16194734445614625 0.44549436766009615 0.5515802997733501 0.5140011548973523 0.5497309196875334 0.5772137550030744 61:1.0 28:1.0 62:1.0 15:1.0 12:1.0 
-0.19290291534919995 -0.36662715770486143 0.30140751836112645 0.4992580790923621 0.12866247094566113 0.40898480037092766 0.596357410696976 0.5499658424332271 0.5546297668455019 0.5234367320949763 61:1.0 28:1.0 62:1.0 15:1.0 10:1.0 
-0.3021117422967734 -0.5256904106634961 0.3882370050250313 0.6749248981793995 0.1752053139630076 0.5974752460508947 0.7875402522020162 0.7549186842930158 0.7542671227184492 0.7491128055182062 61:1.0 28:1.0 62:1.0 15:1.0 15:1.0 6:1.0 
-0.2598474280810141 -0.541249427020823 0.34329982956311433 0.6064896597074562 0.10178415022690818 0.6017176747975761 0.8073386419600016 0.7407567608838629 0.7725140756092292 0.8066786261207499 61:1.0 28:1.0 62:1.0 15:1.0 15:1.0 10:1.0 
-0.24626424575466244 -0.42887781207964926 0.2913244662425997 0.5159892276965228 0.1297370227867722 0.4781381858357656 0.6209515275418862 0.5777771033009724 0.6128709755691873 0.6139257113817378 63:1.0 28:1.0 62:1.0 15:1.0 6:1.0 
-0.1605388944690517 -0.401581451284315 0.22780113730746346 0.5500681329914456 0.177875528349243 0.40200426992150945 0.5928429397157562 0.6506777377274553 0.5972009996865805 0.5858463083835272 63:1.0 28:1.0 62:1.0 15:1.0 58:1.0 
-0.24044768838722694 -0.41194012650549244 0.3519030930593738 0.5500681329914457 0.209253270074264 0.5517601177504827 0.5990729081641003 0.5955064351294667 0.5948047161155469 0.6019055016681324 63:1.0 28:1.0 62:1.0 15:1.0 12:1.0 
-0.24626424575466221 -0.42887781207964915 0.33708822961482054 0.4339870581432588 0.177875528349243 0.5283421691545328 0.6209515275418863 0.6004827452123732 0.6128709755691875 0.6470801701858669 63:1.0 28:1.0 62:1.0 15:1.0 10:1.0 
-0.2918390179484186 -0.598413961524392 0.3609480524875184 0.7326844042571703 0.11856854393159906 0.6918363963266555 0.9042232741301632 0.8229381006524786 0.8903449246730818 0.8524144957068468 63:1.0 28:1.0 62:1.0 15:1.0 15:1.0 6:1.0 
-0.33124070438293757 -0.6092768332680216 0.42200736062725097 0.7520475151521671 0.21861731863581996 0.6632885631301205 0.9272016942254894 0.8762829101092109 0.8877261878867077 0.8524144957068471 63:1.0 28:1.0 62:1.0 15:1.0 15:1.0 10:1.0 
-0.11712340667797747 -0.39765057816374394 0.2779353613061114 0.5411640449122127 0.15532634275571341 0.37466400528099286 0.534848094131152 0.5157416402793844 0.5705963928684308 0.5429055981423307 26:1.0 28:1.0 62:1.0 15:1.0 6:1.0 
-0.21300707130025176 -0.3994426917661198 0.3173704571761128 0.473050024692672 0.19291928273401554 0.49677321608164193 0.5555792369240687 0.5437833629933281 0.5074520820261037 0.5054138503681376 26:1.0 28:1.0 62:1.0 15:1.0 58:1.0 
-0.23041840574454725 -0.3630833802440625 0.3447615832441908 0.5177019319076397 0.10977222492995817 0.4721270264576297 0.5491946020077968 0.5517666211193503 0.5385473922891002 0.5359233658052359 26:1.0 28:1.0 62:1.0 15:1.0 12:1.0 
-0.1940456517103476 -0.38140578518742196 0.2830678602627348 0.48237749561188875 0.21326434516501871 0.4662789055566938 0.5519929559673507 0.5410675182923462 0.5283353055272794 0.5619225894135457 26:1.0 28:1.0 62:1.0 15:1.0 10:1.0 
-0.2599492612491386 -0.5716353025946479 0.32551063206289704 0.6432246337040892 0.1291741963692787 0.5885327574558643 0.8587968990915004 0.6970423672707389 0.8474137461180008 0.7986201024398677 26:1.0 28:1.0 62:1.0 15:1.0 15:1.0 6:1.0 
-0.2989394819378394 -0.45666885920846056 0.3755754093635011 0.6202478035244123 0.19908489916440406 0.6087581086967727 0.7910332075959072 0.7437142677137624 0.7705284167860578 0.7220055460116033 26:1.0 28:1.0 62:1.0 15:1.0 15:1.0 10:1.0 
-0.4627114642287388 -0.638389776954547 1.2794051330631226 0.4208421029465502 0.40539611041835844 0.3176044316065012 0.28144676011194725 0.39145456359334063 0.2784152363634432 0.3778153715357203 15:1.0 6:1.0 
-0.06500949011999645 -0.2946757786505153 0.26854816709936585 0.4010963026846903 0.3493347204867524 0.35395180427757095 0.29659907722081835 0.46656783638359545 0.25113274411989184 0.2941989475164004 15:1.0 58:1.0 
-0.3830275833934268 -0.20871604880225306 0.19940831904794848 0.3694662636281947 0.39123295384969925 0.26305737567106713 0.2152895351523583 0.4073624477319818 0.16312613375493568 0.2504130222793066 15:1.0 12:1.0 
-0.10550530900399271 -0.2606479367894703 0.18669129953092442 0.46946348718581216 0.39523409605178383 0.3232664299422942 0.2691498431395415 0.34046910350278276 0.26472130796704096 0.22491977464135016 15:1.0 10:1.0 
-0.24785909892245006 -0.4009366535085246 0.34549525567569345 0.5421909061251079 0.1946923770612854 0.5603948755391657 0.6899762940983974 0.6773468846196458 0.643511520696336 0.6421146873841361 15:1.0 15:1.0 6:1.0 
-0.17739153564678928 -0.47870813753131514 0.34260945328406384 0.5329496542075481 0.24263805020813795 0.487167033225751 0.5975277304418437 0.5945250901920771 0.565024744045497 0.6279539256515926 15:1.0 15:1.0 10:1.0 
-0.15536304332332715 -0.36457204505647156 0.2994262412529795 0.5084781619841936 0.405396110418358 0.4062932315184068 0.42021029610508276 0.5091158450544386 0.36225664216942377 0.4635219928750967 15:1.0 64:1.0 
-0.63454337438935 -1.156564520659133 -1.0588787561248179 1.2494100730269124 0.45079139922287065 1.2934556144322147 1.4792818936952803 1.4558927401582715 1.4448713323777986 1.4844786700529575 57:1.0 28:1.0 15:1.0 6:1.0 35:1.0 
-0.6433458191514739 -1.002415365347583 -1.1057640182600126 1.2510427016874304 0.5545373526499147 1.2501158782382902 1.4146325505365607 1.422136226125066 1.3479000169403899 1.4699947999609417 57:1.0 28:1.0 6:1.0 35:1.0 
-0.546337376552787 -1.022896662330262 -0.8834656927082439 1.1368204087344465 0.3927757066455689 1.1483946955270947 1.324817221253177 1.297995064055718 1.3051494854806753 1.3104055663223255 26:1.0 15:1.0 6:1.0 35:1.0 
-0.42712802997529536 -0.7741631225462251 -0.7739356859068597 1.0347320322131979 0.5268243907000332 0.9462183990354037 0.9940972235969621 0.9959435813768043 0.9854345660235309 1.005904209600278 26:1.0 6:1.0 35:1.0 
-0.6244106980274078 -1.0774226403019889 -1.0315363573147225 1.245681620842766 0.4825191907691683 1.2183319363633802 1.4394301850722917 1.4287611970433765 1.4103789369173276 1.4288394006021679 65:1.0 15:1.0 6:1.0 35:1.0 
-0.5668353127721628 -0.9796522838631947 -1.128169040804606 1.2630080953439538 0.7311662035450233 1.2195421504708326 1.3159486135901475 1.3823669815477577 1.2749001241084208 1.3711320459317116 65:1.0 6:1.0 35:1.0 
-0.6618716671114502 -1.183650743813667 -0.9432204929219913 1.261220165062881 0.41648051747836723 1.2316500448364893 1.5739182739260424 1.4951739227412493 1.5434566055602499 1.4727126118963294 46:1.0 66:1.0 18:1.0 37:1.0 25:1.0 15:1.0 6:1.0 35:1.0 
-0.6529666684829987 -1.0963974667756127 -0.9992373268460263 1.2598115085108874 0.38821714902464505 1.2180070651524915 1.5325485230284739 1.5542869853589614 1.4782834711284716 1.4719024396804465 46:1.0 66:1.0 18:1.0 37:1.0 25:1.0 6:1.0 35:1.0 
-0.6559848912412123 -1.1090982234873452 -0.9553522784629722 1.2543136904757417 0.48798787935218596 1.2256848989382794 1.4905232939495106 1.441262617133284 1.4699104100883729 1.4673696111317787 67:1.0 34:1.0 3:1.0 15:1.0 6:1.0 35:1.0 
-0.637218800888552 -1.0866168377612717 -1.0107472251257188 1.2555544656961521 0.6192627364336245 1.2004330650223738 1.4792912560261908 1.4465970578907656 1.4018312759153881 1.4120589110935253 67:1.0 34:1.0 3:1.0 6:1.0 35:1.0 
-0.6152709904183955 -1.594632421689008 -1.555765094463042 0.7539811296343304 0.5010709987958826 0.6883501197210401 0.7759652080433375 0.8772621133541686 0.7832052655481664 0.8178710155528054 15:1.0 6:1.0 35:1.0 
-0.12700847930501055 -1.118747999406499 -0.5846058687633603 0.6255340326040735 0.6632942373521767 0.5205812440680396 0.4068955254018196 0.5851264082343153 0.3293969119563835 0.38294195480638715 6:1.0 35:1.0 
-0.2634067237729753 -0.4610357922216228 -0.4410643568864016 0.583487358149698 0.20487521298987535 0.5403612163915996 0.638418210395573 0.7128840816179287 0.6250531587269696 0.6377859880357175 27:1.0 28:1.0 68:1.0 3:1.0 15:1.0 6:1.0 
-0.22468940548947314 -0.4310333843528155 -0.40616288950223756 0.55323936602834 0.25999445336378185 0.4814164213787915 0.6247373011004977 0.6853238222377116 0.612951521455788 0.6279649430563746 27:1.0 28:1.0 68:1.0 3:1.0 15:1.0 58:1.0 
-0.32065338940247856 -0.5013785779184143 -0.40003894772939785 0.5834873581496975 0.259795313617846 0.5817075098934948 0.7205618421268488 0.752680267120394 0.6146151729632247 0.7112428702907891 27:1.0 28:1.0 68:1.0 3:1.0 15:1.0 12:1.0 
-0.2930141093915502 -0.5333629278872415 -0.432568557590589 0.626099439205634 0.29457656164361107 0.5817075098934945 0.6384182103955729 0.6819964390915021 0.6250531587269698 0.6377859880357175 27:1.0 28:1.0 68:1.0 3:1.0 15:1.0 10:1.0 
-0.379302016258227 -0.6886075102347138 -0.6184780295599587 0.7667936381341949 0.23572045050162177 0.759342175881904 0.91608153823522 0.8996066321147462 0.9082012732289373 0.8862246782057984 27:1.0 28:1.0 68:1.0 3:1.0 15:1.0 15:1.0 6:1.0 
-0.4387517376879525 -0.6606290237261372 -0.5659160506379456 0.780598663364003 0.24515163206444787 0.7775550221333809 0.91608153823522 0.903126248274086 0.9482540653934604 0.9252373028607551 27:1.0 28:1.0 68:1.0 3:1.0 15:1.0 15:1.0 10:1.0 
-0.31012787397113617 -0.5622326714238433 -0.5495432386998881 0.5902993557549346 0.3981477368304901 0.6388754124657081 0.737462622025085 0.7985809202172593 0.721548852399564 0.7070651128176604 27:1.0 28:1.0 15:1.0 6:1.0 35:1.0 
-0.21559964144510518 -0.3435520181063167 -0.31078421859727196 0.3735485969134019 0.6113103014688228 0.4077390941528249 0.5822871286781347 0.4891799194215248 0.39591080261786776 0.5870264539658893 27:1.0 28:1.0 6:1.0 35:1.0 
-0.5742701310136196 -0.7614286589179167 -0.5757828460932755 0.9997562193175761 0.26684150083202984 0.7906567013189959 1.0394607180703581 0.9878788756249768 0.9541536451500119 1.0677986708115008 27:1.0 28:1.0 3:1.0 15:1.0 6:1.0 35:1.0 
-0.41527216432421576 -0.7475231192946508 -0.7365621194929344 1.1073861666121876 0.2303383166867335 0.9126052009075716 1.0151258416777518 1.1432281472484214 1.0179746834169747 1.1427533010385704 27:1.0 28:1.0 3:1.0 6:1.0 35:1.0 
-0.18154306142362628 -1.0762157523745242 -0.42121300427519826 0.546959586301339 0.2265339313631301 0.5054962898432118 0.5783626004348601 0.5255674061163873 0.5478279749771041 0.593241995080509 1:1.0 2:1.0 15:1.0 6:1.0 35:1.0 
-0.22033426318904648 -1.2809134551772114 -0.337150252865262 0.4498725965984935 0.14060837944826396 0.3672428193205628 0.5401781978733302 0.46198762446809993 0.5087144618606612 0.6864466202209657 1:1.0 2:1.0 6:1.0 35:1.0 
-0.4317547881441786 -0.8179905967199518 -1.673793108264514 0.8783268409604752 0.16643083886577312 0.7828468844984781 0.9915137471227425 0.941385892671773 0.9399544281923942 0.9967189899356677 1:1.0 2:1.0 3:1.0 15:1.0 6:1.0 35:1.0 
-0.7561162802843668 -0.617503460207074 -0.7927123383511337 1.0623685171832746 0.2914761238968907 1.037035131330193 1.0894254896730666 1.0894254896730666 1.0067836549055365 1.0894254896730666 1:1.0 2:1.0 3:1.0 6:1.0 35:1.0 
-0.3223033895840335 -0.7015089689054429 -0.5988430704606309 -0.4293804901075647 0.24406866341507757 0.897269871757239 1.537915921700146 1.3313012256008996 1.4894981178160251 1.426364442132249 49:1.0 15:1.0 6:1.0 69:1.0 28:1.0 
-0.08172392562195056 -0.23174271394002366 -0.14997857399150538 -0.1343758611540084 0.09162128760983447 0.24973816463830825 0.5251819027899471 0.39358208244143317 0.5173313294319367 0.4770066142853203 13:1.0 48:1.0 6:1.0 70:1.0 71:1.0 
-0.06199709815144775 -0.16611822242667945 -0.2182574692022698 -0.13061840097074703 0.0 0.26139933276588717 0.43711109911968715 0.36680813959369074 0.37434238186375624 0.375628164228048 13:1.0 48:1.0 58:1.0 70:1.0 71:1.0 
-0.1482938520318003 -0.24128809507471963 -0.19838971963488491 -0.16441639043012773 0.12074626678740966 0.3115347937118517 0.5018851632783055 0.44817713755974975 0.4831490244045172 0.4695889770515616 13:1.0 48:1.0 12:1.0 70:1.0 71:1.0 
-0.14829385203180045 -0.26880453566203644 -0.20114497913909996 -0.14620732149026394 0.14722608036030743 0.2883883097283681 0.49661388245942506 0.42325365236706636 0.40248292083244175 0.4038973309710654 13:1.0 48:1.0 10:1.0 70:1.0 71:1.0 
-0.14222192784976898 -0.32828841302026673 -0.26096333221147866 -0.21721738484075773 0.07225783554838124 0.45699601241128096 0.8095567382306199 0.6163727284472355 0.763074667855652 0.7075429088389374 13:1.0 48:1.0 15:1.0 6:1.0 70:1.0 71:1.0 
-0.13795704612852605 -0.37617939957878543 -0.2609633322114781 -0.217217384840757 0.08827558292680744 0.4453659905040283 0.8095567382306198 0.6767469161278881 0.8390359451741842 0.7633785506580322 13:1.0 48:1.0 15:1.0 10:1.0 70:1.0 71:1.0 
-0.13773658236825734 -0.29048809049003427 -0.2237571635879318 -0.19124094088084218 0.11683117454111244 0.41276960358197246 0.5035466531997215 0.43868873213388493 0.4861316034837264 0.45796114191742565 26:1.0 43:1.0 68:1.0 69:1.0 6:1.0 
-0.07311013672967859 -0.20297105111938715 -0.2164419290218628 -0.19197034346389774 0.09984408107296738 0.34439234723789647 0.5110735385876215 0.36487243950345427 0.42593803735078556 0.4633796597543484 26:1.0 43:1.0 68:1.0 69:1.0 58:1.0 
-0.05619536836370356 -0.24379851932198815 -0.18639730251909783 -0.1410730743296606 0.07155123135623813 0.32385189970517725 0.41274694250894245 0.4018932122005612 0.3984857997720597 0.4069619821527701 26:1.0 43:1.0 68:1.0 69:1.0 12:1.0 
-0.08685848998249665 -0.18792816226227804 -0.21754917852497496 -0.14835356487953844 0.08108211513508522 0.3591099853282866 0.44626011568729096 0.424432194655186 0.39315178762417086 0.4027693963192585 26:1.0 43:1.0 68:1.0 69:1.0 10:1.0 
-0.13580171767640442 -0.37228327912386805 -0.27114980357788177 -0.20297908048569985 0.053047592452408955 0.3752470953261761 0.8158870265756124 0.6644871711864487 0.7822677588673776 0.6918370103953364 26:1.0 43:1.0 68:1.0 69:1.0 15:1.0 6:1.0 
-0.11284567199148923 -0.3204106129633938 -0.22738227511447706 -0.19082868226133642 0.10411690522404528 0.43215277063738133 0.7325673462033566 0.5634592811114457 0.7226614404560258 0.6536267889008951 26:1.0 43:1.0 68:1.0 69:1.0 15:1.0 10:1.0 
-0.0628289943897683 -0.2260844496634723 -0.15782521725360057 -0.09748599923409722 0.06505539614702337 0.2954974862942151 0.5303330719307873 0.46123653754730426 0.511778637330302 0.48970710308032794 26:1.0 43:1.0 3:1.0 69:1.0 6:1.0 74:1.0 15:1.0 45:1.0 
-0.1412891786436121 -0.2687252039902225 -0.11270094110906075 -0.17532599214379807 0.0 0.2947383168757012 0.5812972728268107 0.5086590167750986 0.565414708270796 0.5291475095055841 26:1.0 43:1.0 3:1.0 69:1.0 58:1.0 74:1.0 15:1.0 45:1.0 
-0.11372804901634767 -0.19459444753814772 -0.22344245558487016 -0.19108387758420464 0.11610993362397269 0.33763612395653797 0.5736789230389099 0.43807201288028624 0.5492355553306578 0.43636224061863577 26:1.0 43:1.0 3:1.0 69:1.0 12:1.0 74:1.0 15:1.0 45:1.0 
-0.10242194179817554 -0.28037622974942533 -0.19854892886913902 -0.10238934577462613 0.0 0.24000098678109066 0.5797633325785903 0.3864138074727284 0.5298808659388109 0.4874383920163008 26:1.0 43:1.0 3:1.0 69:1.0 10:1.0 74:1.0 15:1.0 45:1.0 
-0.14141443757711408 -0.3241893488608533 -0.2285229728202645 -0.15916626200639059 0.09829655021239714 0.4070966886501949 0.7631773184682777 0.6368096991676648 0.7641521965070521 0.6869827080291252 26:1.0 43:1.0 3:1.0 69:1.0 15:1.0 6:1.0 74:1.0 15:1.0 45:1.0 
-0.14829619614016987 -0.3608104540947261 -0.2635689080490495 -0.19762592482240754 0.0 0.43493254428142497 0.7942042115825008 0.601114501990751 0.7804514306955495 0.7069432727529877 26:1.0 43:1.0 3:1.0 69:1.0 15:1.0 10:1.0 74:1.0 15:1.0 45:1.0 
-0.0 -0.10693246571943958 -0.09392437735758727 -0.0694708157241419 0.0 0.2532239463786317 0.4427599663041016 0.24533577389732134 0.2921076139019275 0.3286148804456536 26:1.0 43:1.0 3:1.0 72:1.0 6:1.0 
-0.05897152746848736 -0.22967086684371085 -0.1247806525860856 -0.06375722791880165 0.0 0.23133656924110108 0.529553733312697 0.29591538095268743 0.2924929911002977 0.20636607297400233 26:1.0 43:1.0 3:1.0 73:1.0 6:1.0 
-0.09453926182588385 -0.26421580890213814 -0.11078494967553332 -0.11457460349013524 0.0 0.20131872946792095 0.4722025719337947 0.2744151614436856 0.3010672742153053 0.2788469114599294 26:1.0 43:1.0 3:1.0 72:1.0 58:1.0 
-0.0 -0.18637277616241182 -0.08571605916946622 -0.0 0.0 0.1988434906976955 0.46938243516021483 0.27757938609624105 0.331092585417042 0.30249458841609 26:1.0 43:1.0 3:1.0 73:1.0 58:1.0 
-0.09630043489862644 -0.16561427601591114 -0.13141703164185342 -0.10869803715415341 0.0 0.26162788327857617 0.49880371271844437 0.30565601599422776 0.2633974849164568 0.23900494247522008 26:1.0 43:1.0 3:1.0 72:1.0 12:1.0 
-0.10699019477832368 -0.1907145437806205 -0.058307879859785215 -0.10780557467198129 0.0 0.20736262574015096 0.4026374690271122 0.2398709767939211 0.24261671838558702 0.32118803437543286 26:1.0 43:1.0 3:1.0 73:1.0 12:1.0 
-0.0 -0.1970226844910414 -0.06059787493808921 -0.09244188031539802 0.0 0.16299359895511348 0.45074794487542624 0.20489357829329094 0.35793567050931707 0.2525430705300864 26:1.0 43:1.0 3:1.0 72:1.0 10:1.0 
-0.0 -0.13586950263431996 -0.08200216955326387 -0.1376310305389072 0.0 0.2609613678620969 0.41769161326816245 0.17878661681076363 0.31393913508057275 0.2730337403489572 26:1.0 43:1.0 3:1.0 73:1.0 10:1.0 
-0.13629428170862518 -0.3121829984562203 -0.23687486106117572 -0.13968279334467387 0.09562494226092427 0.39551085630982263 0.6735236995780008 0.5653261413759351 0.5909470345143336 0.5554372320808906 26:1.0 43:1.0 3:1.0 72:1.0 15:1.0 6:1.0 
-0.13664019323396487 -0.31293749418268846 -0.20776304198753856 -0.13809174769820914 0.0 0.35359496668042273 0.7150114564014894 0.5564063278490912 0.5819397174103345 0.541489359233912 26:1.0 43:1.0 3:1.0 73:1.0 15:1.0 6:1.0 
-0.1297883204827695 -0.257975764265506 -0.16481429103928544 -0.1676078892619964 0.0 0.3175411382849193 0.6891072901675933 0.4769483948497797 0.6287905493992115 0.5888495315176415 26:1.0 43:1.0 3:1.0 72:1.0 15:1.0 10:1.0 
-0.14246249692354712 -0.2729495796942216 -0.21298355663161128 -0.18766007974193602 0.10290822619391822 0.3547752060844025 0.6730804066966226 0.5049358582568367 0.6425249138097427 0.5397244768782147 26:1.0 43:1.0 3:1.0 73:1.0 15:1.0 10:1.0 
-0.09488558414648403 -0.2885917736460775 -0.12074431154653921 -0.10654782358988224 0.0 0.26318620151147987 0.5052407714739062 0.3908075663501843 0.4171650891415359 0.4393907101472592 2:1.0 48:1.0 62:1.0 6:1.0 70:1.0 71:1.0 
-0.06773970133811666 -0.18996737039271425 -0.2243392098469185 -0.17562206746713824 0.0 0.29306398929515304 0.5829660949196699 0.4230293831902821 0.5310097268436295 0.5063339127874327 2:1.0 48:1.0 62:1.0 58:1.0 70:1.0 71:1.0 
-0.12353531647787472 -0.24873138455386423 -0.19340577593404054 -0.13799594040334337 0.0887348514281039 0.3140386121225734 0.5566670746730775 0.4952195966251888 0.5220234889316434 0.506385399839373 2:1.0 48:1.0 62:1.0 12:1.0 70:1.0 71:1.0 
-0.09488558414648408 -0.2885917736460774 -0.20302273804570983 -0.17562206746713835 0.1399747282113738 0.2930639892951529 0.5668656321733696 0.3908075663501843 0.4778506940020152 0.5063339127874333 2:1.0 48:1.0 62:1.0 10:1.0 70:1.0 71:1.0 
-0.12008301052025246 -0.3690440015791546 -0.2967208023401996 -0.18522752251514474 0.052789265418355796 0.35301096772609764 0.7840217634976256 0.5931606830323953 0.7526381561784885 0.6489120556821112 2:1.0 48:1.0 62:1.0 15:1.0 6:1.0 70:1.0 71:1.0 
-0.1583337610094522 -0.38483777721125256 -0.380069621840578 -0.16396330847137539 0.09205949690937698 0.4553322044626795 0.8675800671552276 0.6888713227624547 0.8374760686350246 0.7576609810544982 2:1.0 48:1.0 62:1.0 15:1.0 10:1.0 70:1.0 71:1.0 
-0.09069418212799864 -0.14724775963436404 -0.2859824663257785 -0.25566818224521765 0.2957490905791986 0.13561409764639787 0.07633016669636707 0.0 0.0 0.0 72:1.0 6:1.0 
-0.0 -0.0 -0.25915445715615976 -0.23322156056917903 0.4117044099604658 0.12081284113343278 0.0 0.09025687269102599 0.0 0.0 73:1.0 6:1.0 
-0.0 -0.0 -0.26049140680976157 -0.0987766358443037 0.39367819014307676 0.16291709810446445 0.0 0.09155377543716545 0.0 0.0 72:1.0 58:1.0 
-0.08541688448851237 -0.09997001210058723 -0.35074278511403817 -0.2730863306698246 0.3148541202742614 0.22481339816873186 0.06775536744690755 0.07588067235900511 0.0 0.0 73:1.0 58:1.0 
-0.0 -0.08944081878898136 -0.35781588694151223 -0.15348664253144087 0.2538555963796897 0.07208526009365578 0.0 0.0 0.0 0.0 72:1.0 12:1.0 
-0.0 -0.18584496498161504 -0.37611654857889465 -0.10956248959620435 0.29899495655009645 0.07976480959127001 0.04099902838367098 0.06480049532543991 0.0 0.0 73:1.0 12:1.0 
-0.0 -0.10038801311470989 -0.3798627021356201 -0.2637473534198107 0.4241521626894285 0.19810318201646102 0.0 0.21999096611626828 0.0 0.0 72:1.0 10:1.0 
-0.0 -0.0 -0.34555690568436326 -0.13881937610129655 0.3898768571692206 0.10023476105571776 0.11260204228034411 0.16249384704577208 0.0 0.0 73:1.0 10:1.0 
-0.0 -0.07174608424138552 -0.1007610159311052 -0.07955990023345968 0.0 0.0 0.0 0.0739589248536346 0.0 0.0 72:1.0 15:1.0 6:1.0 
-0.0 -0.0 -0.08549663791623292 -0.0 0.2371561297882252 0.0 0.0 0.0 0.0 0.0 73:1.0 15:1.0 6:1.0 
-0.0 -0.0 -0.14521511333143686 -0.0 0.2580543486317875 0.10346230244756835 0.08915488682753847 0.13735000729109914 0.0 0.0 72:1.0 15:1.0 10:1.0 
-0.0 -0.0 -0.06811997444138171 -0.0752310589382572 0.0 0.0 0.0 0.0 0.0 0.0 73:1.0 15:1.0 10:1.0 
-0.08012639626119887 -0.3892195138412836 -0.21952325955893304 -0.33169695927853077 0.25266302975777266 0.367770379138459 0.5509039579567196 0.5286812182437022 0.5359648518202382 0.5656961042991632 6:1.0 39:1.0 75:1.0 76:1.0 
-0.21326495317228428 -0.5494207836662962 -0.6034208643236495 -0.3731742673386621 0.47936440485652404 0.7308350306354986 1.1203827093846979 1.0429653532485936 1.0857614163028255 1.0898709177893235 58:1.0 39:1.0 75:1.0 76:1.0 
-0.18589395767159006 -0.271529082732016 -0.2575797787418771 -0.12199475428442301 0.2822078703568157 0.3754177904816529 0.5942795278619915 0.5218552152925954 0.5013057016797201 0.5121047077868223 12:1.0 39:1.0 75:1.0 76:1.0 
-0.07795178046343722 -0.21702575125475637 -0.2433284206880713 -0.18410069760698072 0.2972599253135825 0.38510500614477805 0.6291298137293416 0.528681218243702 0.6208933780163742 0.5656961042991622 10:1.0 39:1.0 75:1.0 76:1.0 
-0.2873365794040667 -0.5359484171502448 -0.45058569172079654 -0.3560659299161014 0.13126786316346234 0.4615701124360106 0.8498825499150191 0.6846774781407678 0.7693849805470723 0.7406164531615889 15:1.0 6:1.0 39:1.0 75:1.0 76:1.0 
-0.18562726233678933 -0.35834304462720845 -0.5401631265722755 -0.1819982852303021 0.1474311464232492 0.41687619318412955 0.8355878672865049 0.744132116282888 0.8373992858525514 0.7938542546666968 15:1.0 10:1.0 39:1.0 75:1.0 76:1.0 
-0.10345689126098284 -0.28858192281233275 -0.23785206151283733 -0.15442869097568238 0.0 0.3200281390397036 0.7074439401228334 0.5155445113830879 0.6742915473906153 0.6042893763348833 27:1.0 28:1.0 3:1.0 72:1.0 6:1.0 18:1.0 36:1.0 38:1.0 39:1.0 
-0.12366518766631474 -0.2778181911754005 -0.17442599411357182 -0.18507921336755073 0.0 0.4250480465898902 0.7232937263935074 0.5380536013272577 0.7137108268861112 0.6610553086133593 27:1.0 28:1.0 3:1.0 73:1.0 6:1.0 18:1.0 36:1.0 38:1.0 39:1.0 
-0.30558109003949463 -0.6711061176191158 -0.4726146918211599 -0.3481479236861257 0.10368021635734063 0.8404981320207312 1.579783602551395 1.2292929637962118 1.5112988942739758 1.3866737050987559 27:1.0 28:1.0 3:1.0 72:1.0 58:1.0 18:1.0 36:1.0 38:1.0 39:1.0 
-0.3091153252146367 -0.6698106270113422 -0.46172933832422236 -0.36399635851421797 0.1359098497613827 0.8208740330546418 1.558725957579504 1.2251287207974164 1.5112711965734107 1.3828092862378862 27:1.0 28:1.0 3:1.0 73:1.0 58:1.0 18:1.0 36:1.0 38:1.0 39:1.0 
-0.13946441364708262 -0.36957086303551945 -0.16967593175135315 -0.10982432003872689 0.0 0.406461406811088 0.7501412116220989 0.5495293501007268 0.6619339118985709 0.6025103063570866 27:1.0 28:1.0 3:1.0 72:1.0 12:1.0 18:1.0 36:1.0 38:1.0 39:1.0 
-0.10603702105742238 -0.3155477764571385 -0.2228427426431207 -0.11944846342176381 0.0 0.34153785097056366 0.7063713216523743 0.5826482948630434 0.6602425442353127 0.6543801251642175 27:1.0 28:1.0 3:1.0 73:1.0 12:1.0 18:1.0 36:1.0 38:1.0 39:1.0 
-0.13863220426145723 -0.23983845723365657 -0.23365381145027203 -0.21909139656686594 0.08993048576320171 0.37244881834841914 0.6833908395850516 0.6219717622948207 0.6527698858388138 0.6426091374105509 27:1.0 28:1.0 3:1.0 72:1.0 10:1.0 18:1.0 36:1.0 38:1.0 39:1.0 
-0.09374655802138673 -0.3069310833658972 -0.24334173407199833 -0.21319145131677453 0.09613825391892393 0.3327397707256711 0.6824927305014402 0.5630071792705597 0.6695981332849594 0.5459624711526667 27:1.0 28:1.0 3:1.0 73:1.0 10:1.0 18:1.0 36:1.0 38:1.0 39:1.0 
-0.15558549681673212 -0.3430990249757418 -0.2666387437177372 -0.21745920530176863 0.08617934648288234 0.39490937904596696 0.8192420074512766 0.6162132676341083 0.7499393905424617 0.6602644843138272 27:1.0 28:1.0 3:1.0 72:1.0 15:1.0 6:1.0 18:1.0 36:1.0 38:1.0 39:1.0 
-0.12688186627648304 -0.36896782646677057 -0.279731449572391 -0.1373947307158817 0.0 0.44032765358398374 0.7859346785213678 0.686611811905488 0.8365033610185009 0.7518656877317236 27:1.0 28:1.0 3:1.0 73:1.0 15:1.0 6:1.0 18:1.0 36:1.0 38:1.0 39:1.0 
-0.11190735649177673 -0.3680419643600683 -0.2155400295879383 -0.129371534049233 0.05723280257291266 0.4473811304231322 0.8368173201134799 0.6755214106798865 0.7726107276319838 0.753743099133904 27:1.0 28:1.0 3:1.0 72:1.0 15:1.0 10:1.0 18:1.0 36:1.0 38:1.0 39:1.0 
-0.15299982552731947 -0.34976470441380736 -0.23359902047439524 -0.191021055361344 0.12846741610563486 0.35734622367655294 0.8195541622266381 0.6183391186486586 0.7573841313935499 0.6783015932405996 27:1.0 28:1.0 3:1.0 73:1.0 15:1.0 10:1.0 18:1.0 36:1.0 38:1.0 39:1.0 
-0.10809239295323517 -0.18085746728977653 -0.14128091677500143 -0.16914609327441277 0.14844914156324068 0.30951340353519197 0.6627580390943691 0.5215202717270448 0.31771989594745326 0.5105592786162279 27:1.0 28:1.0 3:1.0 72:1.0 6:1.0 
-0.1370693287532662 -0.15511197457643353 -0.19622173759823328 -0.19615761613070973 0.15436038723701415 0.20771565085705393 0.788797296960208 0.4981539067493301 0.2802260179696485 0.4599763219254758 27:1.0 28:1.0 3:1.0 73:1.0 6:1.0 
-0.056939687291895094 -0.09726421645813 -0.12156840056636223 -0.20787217840158076 0.07698226235985282 0.1393522698378329 0.671506995667149 0.3679572587083396 0.2050906098886976 0.37178709233575763 27:1.0 28:1.0 3:1.0 72:1.0 58:1.0 
-0.0 -0.08491765798618917 -0.07354585059170032 -0.14316846742844716 0.10965673456763339 0.1256239849019268 0.5491577063609429 0.33562791687164945 0.16690989819331298 0.36130993059880867 27:1.0 28:1.0 3:1.0 73:1.0 58:1.0 
-0.11525037896742467 -0.13927193415964306 -0.17194300515743977 -0.19638703211386246 0.19319427881560147 0.23243032233702637 0.6620027719254897 0.537231828834421 0.27933100150006557 0.5201009382098418 27:1.0 28:1.0 3:1.0 72:1.0 12:1.0 
-0.06509165897178552 -0.08627222492637396 -0.10740110788174825 -0.22623717357360248 0.14003454778293528 0.21404766541739148 0.7027673247361476 0.4864150648277883 0.31605641471628193 0.5497549087359832 27:1.0 28:1.0 3:1.0 73:1.0 12:1.0 
-0.09834434032232384 -0.14411940936091627 -0.10157189251016616 -0.15081853853187097 0.0834083651549057 0.2114836760198728 0.7428948387585789 0.41513004555362665 0.3492681985615465 0.4473599857301778 27:1.0 28:1.0 3:1.0 72:1.0 10:1.0 
-0.161108912836007 -0.18868380783584215 -0.13162864238777175 -0.1998833115545366 0.07138787787325288 0.28126626509789077 0.6965455141791294 0.4036160575373706 0.3504549255548336 0.48900066213028665 27:1.0 28:1.0 3:1.0 73:1.0 10:1.0 
-0.07642754411496809 -0.2657550687915074 -0.14353215716238601 -0.1431187746648009 0.0982070796498338 0.3799374649974574 0.7500378096187764 0.5446754968878941 0.5933576161966332 0.6379628014343226 27:1.0 28:1.0 3:1.0 72:1.0 15:1.0 6:1.0 
-0.12001401957834067 -0.2813180345603808 -0.1779687405275367 -0.21185108045391957 0.05143682355118767 0.30811648349153703 0.6936688779544963 0.49840636273762734 0.5121190088303519 0.5335554339031308 27:1.0 28:1.0 3:1.0 73:1.0 15:1.0 6:1.0 
-0.11467630240116353 -0.2119554872770735 -0.17560838136305496 -0.24660129275983395 0.0 0.29694658919843303 0.693416754526658 0.49062396082389453 0.5296372786504541 0.5517187808353455 27:1.0 28:1.0 3:1.0 72:1.0 15:1.0 10:1.0 
-0.08532089144608106 -0.21822693058948409 -0.2173804919743743 -0.1633783638378767 0.08853532643785599 0.36500439001410134 0.7297211490672392 0.6002249719137427 0.5892738319227052 0.5724923018688473 27:1.0 28:1.0 3:1.0 73:1.0 15:1.0 10:1.0 
-0.0 -0.1459093027495986 -0.1478467421338732 -0.08658630411390895 0.10617669902187261 0.36583984021696087 0.8015083528224832 0.3594630854532231 0.4076028284521873 0.5369197429613676 54:1.0 2:1.0 3:1.0 72:1.0 6:1.0 
-0.06088093612216399 -0.25093786086915465 -0.16344796117807475 -0.07239384664990373 0.0 0.3996847825211683 0.8364332939155259 0.3682095275762857 0.41471311199615973 0.5524756039248412 54:1.0 2:1.0 3:1.0 73:1.0 6:1.0 
-0.11262764053431967 -0.2238537205551279 -0.16730860414893103 -0.12642055029109078 0.0787925027716583 0.3862933338358836 0.8087629387770924 0.36391969186605505 0.4409333501036679 0.5469361314781579 54:1.0 2:1.0 3:1.0 72:1.0 58:1.0 
-0.0 -0.19623935202822942 -0.10708236443972481 -0.10588932930590492 0.07753629293642555 0.31334290411970933 0.8205963962481421 0.26005743271550563 0.3762306392713256 0.5522880077116707 54:1.0 2:1.0 3:1.0 73:1.0 58:1.0 
-0.05087809238576097 -0.19997146183556538 -0.14304584895965414 -0.09453550747378253 0.10438301256567602 0.390832462256046 0.8706422321820538 0.36021331779637833 0.37304483756525003 0.5826757492716645 54:1.0 2:1.0 3:1.0 72:1.0 12:1.0 
-0.10924969924433264 -0.14470502438330746 -0.08740933464421054 -0.12939324033023125 0.13393839154403264 0.3721077949059155 0.7635198902940951 0.33683735291591627 0.393273829891281 0.5227185452368475 54:1.0 2:1.0 3:1.0 73:1.0 12:1.0 
-0.10726051138940329 -0.17103859747273256 -0.07057206000120916 -0.06434103952557506 0.0 0.3305533304541355 0.812663875069868 0.2674485446447708 0.3903262056026119 0.5364474111432025 54:1.0 2:1.0 3:1.0 72:1.0 10:1.0 
-0.10769986240143059 -0.18391396860228656 -0.1002337042629739 -0.0766531456228906 0.0 0.4267586828359633 0.8097966854674711 0.310224671518752 0.38778751825098123 0.5600227786778422 54:1.0 2:1.0 3:1.0 73:1.0 10:1.0 
-0.1352002986769906 -0.3051701062761031 -0.23583790586535744 -0.15177083349758147 0.12764694334608248 0.39488925051777946 0.8128657360120786 0.514773946927659 0.6666286363165234 0.6310371548682397 54:1.0 2:1.0 3:1.0 72:1.0 15:1.0 6:1.0 
-0.12150119373392415 -0.32273486754783476 -0.1804879042371677 -0.14764884759129832 0.0 0.4178589551259293 0.887518307000689 0.5557364283589571 0.6717360437225731 0.6320057910567116 54:1.0 2:1.0 3:1.0 73:1.0 15:1.0 6:1.0 
-0.12804377751686394 -0.29705527284754457 -0.1747889370995676 -0.20351797265373636 0.0 0.4132592694211488 0.8205567120128076 0.5437870080013841 0.6822211709292769 0.6617726421080647 54:1.0 2:1.0 3:1.0 72:1.0 15:1.0 10:1.0 
-0.13597161187814583 -0.25887612685578154 -0.22970057827957685 -0.17197566246705587 0.1413440170437732 0.3634180653471847 0.759030131806412 0.4837696389476905 0.6284548565647436 0.6876609988703809 54:1.0 2:1.0 3:1.0 73:1.0 15:1.0 10:1.0 
-0.27415614236747443 -0.673040588791204 -0.6959499970688144 -0.36256970332656246 0.16947903948030751 0.8462214108942046 1.554984414758514 1.2847740628007338 1.5165506278604173 1.5038125402857898 1:1.0 36:1.0 18:1.0 26:1.0 62:1.0 15:1.0 6:1.0 
-0.2833510096670111 -0.8632552204221655 -5.0 -0.47814398322857704 0.4444467562104241 0.8884718512441895 1.304217767644344 1.1833774078191377 1.2242936703181506 1.5017918819500413 1:1.0 36:1.0 18:1.0 38:1.0 
-0.05359445005502234 -0.12621164532444107 -0.32471564079928594 -0.10679246777079157 0.11666840660820459 0.36765646122707174 0.7465948287404672 0.43381331651536226 0.3331539600381435 0.529397085567573 1:1.0 2:1.0 3:1.0 72:1.0 6:1.0 
-0.13116700344721866 -0.18682542771739602 -0.3729222099131544 -0.15321945692108513 0.0 0.31439745294366495 0.841887522487055 0.38423106575174854 0.3572574899930619 0.5615227921751011 1:1.0 2:1.0 3:1.0 73:1.0 6:1.0 
-0.1547492725536599 -0.2770489803603638 -0.29315612119673445 -0.23759038038899621 0.0 0.35004104360899313 0.848345086608159 0.34610576943853233 0.32613899976296595 0.5875991518276125 1:1.0 2:1.0 3:1.0 72:1.0 58:1.0 
-0.12937526318227344 -0.15370129293439097 -0.24461599476859636 -0.16617210749510214 0.11219655942647032 0.3173453313671423 0.7899556086155559 0.4555542611753136 0.4079936255478237 0.5314344120116851 1:1.0 2:1.0 3:1.0 73:1.0 58:1.0 
-0.1636699322476207 -0.18553918210585021 -0.2981528649460094 -0.19767270509457285 0.06578692452524375 0.3447578920393113 0.7753565770580803 0.4358989395543155 0.3983635720061307 0.5860054140214721 1:1.0 2:1.0 3:1.0 72:1.0 12:1.0 
-0.1168962337029149 -0.17471814953887205 -0.3507612565461418 -0.20687712700424293 0.0 0.37451935835648403 0.8447147015455266 0.3840482356530187 0.3572282572549204 0.5566413512942937 1:1.0 2:1.0 3:1.0 73:1.0 12:1.0 
-0.10883525390580716 -0.16370696871511015 -0.30357312370928496 -0.15106191473298025 0.0 0.31520141928068945 0.7907250953586978 0.3591212193269231 0.3579291306633817 0.5088527784883428 1:1.0 2:1.0 3:1.0 72:1.0 10:1.0 
-0.11381868789922246 -0.2339212436260082 -0.2985747682524567 -0.22660639526178028 0.0 0.32717258151420453 0.7273041869804449 0.35223629028052317 0.290903982712109 0.5455645245787816 1:1.0 2:1.0 3:1.0 73:1.0 10:1.0 
-0.12940814155179645 -0.23815178884561597 -0.24270451241976118 -0.19625570116784333 0.09753430585881247 0.3832690182794668 0.8862000944365536 0.5083425476219412 0.6266328510298391 0.6360564333703244 1:1.0 2:1.0 3:1.0 72:1.0 15:1.0 6:1.0 
-0.1289601275400753 -0.2641733060037422 -0.26123602467583973 -0.22456046801764495 0.0 0.4057119977671425 0.777333975726478 0.5599041234022426 0.6610188979856071 0.690339184285209 1:1.0 2:1.0 3:1.0 73:1.0 15:1.0 6:1.0 
-0.13566950553026777 -0.34312319843894257 -0.2944934532105258 -0.18639968305659738 0.0 0.354969895035506 0.7507194960709848 0.5525425700424089 0.6568651037426544 0.6517795563366128 1:1.0 2:1.0 3:1.0 72:1.0 15:1.0 10:1.0 
-0.09034807042102103 -0.3342960531997635 -0.26832774803465986 -0.12621494096738825 0.10232551347938941 0.3910236715037809 0.7980249851822825 0.5651575492544836 0.6134640471868772 0.6285775032075078 1:1.0 2:1.0 3:1.0 73:1.0 15:1.0 10:1.0 
-0.36582166222619583 -0.5903110649870618 -0.42574023564985075 -0.34189486535579755 0.11214794710697794 0.689902961101778 1.3744495914863077 1.1107885640719097 1.2999392984749893 1.1674118088542063 7:1.0 13:1.0 3:1.0 73:1.0 15:1.0 12:1.0 
-0.15499259218948688 -0.4501711888946564 -0.2707652274019969 -0.20142233517648256 0.09065568042138852 0.5213997329305932 0.9216928791958248 0.7816896092027334 0.9244398353153681 0.840772412397003 7:1.0 72:1.0 6:1.0 2:1.0 69:1.0 1:1.0 18:1.0 77:1.0 
-0.1305917159952387 -0.4744611462274606 -0.2773590161453262 -0.2095786065701506 0.07666817436196968 0.5149733546760129 0.985506885087108 0.7429427717604015 0.8857329503373137 0.8385674175598143 7:1.0 73:1.0 6:1.0 2:1.0 69:1.0 1:1.0 18:1.0 77:1.0 
-0.1706746232665709 -0.3863961471824952 -0.28762359997687303 -0.24346341273501587 0.06081031819976793 0.47929464866423976 0.9221111016686949 0.7366445314337629 0.9378176052704869 0.8537151231309301 7:1.0 72:1.0 58:1.0 2:1.0 69:1.0 1:1.0 18:1.0 77:1.0 
-0.1744621118875649 -0.3664844381434756 -0.29310079409250833 -0.2093379061579221 0.08576706762169 0.5322572090874005 0.9542939765503641 0.7271707451622065 0.9238968952605489 0.8274528906109209 7:1.0 73:1.0 58:1.0 2:1.0 69:1.0 1:1.0 18:1.0 77:1.0 
-0.12530831898381808 -0.3616364429582127 -0.2638824198373796 -0.21438233490701133 0.09117219363565163 0.48373398899684905 0.9276486414286398 0.7650700682024004 0.9402649394763785 0.787027379655628 7:1.0 72:1.0 12:1.0 2:1.0 69:1.0 1:1.0 18:1.0 77:1.0 
-0.14888164990892416 -0.41489067898259147 -0.26607320562084136 -0.19500974065484994 0.06503092034294336 0.4548858092013922 0.9256556394638944 0.8040320830978246 0.8863671590007552 0.8118631364097422 7:1.0 73:1.0 12:1.0 2:1.0 69:1.0 1:1.0 18:1.0 77:1.0 
-0.21223728000726771 -0.3882979691583061 -0.29129835315391195 -0.20016539300263395 0.08578193634848652 0.5066675907351771 0.9696608659448172 0.7541367189589862 0.9201887176400475 0.8319852699236617 7:1.0 72:1.0 10:1.0 2:1.0 69:1.0 1:1.0 18:1.0 77:1.0 
-0.2085975190321574 -0.40831173362696593 -0.293901707034103 -0.25339792545586903 0.07820833236040016 0.5178728028094499 0.937909161542358 0.7505249654960455 0.9404593681909142 0.8441642793741999 7:1.0 73:1.0 10:1.0 2:1.0 69:1.0 1:1.0 18:1.0 77:1.0 
-0.18871237268084498 -0.4700231887924235 -0.2953312247309995 -0.23308008232007546 0.07365892872129612 0.5244128210045059 1.091552216669084 0.8773305616855936 0.9956123530831787 0.9384328934832609 7:1.0 72:1.0 15:1.0 6:1.0 2:1.0 69:1.0 1:1.0 18:1.0 77:1.0 
-0.16758629860264748 -0.4666029143573281 -0.2696015616301669 -0.2652395798422179 0.08284924816629995 0.5072908298602914 1.0638348550946526 0.8530822932771605 1.03207552364927 0.9250158039392861 7:1.0 73:1.0 15:1.0 6:1.0 2:1.0 69:1.0 1:1.0 18:1.0 77:1.0 
-0.1591223426308364 -0.44574442731557656 -0.27864023906148716 -0.24938634499435688 0.1255093562845259 0.5811141868067853 1.0781756741003106 0.835853228188204 0.9838509819662997 0.9170335408074701 7:1.0 72:1.0 15:1.0 10:1.0 2:1.0 69:1.0 1:1.0 18:1.0 77:1.0 
-0.18099986903276508 -0.4464335669611857 -0.283769621099532 -0.20491648592243913 0.06841168661250291 0.5430057032043739 1.0600945755534548 0.8436807168886333 0.9797684765450144 0.9011479119886541 7:1.0 73:1.0 15:1.0 10:1.0 2:1.0 69:1.0 1:1.0 18:1.0 77:1.0 
-0.20268374922148932 -0.3577439107463302 -0.24252527523695686 -0.2256278274926643 0.08403109033508473 0.4362763742331643 0.8963631246438737 0.692484118020876 0.8266854907155489 0.7165679797878762 7:1.0 72:1.0 6:1.0 2:1.0 69:1.0 71:1.0 
-0.1841769151847394 -0.31638164143318004 -0.27183665942154367 -0.2121144782797485 0.0 0.42469743661380216 0.835249560975021 0.7048833788453691 0.8147806276246806 0.7060921896029642 7:1.0 73:1.0 6:1.0 2:1.0 69:1.0 71:1.0 
-0.1832775108910846 -0.36262237993892743 -0.2603298553602118 -0.16254576932191503 0.08476038758822411 0.4976731153075754 0.8819181653187538 0.7286491581666215 0.8167379691768207 0.7293972117943177 7:1.0 72:1.0 58:1.0 2:1.0 69:1.0 71:1.0 
-0.14585539771673425 -0.4013297918433087 -0.2803785527359153 -0.16766425377926233 0.06435742521229915 0.43995062508594296 0.8366669476169062 0.737569224875487 0.7840643689623088 0.7974096298005094 7:1.0 73:1.0 58:1.0 2:1.0 69:1.0 71:1.0 
-0.15967859503981177 -0.3767220994502317 -0.24952808534348114 -0.20447915410887973 0.06309067088080615 0.4518902885812812 0.8388104651673285 0.7149423412955104 0.799883616005532 0.7689477273818087 7:1.0 72:1.0 12:1.0 2:1.0 69:1.0 71:1.0 
-0.17601096483074036 -0.36622299922657764 -0.20269295923304356 -0.18598820160529334 0.1091227412593351 0.45756625616035024 0.8780217132283665 0.7012931907964072 0.8124505087017699 0.7490292694448284 7:1.0 73:1.0 12:1.0 2:1.0 69:1.0 71:1.0 
-0.1675516665931759 -0.38605624217845663 -0.20260333782123208 -0.19455775472506248 0.0 0.417891277650722 0.8325306230786856 0.6857031955980292 0.8147251401942035 0.7569255539191472 7:1.0 72:1.0 10:1.0 2:1.0 69:1.0 71:1.0 
-0.16579135188705157 -0.38706174732217885 -0.2081191258203617 -0.21373464021601898 0.054589577124260553 0.4048309581177447 0.8589334264722304 0.683267661995204 0.7749219725830994 0.7326086875462428 7:1.0 73:1.0 10:1.0 2:1.0 69:1.0 71:1.0 
-0.2064775819449331 -0.39727598606027065 -0.3084526595657607 -0.21352732451192943 0.10215383056986842 0.4694959409783084 0.9363013944359317 0.7794273423997643 0.9194644182280323 0.826043048289758 7:1.0 72:1.0 15:1.0 6:1.0 2:1.0 69:1.0 71:1.0 
-0.16936539687642604 -0.38438806743185094 -0.27728806554670726 -0.211739436259292 0.0 0.5034256530597139 0.9195651149898159 0.755784087338048 0.8714416949652094 0.8155472717761281 7:1.0 73:1.0 15:1.0 6:1.0 2:1.0 69:1.0 71:1.0 
-0.18683498323445324 -0.4438156854730787 -0.2932770811689979 -0.20989305600514888 0.0 0.5000714279733137 0.9838383220017551 0.8126108933759906 0.9716938542449646 0.8955931482280854 7:1.0 72:1.0 15:1.0 10:1.0 2:1.0 69:1.0 71:1.0 
-0.1894532961351082 -0.40995119523752954 -0.297612003484909 -0.2443019818283944 0.11671838830000855 0.4978078886301112 0.9621512906358961 0.7378939813681746 0.9195720327685368 0.8450588543212831 7:1.0 73:1.0 15:1.0 10:1.0 2:1.0 69:1.0 71:1.0 
-0.983028911786876 -1.3287137086813423 -1.5505150433486325 -1.2840249737062617 -1.5713312867006919 1.5202286322018859 1.4951127918338813 1.5732862438713793 1.4554330356762273 1.6670453915456778 1:1.0 77:1.0 18:1.0 
-0.9933693952184943 -1.3397989387311608 -1.4087788666251457 -1.3080050976779933 -1.5541230235929056 1.518383140391847 1.6028246300144156 1.635660825284651 1.5531442959037374 1.6789469121751865 27:1.0 28:1.0 1:1.0 18:1.0 77:1.0 
-0.5301139235933651 -0.6997783762883234 -0.8030873039129884 -0.7530564020129502 -0.8913566161560368 0.8367393754976283 0.8883186790900193 0.9173567124313192 0.8442024872723879 0.9360126774491957 27:1.0 28:1.0 75:1.0 67:1.0 
-0.6637123932971782 -0.7989810183963753 -0.72145702671591 -0.826117976465979 -0.8899826475127628 0.9547359505798183 0.9836577362097544 0.9481666529779201 0.9303021419972757 1.0500457111792068 27:1.0 28:1.0 75:1.0 51:1.0 
-0.8066565095769805 -1.0771085531611024 -1.0766192462693613 -0.9400960776753493 -1.2283960625407133 1.2011522272544521 1.2278231711366163 1.2001448559468353 1.2185503997980422 1.265626868651471 54:1.0 2:1.0 75:1.0 78:1.0 67:1.0 
-0.8388268309538216 -1.0980159032132453 -1.1010993475317665 -0.968552226343991 -1.2431522284745185 1.1881952805108635 1.22065868271471 1.229600825915477 1.245775633765247 1.2801394375502098 54:1.0 2:1.0 75:1.0 78:1.0 51:1.0 
-0.4913157368184493 -0.6436518944739967 -0.6877221375296495 -0.6192627364336245 -0.8757574789403093 0.7730562465760515 0.7202341177682736 0.7140821194037695 0.6548869009615089 0.7341689435785388 75:1.0 67:1.0 
-0.3493791769291199 -0.5604615539365833 -0.7508245790157069 -0.4825301736032744 -0.8794923127071498 0.6414082453879202 0.624696735059445 0.7804158584190783 0.5562174262207807 0.6625433629234873 75:1.0 51:1.0 
-0.3650255405733979 -0.6492675191152198 -0.6086179783148954 -0.6557352405329238 -0.6202169870848002 1.012900111302135 0.7692706471381441 1.0735087456346961 0.6966582949515986 1.287216927363676 27:1.0 67:1.0 
-0.47452800473225565 -0.44527374667805164 -0.4962108177601648 -0.5390365530073081 -0.6678692401389548 0.9426123995880572 0.6318021863075511 0.9997912380031391 0.5542467283362352 1.2026480505898314 27:1.0 51:1.0 
-0.47176821557977744 -0.4824856291015354 -1.0326590695301263 -0.8494701181745136 -1.1370995264117572 0.6842643230068939 0.7194432161889731 0.8789432848397485 0.5835356095984643 0.6119481014261319 67:1.0 
-0.3727496741699416 -0.7270195149216114 -1.1253952673312955 -0.8208409399086104 -1.0186573608391314 0.7792816231749071 0.8635204315636141 0.9684209564616487 0.7528722885724197 0.6789245445423282 51:1.0 
-0.0 -0.0 -0.0 -0.0 -0.0 -0.0 0.0 0.0 0.0 0.053095595262538264 79:1.0 80:1.0 84:1.0 
-0.0 -0.0 -0.0 -0.0 -0.0 -0.0 0.0 0.29154300224936086 0.0 0.2635008735989987 79:1.0 81:1.0 84:1.0 
-0.0 -0.0 -0.09514653932727865 -0.0 -0.0 -0.1215811503238984 0.0 0.36201210704228487 0.0 0.17712972753833506 79:1.0 82:1.0 84:1.0 
-0.0 -0.0 -0.0 -0.0 -0.0 -0.0 0.0 0.37266129239731605 0.0 0.21553621565991948 79:1.0 83:1.0 84:1.0 
-0.0 -0.0 -0.0 -0.0 -0.0 -0.0 0.0 0.37338028568183057 0.0 0.21706628897223618 79:1.0 80:1.0 85:1.0 
-0.0 -0.0 -0.16463454282176976 -0.12670868017918335 -0.0 -0.1543493611196763 0.058871828235151274 0.3666417446175032 0.0 0.26797033961952044 79:1.0 81:1.0 85:1.0 
-0.0 -0.0 -0.05948945685928614 -0.0 -0.0 -0.0 0.0 0.32863683406018074 0.0 0.455708999166765 79:1.0 82:1.0 85:1.0 
-0.0 -0.0 -0.1514254104724402 -0.0 -0.0 -0.06110228061670067 0.15920749011966162 0.5084231233527967 0.0 0.40570635674759314 79:1.0 83:1.0 85:1.0 
-0.0 -0.0 -0.17087849783882794 -0.15335644738218257 -0.0 -0.05979811739437445 0.0 0.0 0.0 0.0 84:1.0 86:1.0 87:1.0 
-0.0 -0.14752103192724383 -0.19506010482686012 -0.11283655153766681 -0.1225700814559269 -0.29669223531713496 0.0 0.10837078226484415 0.1597720450940357 0.15228857451072703 85:1.0 86:1.0 87:1.0 
-0.0 -0.0 -0.25194611144332296 -0.10236409757492371 -0.0 -0.3225836883581935 0.0 0.0 0.0 0.0 84:1.0 25:1.0 87:1.0 
-0.06362587309339937 -0.1567333955434076 -0.31416729649665376 -0.15316022561028303 -0.21404766541739148 -0.27524640739180667 0.0 0.059856760401565894 0.0 0.0 85:1.0 25:1.0 87:1.0 
-0.2228967248408045 -0.44704681208617303 -0.595312304668465 -0.3949394243297645 -0.606562847320715 -0.4196086189589045 0.7120570409342306 0.8534329979054082 0.64993473387629 0.7246324825889328 80:1.0 84:1.0 79:1.0 
-0.33283873509470235 -0.7596117738368089 -0.5834931999144519 -0.45130149336357667 -1.0487029857869161 -0.17190108444217972 1.7077456504466877 1.4375267954505766 1.605349409598021 1.5377818707791937 26:1.0 43:1.0 68:1.0 3:1.0 80:1.0 84:1.0 88:1.0 89:1.0 87:1.0 
-0.0 -0.09457882930943029 -0.0 -0.0 -0.18700492652603654 -0.0 0.2215344562051486 0.18450827824636012 0.14558043757103525 0.19197678654477363 26:1.0 43:1.0 79:1.0 80:1.0 84:1.0 
-0.20741451021848778 -0.12586907831721808 -0.23852919935217357 -0.147175321352916 -0.2960968208222746 -0.09200125061386578 0.43665749672346865 0.3723361617148407 0.4204716946741152 0.29311007297137626 26:1.0 43:1.0 79:1.0 81:1.0 84:1.0 
-0.0 -0.2304490883808492 -0.09097029945056549 -0.18422226680881038 -0.3454515815082475 -0.0 0.33878070950105144 0.29835929731832883 0.32346297438918165 0.4419345078382722 26:1.0 43:1.0 79:1.0 82:1.0 84:1.0 
-0.0 -0.24526025055900635 -0.19971371221636086 -0.10840486762372527 -0.23243032233702637 -0.0 0.4052589442761119 0.3046599223913647 0.3858516308428265 0.42817457725756713 26:1.0 43:1.0 79:1.0 83:1.0 84:1.0 
-0.04108218777718503 -0.20207727906166612 -0.1382212720383364 -0.1947365600911833 -0.2751750331578516 -0.0 0.4522440993544894 0.4037575959991302 0.3739659742014478 0.46556031093120026 26:1.0 43:1.0 79:1.0 80:1.0 85:1.0 
-0.0 -0.24503096292440077 -0.0924142837163996 -0.07401431945247139 -0.3388721987010247 -0.0 0.360254863837338 0.27068140677022945 0.3514420917015814 0.40819095325332966 26:1.0 43:1.0 79:1.0 81:1.0 85:1.0 
-0.166113894406536 -0.11487633025456387 -0.20880172581221634 -0.06301932212340022 -0.22016469895323165 -0.08611093282146574 0.4551303373965386 0.3501537905682187 0.43523174458386876 0.23494629034964679 26:1.0 43:1.0 79:1.0 82:1.0 85:1.0 
-0.13748923647125333 -0.22073524073678139 -0.0695503467204655 -0.1792890305566788 -0.36412186331789026 -0.11039543582402374 0.3247701689947021 0.28237194501273544 0.318053772527918 0.29051764570435157 26:1.0 43:1.0 79:1.0 83:1.0 85:1.0 
-0.13423328317528574 -0.22560228004360441 -0.14053847819632728 -0.07821217660998862 -0.33621799381028467 -0.10148678414693109 0.5455117717949977 0.41427345176276975 0.5080070053134136 0.43285573390965865 26:1.0 43:1.0 84:1.0 86:1.0 87:1.0 
-0.10718774235458911 -0.26573974214120255 -0.2303485216281466 -0.2311540455670424 -0.4415830485202549 -0.0 0.4837915530875327 0.37804835116255225 0.43265289184320443 0.5368517756594211 26:1.0 43:1.0 85:1.0 86:1.0 87:1.0 
-0.1432928942205144 -0.41632662599761644 -0.25130330352750296 -0.2662067803767783 -0.5764688233213671 -0.0 0.6674577700745674 0.5270883636278436 0.6268352157950727 0.641887489294319 26:1.0 43:1.0 84:1.0 25:1.0 87:1.0 
-0.16140347802505212 -0.33283894725526714 -0.2246842555539505 -0.2021378521252939 -0.49795401031433584 -0.06530975787152705 0.756043477712375 0.6460153450881921 0.7476153775936282 0.5986280456569518 26:1.0 43:1.0 85:1.0 25:1.0 87:1.0 
-0.1483557664886769 -0.17574006573653797 -0.21212591168214187 -0.1169849259735551 -0.24973816463830825 -0.06405596259996146 0.5579705859486742 0.46726292959502214 0.5462055942337999 0.5387663328246106 90:1.0 28:1.0 3:1.0 79:1.0 80:1.0 84:1.0 
-0.09301751706261058 -0.25227192267248977 -0.08821907662401353 -0.1509922988584381 -0.26584631967019656 -0.09775764114604127 0.42977140161356814 0.3943678632717713 0.4264895911952293 0.3575280869900802 90:1.0 28:1.0 3:1.0 79:1.0 81:1.0 84:1.0 
-0.0786841754180958 -0.2299289782423452 -0.27246579128072 -0.1653189471673039 -0.41300745168248815 -0.09137995596078355 0.4824937401465096 0.37285886965674214 0.46370300928555397 0.3971394163465042 90:1.0 28:1.0 3:1.0 79:1.0 82:1.0 84:1.0 
-0.16818626957539368 -0.3263102353635574 -0.19812473742939452 -0.19961762044049938 -0.3394576072705631 -0.09775764114604121 0.507536159846598 0.4182337298639197 0.5028196599005776 0.5160407358986763 90:1.0 28:1.0 3:1.0 79:1.0 83:1.0 84:1.0 
-0.09198601798494084 -0.2695285051937268 -0.19122148991967075 -0.18554038328127792 -0.3727299973582557 -0.09160707615067121 0.4695713991815862 0.38293284433574787 0.44771061522341205 0.4242744087618865 90:1.0 28:1.0 3:1.0 79:1.0 80:1.0 85:1.0 
-0.11234382350767895 -0.21894592629980697 -0.2835849430909026 -0.13217731995353557 -0.35831570852094863 -0.0 0.5536358638301296 0.4835112596050195 0.5375258431359927 0.5522744051426703 90:1.0 28:1.0 3:1.0 79:1.0 81:1.0 85:1.0 
-0.12976536942712702 -0.3059599101330843 -0.12481854602036618 -0.11395454661097998 -0.24460775414595937 -0.0 0.4676217702184618 0.4390699514842916 0.4655962396918306 0.4669143781472577 90:1.0 28:1.0 3:1.0 79:1.0 82:1.0 85:1.0 
-0.05318283070337537 -0.15636093983429789 -0.187993916672454 -0.09106787027889862 -0.25564483336476107 -0.0 0.48334157126984845 0.40135426990437256 0.441252682445402 0.4196213402695117 90:1.0 28:1.0 3:1.0 79:1.0 83:1.0 85:1.0 
-0.0 -0.0 -0.0 -0.0 -0.0 -0.11230362751217665 0.0 0.0 0.0 0.0 90:1.0 28:1.0 3:1.0 79:1.0 85:1.0 
-0.12707693964655659 -0.294049875838714 -0.17910641137327818 -0.2057208479696793 -0.4236787903410719 -0.09998606423589251 0.6427349530477193 0.6125865807553017 0.628773455387225 0.6199915301969812 90:1.0 28:1.0 3:1.0 84:1.0 86:1.0 87:1.0 
-0.16659552917420112 -0.3625559431340926 -0.2404949240312843 -0.21896195474973226 -0.4009123009220119 -0.08172105094880468 0.6640000297254898 0.5453144315631453 0.6404003841014111 0.5586695387410626 90:1.0 28:1.0 3:1.0 85:1.0 86:1.0 87:1.0 
-0.18836401357933774 -0.4839705833071277 -0.4193706050459355 -0.2862724544607569 -0.607158082489306 -0.14216928801468356 0.9132385523026862 0.7430142479891831 0.8481863207855341 0.8382951599819422 90:1.0 28:1.0 3:1.0 84:1.0 25:1.0 87:1.0 
-0.1847099143604538 -0.4297973459340464 -0.3599507397030609 -0.2523074030490619 -0.6044366589892166 -0.16791024465334786 0.9250612757571202 0.7545761841419094 0.8883251981893502 0.874346904864007 90:1.0 28:1.0 3:1.0 85:1.0 25:1.0 87:1.0 
-0.1396747008870392 -0.1883449151375296 -0.20643856345077252 -0.10647009859185877 -0.2768099765915409 -0.0544817907836953 0.43790647680641254 0.3792125449317965 0.4861435802234967 0.5315284158633202 91:1.0 3:1.0 79:1.0 80:1.0 84:1.0 
-0.07728394765927876 -0.2537057986756909 -0.15645730047313025 -0.0961102258774965 -0.27497762920003155 -0.11270056637088074 0.5207107040047715 0.42435715642579525 0.419215685667509 0.3551373699831614 91:1.0 3:1.0 79:1.0 81:1.0 84:1.0 
-0.0 -0.2366694397147872 -0.2584846973578029 -0.17463767100717215 -0.3390179977857918 -0.08487722126025027 0.5663765493300627 0.43149376883019513 0.4525884450834021 0.38430742470617185 91:1.0 3:1.0 79:1.0 82:1.0 84:1.0 
-0.1841424733340432 -0.29837783282738395 -0.2209048098323917 -0.2420171123769123 -0.36446513145576515 -0.0 0.42374189053414435 0.4328593327608246 0.5136475084850713 0.4904544066149851 91:1.0 3:1.0 79:1.0 83:1.0 84:1.0 
-0.08955902108746484 -0.25774339003959845 -0.19106732519648267 -0.20644273602611588 -0.3754177904816529 -0.0 0.5330100085366142 0.4822246539303137 0.42769251005722875 0.4130082651588894 91:1.0 3:1.0 79:1.0 80:1.0 85:1.0 
-0.12217225409510983 -0.2155991121407087 -0.2716733942531294 -0.14626252603532117 -0.36035079196715863 -0.0 0.4988531266219406 0.44253230756178963 0.5118762139106474 0.5305652998297413 91:1.0 3:1.0 79:1.0 81:1.0 85:1.0 
-0.21288338200078508 -0.3103577264028043 -0.17946466264177408 -0.11317826221956544 -0.26740481747217804 -0.0 0.41504947097133144 0.39387579381101 0.48759331222732466 0.4596166838571382 91:1.0 3:1.0 79:1.0 82:1.0 85:1.0 
-0.0 -0.15846509827844152 -0.1660134986704354 -0.13731802900852622 -0.25523694004427055 -0.12146444571117143 0.4872442050343372 0.4134211994470857 0.4308426126304897 0.4150889697506641 91:1.0 3:1.0 79:1.0 83:1.0 85:1.0 
-0.0 -0.0 -0.0 -0.0 -0.0 -0.1085058576895799 0.0 0.0 0.0 0.0 91:1.0 3:1.0 79:1.0 84:1.0 
-0.0 -0.0 -0.0 -0.0 -0.0 -0.20516062012050318 0.0 0.0 0.0 0.0 91:1.0 3:1.0 79:1.0 85:1.0 
-0.1805073801618563 -0.2984548551295295 -0.27498166390471185 -0.1715302927719732 -0.4230246209631824 -0.1513495517224399 0.633866118045633 0.6189737165448611 0.6112446032650021 0.6067757777622804 91:1.0 3:1.0 84:1.0 86:1.0 87:1.0 
-0.08707342997896289 -0.33877941450296284 -0.2804249142793021 -0.20832532943935708 -0.42782974954149905 -0.06752543624069222 0.6271123568447154 0.5489021523217548 0.6018565789984478 0.5475459520515779 91:1.0 3:1.0 85:1.0 86:1.0 87:1.0 
-0.22282124438263795 -0.48237913492390316 -0.36569633295124876 -0.29062111840978594 -0.6121648064150489 -0.13278304384935308 0.8785157964911459 0.6962783351417487 0.8378430148965044 0.8243012793629471 91:1.0 3:1.0 84:1.0 25:1.0 87:1.0 
-0.20318202217601156 -0.4371735354913912 -0.38396872258726744 -0.28557083308120024 -0.6071197788449048 -0.16721688221997708 0.8641444187926679 0.7786582398270349 0.8267209158567556 0.8516198143354762 91:1.0 3:1.0 85:1.0 25:1.0 87:1.0 
-0.0 -0.0 -0.5836322193857868 -0.5798756717787139 -0.2521355737555816 -1.3956256989745472 0.0 1.6467115786836581 0.0 4.810736765191679 27:1.0 79:1.0 
-0.24691340311711596 -0.49881983766580734 -0.33902689958885024 -0.2389149589121824 -0.702347670053731 -0.12210339938698633 1.391478237861522 0.9572333276111678 0.7538053941468343 0.996608583615551 27:1.0 3:1.0 79:1.0 
-0.2948725496681147 -0.672221385340048 -0.48262305316554144 -0.36103464506042054 -0.8729926031076652 -0.14489036426681134 1.4202303725915941 1.1962124716292886 1.3524242113864766 1.3524724057761537 27:1.0 79:1.0 92:1.0 3:1.0 93:1.0 
-0.232351530963523 -0.4975958611499622 -0.3960612359564427 -0.3859091976218896 -0.7510744904284399 -0.27479160634396704 0.9666142052988929 0.8854122816373443 0.8919758434067282 0.924367438665571 27:1.0 28:1.0 3:1.0 84:1.0 53:1.0 79:1.0 
-0.0781703050484137 -0.27949546600471215 -0.1749005505071101 -0.16980734288114294 -0.3786349533444998 -0.07967242724372361 0.5611476603073475 0.4888838966698894 0.5649421026976909 0.5397427970427379 27:1.0 28:1.0 3:1.0 84:1.0 34:1.0 79:1.0 80:1.0 
-0.13421905790255023 -0.24342048166278907 -0.22822974934746873 -0.2277586260017366 -0.3663780048184358 -0.06486318790067483 0.6149240171339659 0.5632886391940807 0.6489477354526305 0.5187841138598701 27:1.0 28:1.0 3:1.0 84:1.0 34:1.0 79:1.0 81:1.0 
-0.156359835092071 -0.31541444082353465 -0.2718036466501179 -0.1869058023091039 -0.420570563728255 -0.11651848001000008 0.6298749578894002 0.5907302070611198 0.5956917315913928 0.6310243237305607 27:1.0 28:1.0 3:1.0 84:1.0 34:1.0 79:1.0 82:1.0 
-0.1465197619615689 -0.3024308056833716 -0.17490055050710898 -0.22775862600173688 -0.4470095143800818 -0.07967242724372375 0.6702933783435112 0.48888389666988963 0.6156998225213833 0.641086868703735 27:1.0 28:1.0 3:1.0 84:1.0 34:1.0 79:1.0 83:1.0 
-0.30452523035979945 -0.6397586504962325 -0.4458581956568796 -0.4400282260713947 -0.8740808111686232 -0.2067879624629349 1.2801641608192267 1.1059245203681751 1.1702170476940605 1.1719196562300058 27:1.0 28:1.0 3:1.0 84:1.0 34:1.0 94:1.0 79:1.0 
-0.35411010101142665 -0.7460386636231046 -0.5917270805920065 -0.48703522223659496 -1.0353339801748764 -0.2334866551369047 1.7048172189655995 1.434767767964154 1.5973077518964414 1.5343587100839187 27:1.0 28:1.0 7:1.0 84:1.0 95:1.0 96:1.0 67:1.0 87:1.0 
-0.3022506929028945 -0.6601868058520481 -0.7546000433278306 -0.6883844036604949 -0.8761749390149957 -0.23245973798111427 1.9995169729998856 1.8197091009872668 1.2511118277251108 3.638788527714781 57:1.0 28:1.0 3:1.0 79:1.0 
-0.36308697342727536 -0.8218485587314317 -0.6065373038608038 -0.4517520179644873 -1.07175447573884 -0.17276597298509902 1.7997990980181164 1.5147274807800222 1.750245025823252 1.625648594527559 54:1.0 80:1.0 84:1.0 55:1.0 18:1.0 97:1.0 25:1.0 37:1.0 86:1.0 87:1.0 25:1.0 87:1.0 
-0.12372837257304102 -0.10512537964947224 -0.0 -0.12388823713825751 -0.23673987099508007 -0.0 0.4558430641727471 0.2477200240027947 0.23035899079479216 0.5227319370313122 54:1.0 2:1.0 3:1.0 79:1.0 80:1.0 84:1.0 
-0.0 -0.21800715965717987 -0.07984668615819292 -0.15292118394730994 -0.29983967920131194 -0.05401039526271004 0.4959404215693185 0.3604711501694883 0.40519840230690496 0.6976567072741052 54:1.0 2:1.0 3:1.0 79:1.0 81:1.0 84:1.0 
-0.0 -0.14913085553389693 -0.17154711614857945 -0.0 -0.24749724231565307 -0.0 0.6367814450376299 0.22899425502241222 0.4402241580653984 0.717193116931479 54:1.0 2:1.0 3:1.0 79:1.0 82:1.0 84:1.0 
-0.1464214945651372 -0.17825058515365746 -0.16208219833568102 -0.06425167000632065 -0.34938810759522587 -0.12375418326853779 0.5627518151495322 0.3182230971777864 0.2631390398831795 0.6520689163171984 54:1.0 2:1.0 3:1.0 79:1.0 83:1.0 84:1.0 
-0.0 -0.23070585793413517 -0.22221801777755523 -0.06766403299030382 -0.3299094974777324 -0.0 0.6238005592542193 0.41237953596284377 0.475590438307279 0.8350299711574126 54:1.0 2:1.0 3:1.0 79:1.0 80:1.0 85:1.0 
-0.1530534756939255 -0.17142578797898264 -0.17423570655989248 -0.07290411567400029 -0.3528148202095003 -0.0 0.6445435313682024 0.3150151591770765 0.35990323587821127 0.6383541861249541 54:1.0 2:1.0 3:1.0 79:1.0 81:1.0 85:1.0 
-0.1786690494302424 -0.2654229940666191 -0.08129292949177355 -0.19308682053403117 -0.36828466247036695 -0.0 0.5452083933323408 0.41589015841440125 0.3776340664554312 0.6253223843987198 54:1.0 2:1.0 3:1.0 79:1.0 82:1.0 85:1.0 
-0.0 -0.18286640791338205 -0.08567923656905553 -0.12368311665227796 -0.3258753437297188 -0.0 0.5218312457435224 0.31067659865196484 0.5092670018884252 0.7282198193276876 54:1.0 2:1.0 3:1.0 79:1.0 83:1.0 85:1.0 
-0.0 -0.0 -0.0 -0.0 -0.0 -0.18332745626641114 0.0 0.0 0.0 0.0 54:1.0 2:1.0 3:1.0 79:1.0 85:1.0 
-0.07260211081925325 -0.24660649294855894 -0.17087080434676932 -0.0925798655260683 -0.40255201692007003 -0.11197269072225245 0.39363777727849303 0.3415746551736989 0.4521561669848094 0.6901493727014791 54:1.0 2:1.0 3:1.0 84:1.0 86:1.0 87:1.0 
-0.1741319687842564 -0.24583840702174733 -0.13765409012179097 -0.14699433715469884 -0.436381733796644 -0.0 0.6497889706826424 0.5312590350820515 0.5962494546176955 0.7499887365023625 54:1.0 2:1.0 3:1.0 85:1.0 86:1.0 87:1.0 
-0.16845851808843945 -0.3675514347547526 -0.19920522330239754 -0.1987129963179366 -0.5864361868882371 -0.07388887655881428 0.8742985362503777 0.6184626700949161 0.6755239942412796 0.6908852643036407 54:1.0 2:1.0 3:1.0 84:1.0 25:1.0 87:1.0 
-0.10385196642067142 -0.39983665378519134 -0.25488372297441847 -0.2267897635314546 -0.6133005684125974 -0.10155002692153124 0.7454134473383434 0.5838428846904801 0.7191130996882937 0.8525170407708326 54:1.0 2:1.0 3:1.0 85:1.0 25:1.0 87:1.0 
-0.3447479026710787 -0.7853592691888811 -0.628532455573737 -0.46239557404992343 -1.0643302094612552 -0.2182727739189258 1.7640228097549187 1.509893635482247 1.6912430236239817 1.5888987156340502 54:1.0 98:1.0 13:1.0 11:1.0 16:1.0 80:1.0 99:1.0 87:1.0 
-0.314659781602746 -0.7736618678118014 -0.6462490206206619 -0.5014443174119362 -1.0563762490952255 -0.3211825411132136 1.4950405619763254 1.323691250479373 1.4498376111455697 1.4156191295905787 54:1.0 98:1.0 65:1.0 89:1.0 87:1.0 
-0.3228104072963775 -0.7132534198336142 -0.6569825538913174 -0.48779806074891313 -1.0067836549055362 -0.33879329894700017 1.4920080932090554 1.3187335050981859 1.4449778121776145 1.413310951666155 54:1.0 98:1.0 95:1.0 96:1.0 87:1.0 
-0.19109008480404283 -0.46964614278834316 -0.3114990619744618 -0.2819769612975609 -0.6467805480025393 -0.17172795563402696 1.0448202275209415 0.782836208480839 0.976467646642454 0.92378329241074 54:1.0 2:1.0 3:1.0 84:1.0 34:1.0 94:1.0 84:1.0 
-0.21498751731148813 -0.5199111263972314 -0.4154113826707839 -0.28511394535703793 -0.7240227302595083 -0.171727955634027 1.02569829854577 0.8686305345744116 1.0005638986673013 0.9594059560119655 54:1.0 2:1.0 3:1.0 84:1.0 34:1.0 94:1.0 85:1.0 
-0.14952127674767077 -0.08720838451967797 -0.22388956798545623 -0.15353560333080643 -0.27730924993728595 -0.0 0.4675768325295018 0.47088660041602215 0.26606717642261374 0.7588883085670388 1:1.0 2:1.0 3:1.0 79:1.0 80:1.0 84:1.0 
-0.16499648577994375 -0.23016151607465846 -0.3061959262418529 -0.21456537291052724 -0.28465977941557785 -0.06829698095628399 0.5354604075146128 0.4348467209932327 0.2925920103622146 0.8097373746852884 1:1.0 2:1.0 3:1.0 79:1.0 81:1.0 84:1.0 
-0.06038501649626471 -0.22453260409738848 -0.14578955097888796 -0.07312525475030647 -0.2430420963625315 -0.0 0.5892012686862605 0.417089431702869 0.4581817121445103 0.7357703872864267 1:1.0 2:1.0 3:1.0 79:1.0 82:1.0 84:1.0 
-0.0 -0.16656291895495468 -0.17608384056259585 -0.11896993694087869 -0.37071513877041923 -0.1034437291333372 0.5884032694888901 0.5032370956945222 0.3640530889720083 0.8358744463636251 1:1.0 2:1.0 3:1.0 79:1.0 83:1.0 84:1.0 
-0.05554440507117246 -0.27362194655555255 -0.20419990415750366 -0.08046491342402366 -0.36583984021696087 -0.0 0.6308447922308353 0.4014554679493953 0.3863327778709258 0.8150254371411128 1:1.0 2:1.0 3:1.0 79:1.0 80:1.0 85:1.0 
-0.08029713117366931 -0.1487773820226544 -0.11939040980910191 -0.08252825262868475 -0.32345690059447535 -0.0 0.5357471493848605 0.45666986897118206 0.4276745440688594 0.8405413349861803 1:1.0 2:1.0 3:1.0 79:1.0 81:1.0 85:1.0 
-0.14380871186997557 -0.16661601988924063 -0.29971430884619443 -0.22263976876123814 -0.3556886419326833 -0.0 0.5873164181875392 0.5159934734354112 0.3124638363381065 0.7348879535614571 1:1.0 2:1.0 3:1.0 79:1.0 82:1.0 85:1.0 
-0.1733697794942548 -0.20971086876606068 -0.24151233452606416 -0.19174877528591572 -0.2664214091985775 -0.0 0.5153001372754719 0.3903279350602648 0.3608210242171077 0.7724142140455813 1:1.0 2:1.0 3:1.0 79:1.0 83:1.0 85:1.0 
-0.0 -0.0 -0.0 -0.014078116297654486 -0.0 -0.12410539032741204 0.0 0.0 0.0 0.0 1:1.0 2:1.0 3:1.0 79:1.0 85:1.0 
-0.08960743631329432 -0.30288219474561123 -0.24178076513977512 -0.18256919684594294 -0.37168617563119666 -0.16552605894964856 0.5779928273542828 0.37139550698272095 0.5522916011167311 0.8503103438656566 1:1.0 2:1.0 3:1.0 84:1.0 86:1.0 87:1.0 
-0.14200047257094944 -0.2402549723878523 -0.32228300969001955 -0.18944742790568486 -0.4675463132903024 -0.0 0.49089155185952615 0.5104153857605155 0.45013717464215897 0.8673058318469192 1:1.0 2:1.0 3:1.0 85:1.0 86:1.0 87:1.0 
-0.22859780191906787 -0.34074383427378196 -0.4027409879600988 -0.2759625782555554 -0.6438005633322541 -0.0 0.6701340142157612 0.65190066817635 0.6518878301550428 0.7211776699115711 1:1.0 2:1.0 3:1.0 84:1.0 25:1.0 87:1.0 
-0.22079113686984136 -0.356023217250671 -0.3300083855654454 -0.2646774737380217 -0.5891893013087313 -0.06895243686150564 0.7587597958642961 0.6244533552805243 0.7519309287061351 0.7107618427047534 1:1.0 2:1.0 3:1.0 85:1.0 25:1.0 87:1.0 
-0.07408019142742259 -0.24883135687123886 -0.16944020342744864 -0.09375894049276297 -0.23719708941049034 -0.0 0.5369778507223352 0.4601543873925764 0.517709723196051 0.5065025342308471 1:1.0 22:1.0 79:1.0 80:1.0 84:1.0 65:1.0 
-0.07031452868508885 -0.2340632121057044 -0.1941360597872464 -0.10912655143552043 -0.38358832126704917 -0.0 0.5907904825009161 0.4608085067175954 0.5833275244070808 0.6015143718576053 1:1.0 22:1.0 79:1.0 81:1.0 84:1.0 65:1.0 
-0.1748029896941371 -0.2561706699865752 -0.23545074219143164 -0.17761632520125095 -0.33633978970274286 -0.0 0.5164035371178515 0.49406530579592756 0.4744931912780481 0.5829056156503982 1:1.0 22:1.0 79:1.0 82:1.0 84:1.0 65:1.0 
-0.16021016367073854 -0.30515454356036603 -0.182559638220463 -0.13848133917881666 -0.2847884104398567 -0.0 0.5316364969876908 0.4118123602898222 0.5323340637021494 0.4972892951597361 1:1.0 22:1.0 79:1.0 83:1.0 84:1.0 65:1.0 
-0.14884153190835425 -0.2128026989632409 -0.23192109899482183 -0.15348828214235358 -0.3067629244658511 -0.07344056769600342 0.5285406850872808 0.46649217227860157 0.45867675353632437 0.5797847183257486 1:1.0 22:1.0 79:1.0 80:1.0 85:1.0 65:1.0 
-0.1307049348026415 -0.30736593875738516 -0.15876207375815993 -0.1573048484203997 -0.25664216546187524 -0.0 0.5586315667904553 0.46421120656129633 0.5661967589370557 0.5196402279149709 1:1.0 22:1.0 79:1.0 81:1.0 85:1.0 65:1.0 
-0.06428637659300561 -0.28518454336053206 -0.1653024667890296 -0.1325032232102976 -0.36699437642437177 -0.09601889426918396 0.5750456717322923 0.4243426464334395 0.6009461611298612 0.533097550212411 1:1.0 22:1.0 79:1.0 82:1.0 85:1.0 65:1.0 
-0.09516311068955619 -0.19672212028027344 -0.17913238942738607 -0.12552921265302297 -0.3817035249588529 -0.082954930150425 0.5395816267441924 0.4470274294993863 0.5509261307640176 0.5264677873223726 1:1.0 22:1.0 79:1.0 83:1.0 85:1.0 65:1.0 
-0.0 -0.0 -0.0 -0.0 -0.0 -0.14533714516397944 0.0 0.0 0.0 0.0 1:1.0 22:1.0 79:1.0 84:1.0 65:1.0 
-0.1522973367989929 -0.20787220957490027 -0.2379467364046478 -0.12614923544058979 -0.4247451802294016 -0.10861755269619754 0.5268026815590594 0.5051341959542598 0.5239770475192258 0.5643884549317886 1:1.0 22:1.0 84:1.0 86:1.0 87:1.0 65:1.0 
-0.12024235117549845 -0.32420133039963595 -0.21497998443739294 -0.22616993785076475 -0.33362829920894227 -0.0 0.6821775071753643 0.4862910401164773 0.6350091871583192 0.5716367697377285 1:1.0 22:1.0 85:1.0 86:1.0 87:1.0 65:1.0 
-0.1221895550017725 -0.41170353752134814 -0.24509725108437447 -0.24851753409252375 -0.4918892336921256 -0.07090304220182944 0.7993456486079868 0.6670880431785549 0.8300970962922009 0.7861628173642025 1:1.0 22:1.0 84:1.0 25:1.0 87:1.0 65:1.0 
-0.20221750507357128 -0.33974850398508677 -0.3437908173208058 -0.1994600398068516 -0.5020008099973561 -0.146371487906366 0.8208547299764847 0.7186321470921408 0.8034903101749585 0.8030096947690615 1:1.0 22:1.0 85:1.0 25:1.0 87:1.0 65:1.0 
-0.35921929448286866 -0.7895364245804045 -0.5693494973410298 -0.4706464951803625 -1.0192069673320785 -0.19320774363156518 1.663542300073403 1.4191093192888353 1.559027066052121 1.5034673683309696 7:1.0 80:1.0 84:1.0 100:1.0 28:1.0 25:1.0 87:1.0 
-0.37812045968867397 -0.7576999257371404 -0.6026867310359472 -0.45937895279947405 -1.0473189185704532 -0.2381522845077521 1.7032175609807314 1.415494853788811 1.584287415123797 1.504339076071443 7:1.0 84:1.0 22:1.0 97:1.0 28:1.0 25:1.0 87:1.0 
-0.1519369658808813 -0.17027131452206426 -0.12029082589266304 -0.10582425634026944 -0.2874908895246956 -0.0 0.575770220762352 0.4718056686192589 0.5640872231492863 0.4926294849854585 7:1.0 101:1.0 102:1.0 3:1.0 79:1.0 80:1.0 84:1.0 103:1.0 
-0.10019611964720852 -0.2732410904598036 -0.14924797479634927 -0.14818334142407288 -0.25407156458769486 -0.0 0.483147868459594 0.40655464847777306 0.42811993627423245 0.39222197641754475 7:1.0 101:1.0 102:1.0 3:1.0 79:1.0 81:1.0 84:1.0 103:1.0 
-0.06726800501956284 -0.2008219828205144 -0.2466943145950173 -0.17103058003324056 -0.3700211836434141 -0.08676824635113292 0.5085232336201263 0.3808400268373024 0.48189651486976937 0.45755916115932754 7:1.0 101:1.0 102:1.0 3:1.0 79:1.0 82:1.0 84:1.0 103:1.0 
-0.11677128436977786 -0.31625791696348843 -0.23311247114988023 -0.1925882865594001 -0.34393401683758595 -0.12853578218630035 0.5209252970948394 0.4266494136554808 0.5073947447529505 0.520634300253029 7:1.0 101:1.0 102:1.0 3:1.0 79:1.0 83:1.0 84:1.0 103:1.0 
-0.09803940238113557 -0.26380689638692495 -0.19979825874389281 -0.17793910230086474 -0.3865894585951183 -0.11451137209281531 0.49565097647107526 0.38893282094480175 0.46461528991805306 0.4196636464086155 7:1.0 101:1.0 102:1.0 3:1.0 79:1.0 80:1.0 85:1.0 103:1.0 
-0.11128630634221008 -0.23418236692643818 -0.21506304042537763 -0.12070514805266697 -0.3456361205472954 -0.05577527610101416 0.6002345143594988 0.4897907406413121 0.5660274159400311 0.5714425971857111 7:1.0 101:1.0 102:1.0 3:1.0 79:1.0 81:1.0 85:1.0 103:1.0 
-0.15393389191048618 -0.3044619829496369 -0.13215560948750565 -0.10060976881109358 -0.24446160862863808 -0.0 0.4749773747477806 0.4442255320480156 0.4732563464297818 0.49946035184514237 7:1.0 101:1.0 102:1.0 3:1.0 79:1.0 82:1.0 85:1.0 103:1.0 
-0.0847549976818943 -0.16184255685920876 -0.16889179877162921 -0.08395057490507218 -0.25671267849829266 -0.0 0.4806696282682577 0.4050631354781633 0.4920739352185016 0.4309870646363398 7:1.0 101:1.0 102:1.0 3:1.0 79:1.0 83:1.0 85:1.0 103:1.0 
-0.0 -0.0 -0.0 -0.0 -0.0 -0.030990649265553394 0.0 0.0 0.0 0.0 7:1.0 101:1.0 102:1.0 3:1.0 79:1.0 85:1.0 103:1.0 
-0.14516515632202198 -0.30825396928486304 -0.25286329078651343 -0.1260862257255133 -0.422854333492174 -0.11334712980260118 0.6572904329359243 0.6304957797160708 0.6470368721384017 0.6504610784400889 7:1.0 101:1.0 102:1.0 3:1.0 84:1.0 86:1.0 87:1.0 103:1.0 
-0.15798007657813945 -0.3278068443856554 -0.19228020301277998 -0.2152832547819536 -0.3912795993127738 -0.0 0.6398439181056517 0.5494414002398937 0.6168280072509768 0.601305862166563 7:1.0 101:1.0 102:1.0 3:1.0 85:1.0 86:1.0 87:1.0 103:1.0 
-0.2032827821739539 -0.4812654673165822 -0.3230770020273849 -0.306665499398062 -0.6072761614413833 -0.11334712980260127 0.9375488308197347 0.7662358859653173 0.9134321031917607 0.8502963472360301 7:1.0 101:1.0 102:1.0 3:1.0 84:1.0 25:1.0 87:1.0 103:1.0 
-0.19370285099744491 -0.4267535404165007 -0.3392674856379381 -0.24603286476089747 -0.598244278793229 -0.13962657769738498 1.0041035417518056 0.7875454712927124 0.9203883249701819 0.8405971348817471 7:1.0 101:1.0 102:1.0 3:1.0 85:1.0 25:1.0 87:1.0 103:1.0 
-0.0 -0.0 -0.0 -0.0 -0.0 -0.0 -0.0 0.0 0.15335572898313454 0.13491537795151873 26:1.0 28:1.0 3:1.0 72:1.0 80:1.0 99:1.0 
-0.0 -0.0 -0.10175854381969364 -0.074988902854974 -0.1477733803600852 -0.0 -0.09238767608931518 0.0 0.0660211403955671 0.0 26:1.0 28:1.0 3:1.0 73:1.0 80:1.0 99:1.0 
-0.0 -0.11574901631899642 -0.11165127046402305 -0.0 -0.18946387994100758 -0.0 -0.058871828235151274 0.05772864376521402 0.16928539865158204 0.22582685055211166 26:1.0 28:1.0 3:1.0 72:1.0 80:1.0 104:1.0 
-0.0 -0.0 -0.0 -0.0 -0.0 -0.0 -0.0 0.0 0.10564451478024872 0.0 26:1.0 28:1.0 3:1.0 73:1.0 80:1.0 104:1.0 
-0.056808563651533854 -0.0 -0.12555464035505037 -0.11729445142377012 -0.0 -0.0 -0.0 0.0 0.07849189540580886 0.07721711674740774 26:1.0 28:1.0 3:1.0 72:1.0 80:1.0 105:1.0 
-0.0 -0.10104245741122658 -0.0 -0.0 -0.13857345194884835 -0.0 -0.0979356871059269 0.08281398380819688 0.24161354868263735 0.15172108299522113 26:1.0 28:1.0 3:1.0 73:1.0 80:1.0 105:1.0 
-0.0 -0.0 -0.0 -0.0 -0.07418096510386037 -0.0 -0.14563020434822543 0.0 0.17512440850849206 0.0 26:1.0 28:1.0 3:1.0 72:1.0 80:1.0 106:1.0 
-0.0 -0.0 -0.07121261835796285 -0.0 -0.0 -0.0 -0.0 0.0 0.15786958527009184 0.20676544267449626 26:1.0 28:1.0 3:1.0 73:1.0 80:1.0 106:1.0 
-0.0 -0.10479764767793777 -0.0709184927135428 -0.13588421599018208 -0.5072648503942139 -0.10494683484383796 -0.14988434967584546 0.11551544605886144 0.47287129658452337 0.28815893027219397 26:1.0 43:1.0 3:1.0 72:1.0 99:1.0 86:1.0 28:1.0 
-0.06600011123618965 -0.17376854518634238 -0.08368451634045845 -0.0 -0.49546631078158604 -0.0 -0.19438538745237868 0.14909909761022236 0.5122908108823816 0.32714284874537736 26:1.0 43:1.0 3:1.0 73:1.0 99:1.0 86:1.0 28:1.0 
-0.06795965868009987 -0.11618636205019542 -0.10887153188499883 -0.0 -0.5361557324520451 -0.0 -0.15527626573800815 0.14976501921908078 0.506641997116599 0.33895425701854454 26:1.0 43:1.0 3:1.0 72:1.0 104:1.0 86:1.0 28:1.0 
-0.0 -0.16626830865656544 -0.10399939546616883 -0.13912335429194744 -0.46938243516021483 -0.0776881556640036 -0.2176985861000764 0.1332134383632266 0.4766232386267405 0.3077384281463735 26:1.0 43:1.0 3:1.0 73:1.0 104:1.0 86:1.0 28:1.0 
-0.0 -0.14742009209848153 -0.07894873774774244 -0.0 -0.5213498525543877 -0.0 -0.16115351258648417 0.19781868665296554 0.5176257750045159 0.32628614855444704 26:1.0 43:1.0 3:1.0 72:1.0 105:1.0 86:1.0 28:1.0 
-0.09943430535905987 -0.16465911147685225 -0.08378315908296605 -0.13778456607395462 -0.529553733312697 -0.09138317378993574 -0.19055444266107832 0.11375117731415288 0.475759401351651 0.301881432404433 26:1.0 43:1.0 3:1.0 73:1.0 105:1.0 86:1.0 28:1.0 
-0.11662639014309827 -0.18455154365414045 -0.1321853122648043 -0.1399770178078453 -0.5570816207871017 -0.07953429193643793 -0.2064021822073778 0.13384710335207536 0.4740061558498582 0.30352211111449406 26:1.0 43:1.0 3:1.0 72:1.0 106:1.0 86:1.0 28:1.0 
-0.0 -0.10579777439523759 -0.06247742345295097 -0.0 -0.49260174786201305 -0.0 -0.18960212651291183 0.13601724681957375 0.5009417602932005 0.32550969123851825 26:1.0 43:1.0 3:1.0 73:1.0 106:1.0 86:1.0 28:1.0 
-0.0 -0.0 -0.0 -0.0 -0.10629653500828706 -0.0 -0.09900530787961634 0.17718365790584967 0.1899609215524673 0.2356031139712043 26:1.0 3:1.0 72:1.0 80:1.0 99:1.0 53:1.0 79:1.0 80:1.0 
-0.0 -0.07695630226041325 -0.0 -0.0 -0.0 -0.0 -0.0 0.0 0.2046109285499047 0.08503450403068477 26:1.0 3:1.0 73:1.0 80:1.0 99:1.0 53:1.0 79:1.0 80:1.0 
-0.0 -0.05272688169826156 -0.0 -0.0 -0.09816022867556434 -0.0 -0.0 0.0917906786184933 0.2213640251118237 0.112148246549837 26:1.0 3:1.0 72:1.0 80:1.0 99:1.0 53:1.0 79:1.0 81:1.0 
-0.0 -0.0 -0.0 -0.0 -0.0801781827403442 -0.0 -0.07278221099901744 0.06400793722525186 0.24665938675855942 0.1844751681891036 26:1.0 3:1.0 73:1.0 80:1.0 99:1.0 53:1.0 79:1.0 81:1.0 
-0.0 -0.0 -0.0 -0.087795178908626 -0.0 -0.0 -0.09900530787961642 0.0 0.33661461120915476 0.1380426436601595 26:1.0 3:1.0 72:1.0 80:1.0 99:1.0 53:1.0 79:1.0 82:1.0 
-0.05898911814136007 -0.07695630226041328 -0.09386157647766351 -0.0 -0.11628931502533733 -0.0 -0.0 0.13794514550930795 0.15066004784465936 0.08904890926004265 26:1.0 3:1.0 73:1.0 80:1.0 99:1.0 53:1.0 79:1.0 82:1.0 
-0.06214936768435843 -0.08117359946054531 -0.09964964413029655 -0.0 -0.10629653500828651 -0.0 -0.0 0.0 0.13615367986666696 0.09756047031104313 26:1.0 3:1.0 72:1.0 80:1.0 99:1.0 53:1.0 79:1.0 83:1.0 
-0.0 -0.0 -0.0 -0.06253019342935459 -0.0 -0.0 -0.09682246161796497 0.11875800374743646 0.3204674954983085 0.19909085870300425 26:1.0 3:1.0 73:1.0 80:1.0 99:1.0 53:1.0 79:1.0 83:1.0 
-0.0 -0.0 -0.0 -0.06882131251470393 -0.0 -0.0 -0.0 0.0 0.0 0.0 46:1.0 66:1.0 18:1.0 37:1.0 25:1.0 3:1.0 72:1.0 81:1.0 99:1.0 
-0.0 -0.0 -0.0 -0.14039196479885468 -0.0 -0.0 -0.0 0.0 0.0 0.0 46:1.0 66:1.0 18:1.0 37:1.0 25:1.0 3:1.0 73:1.0 83:1.0 99:1.0 
-0.0 -0.0 -0.0 -0.09816492655018953 -0.0 -0.0 -0.0 0.0 0.0 0.0 46:1.0 66:1.0 18:1.0 37:1.0 25:1.0 3:1.0 72:1.0 81:1.0 104:1.0 
-0.0 -0.0 -0.0 -0.14785904073100536 -0.0 -0.0 -0.0 0.0 0.0 0.0 46:1.0 66:1.0 18:1.0 37:1.0 25:1.0 3:1.0 73:1.0 80:1.0 105:1.0 
-0.0 -0.0 -0.0 -0.059893220094565595 -0.0 -0.0 -0.0 0.0 0.0 0.0 46:1.0 66:1.0 18:1.0 37:1.0 25:1.0 3:1.0 72:1.0 80:1.0 106:1.0 
-0.0 -0.0 -0.0 -0.0859461761099925 -0.0 -0.0 -0.0 0.0 0.0 0.0 46:1.0 66:1.0 18:1.0 37:1.0 25:1.0 3:1.0 73:1.0 82:1.0 106:1.0 
-0.0 -0.0 -0.0 -0.0 -0.07954410763173142 -0.0 -0.09871209297018473 0.1677907503282421 0.0 0.0 46:1.0 66:1.0 18:1.0 37:1.0 25:1.0 3:1.0 72:1.0 79:1.0 80:1.0 99:1.0 
-0.0 -0.0 -0.0 -0.0 -0.0 -0.0 -0.0 0.23035175095710497 0.06118770035781725 0.11924652356937951 46:1.0 66:1.0 18:1.0 37:1.0 25:1.0 3:1.0 73:1.0 79:1.0 80:1.0 99:1.0 
-0.0 -0.0 -0.0 -0.0 -0.0 -0.0 -0.0 0.0678102848991798 0.08546272544775031 0.052877929771347365 46:1.0 66:1.0 18:1.0 37:1.0 25:1.0 3:1.0 72:1.0 79:1.0 81:1.0 99:1.0 
-0.0 -0.0 -0.0 -0.0 -0.0 -0.0 -0.0 0.1367771745396284 0.0 0.0 46:1.0 66:1.0 18:1.0 37:1.0 25:1.0 3:1.0 73:1.0 79:1.0 81:1.0 99:1.0 
-0.0 -0.09377791608834829 -0.0 -0.0 -0.0 -0.0 -0.0 0.09146794592913438 0.13872496519431274 0.09244439579297921 46:1.0 66:1.0 18:1.0 37:1.0 25:1.0 3:1.0 72:1.0 79:1.0 82:1.0 99:1.0 
-0.0 -0.0 -0.0 -0.0 -0.0 -0.0 -0.0 0.3854920645337995 0.0 0.0 46:1.0 66:1.0 18:1.0 37:1.0 25:1.0 3:1.0 72:1.0 79:1.0 83:1.0 99:1.0 
-0.0 -0.0 -0.0 -0.0 -0.052944577350485085 -0.0 -0.0 0.3106960843154331 0.18530782529964454 0.0 46:1.0 66:1.0 18:1.0 37:1.0 25:1.0 3:1.0 73:1.0 79:1.0 83:1.0 99:1.0 
-0.0 -0.0 -0.0 -0.0 -0.0 -0.0 -0.0 0.3149654983899145 0.21409647390372444 0.10331245292139532 46:1.0 66:1.0 18:1.0 37:1.0 25:1.0 3:1.0 72:1.0 79:1.0 80:1.0 104:1.0 
-0.0 -0.0 -0.0 -0.0 -0.0 -0.0 -0.0 0.32696344877475286 0.0 0.0 46:1.0 66:1.0 18:1.0 37:1.0 25:1.0 3:1.0 73:1.0 79:1.0 80:1.0 104:1.0 
-0.0 -0.0 -0.0 -0.0 -0.0 -0.0 -0.0 0.13056391843324366 0.0 0.0 46:1.0 66:1.0 18:1.0 37:1.0 25:1.0 3:1.0 72:1.0 79:1.0 81:1.0 104:1.0 
-0.0 -0.0 -0.0 -0.0 -0.0 -0.0 -0.0 0.0619422326294759 0.07713444202517178 0.0 46:1.0 66:1.0 18:1.0 37:1.0 25:1.0 3:1.0 73:1.0 79:1.0 81:1.0 104:1.0 
-0.0 -0.0 -0.0 -0.0 -0.0 -0.0 -0.0 0.16070209463344262 0.0 0.0 46:1.0 66:1.0 18:1.0 37:1.0 25:1.0 3:1.0 72:1.0 79:1.0 82:1.0 104:1.0 
-0.0 -0.0 -0.0 -0.0 -0.0 -0.0 -0.08822800735715193 0.19534664464913537 0.16387285563220627 0.13711778442095873 46:1.0 66:1.0 18:1.0 37:1.0 25:1.0 3:1.0 73:1.0 79:1.0 82:1.0 104:1.0 
-0.0 -0.0 -0.0 -0.0 -0.0 -0.0 -0.0 0.2014932754163979 0.0 0.0 46:1.0 66:1.0 18:1.0 37:1.0 25:1.0 3:1.0 72:1.0 79:1.0 83:1.0 104:1.0 
-0.0 -0.0 -0.0 -0.0 -0.0 -0.0 -0.0 0.17861496815595093 0.0 0.0 46:1.0 66:1.0 18:1.0 37:1.0 25:1.0 3:1.0 73:1.0 79:1.0 83:1.0 104:1.0 
-0.0 -0.08832528375815568 -0.0 -0.0 -0.0 -0.0 -0.0 0.07132759185318353 0.0 0.0 46:1.0 66:1.0 18:1.0 37:1.0 25:1.0 3:1.0 73:1.0 79:1.0 80:1.0 105:1.0 
-0.0 -0.0 -0.0 -0.0 -0.0 -0.0 -0.0 0.12103287205546356 0.0 0.0 46:1.0 66:1.0 18:1.0 37:1.0 25:1.0 3:1.0 72:1.0 79:1.0 81:1.0 105:1.0 
-0.0 -0.0 -0.0 -0.0 -0.10594446146515318 -0.0 -0.0 0.15938963213891288 0.20456603363456582 0.11292182940186271 46:1.0 66:1.0 18:1.0 37:1.0 25:1.0 3:1.0 73:1.0 79:1.0 81:1.0 105:1.0 
-0.0 -0.0 -0.0 -0.0 -0.0 -0.0 -0.0 0.45557100946326096 0.11224421714411884 0.0 46:1.0 66:1.0 18:1.0 37:1.0 25:1.0 3:1.0 72:1.0 79:1.0 82:1.0 105:1.0 
-0.0 -0.0 -0.0 -0.0 -0.0 -0.0 -0.0 0.3666785630552142 0.0 0.0 46:1.0 66:1.0 18:1.0 37:1.0 25:1.0 3:1.0 73:1.0 79:1.0 82:1.0 105:1.0 
-0.0 -0.0 -0.0 -0.0 -0.0 -0.0 -0.0 0.10450157650519636 0.09932894059141167 0.16872325109556086 46:1.0 66:1.0 18:1.0 37:1.0 25:1.0 3:1.0 72:1.0 79:1.0 83:1.0 105:1.0 
-0.0 -0.0 -0.0 -0.0 -0.0 -0.0 -0.07965158004934161 0.1525848620241883 0.0 0.0 46:1.0 66:1.0 18:1.0 37:1.0 25:1.0 3:1.0 73:1.0 79:1.0 83:1.0 105:1.0 
-0.0 -0.0 -0.0 -0.0 -0.0 -0.0 -0.0 0.14819602052501804 0.0 0.0 46:1.0 66:1.0 18:1.0 37:1.0 25:1.0 3:1.0 72:1.0 79:1.0 80:1.0 106:1.0 
-0.0 -0.0 -0.0 -0.0 -0.0 -0.0 -0.0 0.07417111970936102 0.13501582301962373 0.0 46:1.0 66:1.0 18:1.0 37:1.0 25:1.0 3:1.0 73:1.0 79:1.0 80:1.0 106:1.0 
-0.0 -0.05180947829307608 -0.0 -0.0 -0.0 -0.0 -0.0 0.4064701143089813 0.08945337345975862 0.14224332835871034 46:1.0 66:1.0 18:1.0 37:1.0 25:1.0 3:1.0 72:1.0 79:1.0 81:1.0 106:1.0 
-0.0 -0.0 -0.0 -0.1142305902731433 -0.0 -0.0 -0.0 0.3836962125102616 0.0 0.0 46:1.0 66:1.0 18:1.0 37:1.0 25:1.0 3:1.0 73:1.0 79:1.0 81:1.0 106:1.0 
-0.0 -0.0 -0.0 -0.0 -0.10033072519481331 -0.0 -0.0 0.07902256468119213 0.0 0.0 46:1.0 66:1.0 18:1.0 37:1.0 25:1.0 3:1.0 72:1.0 79:1.0 82:1.0 106:1.0 
-0.0 -0.0 -0.0 -0.0 -0.0 -0.0 -0.0 0.1290723568133424 0.08244184284037136 0.0 46:1.0 66:1.0 18:1.0 37:1.0 25:1.0 3:1.0 73:1.0 79:1.0 82:1.0 106:1.0 
-0.0 -0.0 -0.0 -0.0 -0.0 -0.0 -0.0 0.07237111715673811 0.13918382453637593 0.0 46:1.0 66:1.0 18:1.0 37:1.0 25:1.0 3:1.0 72:1.0 79:1.0 83:1.0 106:1.0 
-0.0 -0.0 -0.0 -0.0 -0.0 -0.0 -0.0 0.07206019875604118 0.0 0.10056449881276869 46:1.0 66:1.0 18:1.0 37:1.0 25:1.0 3:1.0 73:1.0 79:1.0 83:1.0 106:1.0 
-0.0 -0.0 -0.0 -0.05285327319970018 -0.0 -0.0 -0.0 0.0 0.0 0.0 46:1.0 66:1.0 18:1.0 37:1.0 25:1.0 3:1.0 73:1.0 83:1.0 104:1.0 87:1.0 
-0.0 -0.0 -0.0 -0.0 -0.0 -0.0 -0.0 0.6870268279664704 0.12275949892885167 0.1570390515107462 46:1.0 66:1.0 18:1.0 37:1.0 25:1.0 3:1.0 72:1.0 80:1.0 99:1.0 53:1.0 79:1.0 
-0.0 -0.0 -0.06161525395660849 -0.0 -0.0 -0.0 -0.1133092252477355 0.6481599767198669 0.2663933118999232 0.06531442831940104 46:1.0 66:1.0 18:1.0 37:1.0 25:1.0 3:1.0 73:1.0 80:1.0 99:1.0 53:1.0 79:1.0 
-0.0 -0.10575603638311054 -0.059654672428748785 -0.0 -0.0 -0.0 -0.12938985892814447 0.6434539505317345 0.24398123015558504 0.07720720550739259 46:1.0 66:1.0 18:1.0 37:1.0 25:1.0 3:1.0 72:1.0 81:1.0 99:1.0 53:1.0 79:1.0 
-0.11174805269037696 -0.0 -0.0 -0.0 -0.09053161887926754 -0.0 -0.0 0.5327173405064161 0.10414420766265106 0.13188422077960754 46:1.0 66:1.0 18:1.0 37:1.0 25:1.0 3:1.0 73:1.0 81:1.0 99:1.0 53:1.0 79:1.0 
-0.0 -0.0 -0.0 -0.06388538073693714 -0.0 -0.0 -0.0 0.6343069475519918 0.22918121204306902 0.1426021033346241 46:1.0 66:1.0 18:1.0 37:1.0 25:1.0 3:1.0 72:1.0 82:1.0 99:1.0 53:1.0 79:1.0 
-0.0 -0.0 -0.0 -0.0 -0.08054769815209688 -0.0 -0.0 0.6636383425395995 0.15298584853995487 0.07700554951727821 46:1.0 66:1.0 18:1.0 37:1.0 25:1.0 3:1.0 73:1.0 82:1.0 99:1.0 53:1.0 79:1.0 
-0.0 -0.0 -0.0 -0.0 -0.1014799715492091 -0.0 -0.0 0.44704994331965786 0.15308705808849415 0.07297805369734868 46:1.0 66:1.0 18:1.0 37:1.0 25:1.0 3:1.0 72:1.0 83:1.0 99:1.0 53:1.0 79:1.0 
-0.0 -0.1178548820448901 -0.0 -0.0 -0.0 -0.0 -0.0 0.5427532482556663 0.1961981377134936 0.19995566303384518 46:1.0 66:1.0 18:1.0 37:1.0 25:1.0 3:1.0 73:1.0 83:1.0 99:1.0 53:1.0 79:1.0 
-0.0 -0.0 -0.0 -0.0 -0.0 -0.0 -0.0 0.5489071276471855 0.09596554759253682 0.1424420411816137 46:1.0 66:1.0 18:1.0 37:1.0 25:1.0 3:1.0 72:1.0 80:1.0 104:1.0 53:1.0 79:1.0 
