svm_type c_svc
kernel_type rbf
gamma 0.5
nr_class 10
total_sv 25008
rho -5.037654807006995E-5 0.9397030815773374 0.9391882737646456 0.89824655248398 0.9375871416041519 0.9376109217676823 0.8307582549580137 0.7560827365629097 0.0909254502055985 0.9395197752411732 0.9385443048579081 0.9004910180648044 0.937699954847597 0.938215337699462 0.8304613284512052 0.7561079611037503 0.09097442065867462 0.07595728943848931 -0.9401105815187836 -0.9084076713252416 -0.7975358291685782 -0.9399036381403252 -0.9401971564791568 -0.9407034320290267 -0.9387899890000941 -0.9167503853168734 -0.8191487594281712 -0.9402805555510262 -0.9385590938389893 -0.9378717745462405 0.6930278492046419 0.8580526109761897 -0.26362324412175614 -0.4405509839183629 -0.878457141153191 0.40468057274537966 -0.8076749229676992 -0.8680302829879344 -0.9377727046211328 -0.9135717299955061 -0.9382710995953766 -0.9381506236818044 -0.19984065995806566 -0.7999190716088003 -0.7159062152656037
label 9 8 1 0 4 3 2 5 6 7
nr_sv 5 5 10597 12493 93 513 1206 54 36 6
SV
0.9999995842352922 1.9389203583538086 1.9381093411573866 1.87486316047721 1.9373816487795223 1.937808627969896 1.817342707260017 1.7499087410661094 1.0624596722335953 1:1.0 2:10.0 3:1.0 4:11.0 5:1.0 6:13.0 7:1.0 8:12.0 9:1.0 10:1.0 
0.9997886476471969 1.9453332159050511 1.9554878020767519 1.8760458040764112 1.9391059956463188 1.9381743994779352 1.812367201081974 1.7498683404103474 1.0624393639303087 1:2.0 2:11.0 3:2.0 4:13.0 5:2.0 6:10.0 7:2.0 8:12.0 9:2.0 10:1.0 
1.0 1.9609210320281334 1.9565457258166503 1.8895105315973977 1.9375706096121388 1.9382917761170926 1.8124848409526892 1.7499877060942817 1.0625130986629094 1:3.0 2:12.0 3:3.0 4:11.0 5:3.0 6:13.0 7:3.0 8:10.0 9:3.0 10:1.0 
1.0 1.9389449821525164 1.939384859460941 1.8749963055887116 1.937512691074705 1.9375056499005632 1.8124999823126242 1.749999999900072 1.125000028784428 1:4.0 2:10.0 3:4.0 4:11.0 5:4.0 6:1.0 7:4.0 8:13.0 9:4.0 10:12.0 
1.0 1.919633823258533 1.937689050972866 1.874989820937464 1.9375132106854844 1.9375005793921218 1.8749261496288137 1.7499999997958853 1.1249998233606227 1:4.0 2:1.0 3:4.0 4:13.0 5:4.0 6:12.0 7:4.0 8:11.0 9:4.0 10:10.0 
-0.9999995842352922 1.94359532588991 1.9373795527854836 1.87651322314702 1.9371100074868801 1.9378430196762184 1.8120071464261747 1.749601852795384 1.0623207524967688 1:1.0 2:2.0 3:1.0 4:4.0 5:1.0 6:5.0 7:1.0 8:3.0 9:1.0 10:6.0 
-1.0 1.9386823459124711 1.9376474181686687 1.8754634100236693 1.9375538023763108 1.9389344296456024 1.8749920519501744 1.75000074944764 1.1249978506735747 1:1.0 2:9.0 3:1.0 4:12.0 5:1.0 6:10.0 7:1.0 8:11.0 9:1.0 10:13.0 
-0.9997886476471969 1.9503100220242442 1.9397182282222294 1.8826005390544358 1.9381345579158995 1.9437741635247485 1.8119930578937509 1.7495598561356727 1.0622516250750575 1:2.0 2:1.0 3:2.0 4:2.0 5:2.0 6:3.0 7:2.0 8:4.0 9:2.0 10:5.0 
-1.0 1.9506271998560591 1.953597857596201 1.954877668151098 1.9396201432445737 1.9755357141021708 1.8125041120213925 1.7500173412900228 1.062615443322615 1:3.0 2:5.0 3:3.0 4:6.0 5:3.0 6:9.0 7:3.0 8:7.0 9:3.0 10:8.0 
-1.0 1.939983802119241 1.937707383243058 1.8756625351591825 1.9375397661277987 1.938310684807591 1.8124968847073624 1.749997817275078 1.1249936213803802 1:4.0 2:1.0 3:4.0 4:4.0 5:4.0 6:2.0 7:4.0 8:3.0 9:4.0 10:5.0 
-0.0 -0.0 1.0925679475291477 0.0 0.06382381717202912 0.22679516280088535 0.0 0.0 0.0 1:1.0 2:1.0 3:2.0 4:1.0 5:3.0 6:9.0 7:1.0 8:5.0 9:2.0 10:3.0 
-0.0 -0.0 1.1366442130149506 0.059903141595270215 0.11537149663379385 0.37136848533612393 0.0 0.0 0.0 1:3.0 2:8.0 3:4.0 4:12.0 5:3.0 6:9.0 7:4.0 8:2.0 9:3.0 10:2.0 
-0.0 -0.0 1.2685862020360925 0.0 0.06112569401548673 0.18454169550107102 0.0 0.0 0.0 1:3.0 2:7.0 3:2.0 4:7.0 5:4.0 6:11.0 7:1.0 8:12.0 9:3.0 10:1.0 
-0.0 -0.0 1.1174364748394814 0.0 0.06544182310409458 0.19267498647037234 0.0 0.0 0.0 1:1.0 2:13.0 3:4.0 4:8.0 5:2.0 6:7.0 7:2.0 8:10.0 9:3.0 10:13.0 
-0.0 -0.0 0.9331616757268966 0.0 0.05984264723723555 0.20964881211542608 0.05952956095713979 0.0 0.0 1:3.0 2:10.0 3:2.0 4:10.0 5:4.0 6:5.0 7:1.0 8:2.0 9:3.0 10:8.0 
-0.0 -0.0 1.086581961843583 0.06051819182828361 0.12132326425304624 0.2390919648154065 0.05929573232425661 0.05970826274200358 0.0 1:2.0 2:1.0 3:3.0 4:13.0 5:4.0 6:6.0 7:1.0 8:9.0 9:4.0 10:1.0 
-0.0 -0.0 1.1366901626320878 0.0 0.11765854853038323 0.22366118660408985 0.0 0.0 0.0 1:2.0 2:10.0 3:2.0 4:8.0 5:1.0 6:8.0 7:3.0 8:2.0 9:2.0 10:13.0 
-0.0 -0.0 1.1017418779837251 0.0 0.06698477389120204 0.1367955399857993 0.0 0.0 0.0 1:2.0 2:13.0 3:1.0 4:5.0 5:4.0 6:5.0 7:4.0 8:8.0 9:3.0 10:3.0 
-0.0 -0.0 1.136090313057931 0.060145834413779936 0.11571675939729492 0.2097534976781812 0.0 0.05820285268458303 0.0 1:3.0 2:1.0 3:1.0 4:5.0 5:2.0 6:7.0 7:3.0 8:13.0 9:1.0 10:1.0 
-0.0 -0.0 1.069673123929291 0.06205486182120494 0.13268908334645113 0.25814984905867716 0.0 0.05867363031403999 0.0 1:1.0 2:7.0 3:1.0 4:5.0 5:4.0 6:8.0 7:1.0 8:6.0 9:2.0 10:6.0 
-0.0 -0.0 0.9982664568480775 0.0 0.12968819982610133 0.18815074126251938 0.0 0.0 0.0 1:2.0 2:6.0 3:4.0 4:8.0 5:4.0 6:3.0 7:2.0 8:2.0 9:1.0 10:2.0 
-0.0 -0.0 1.1377656552867155 0.059653230716039896 0.11952950368728299 0.19105871482912096 0.0 0.056558219412151445 0.0 1:4.0 2:13.0 3:1.0 4:6.0 5:3.0 6:8.0 7:1.0 8:3.0 9:2.0 10:3.0 
-0.0 -0.0 1.0231896760479826 0.0 0.05949893948717272 0.17832731572337684 0.0 0.0 0.0 1:2.0 2:10.0 3:3.0 4:12.0 5:1.0 6:2.0 7:2.0 8:2.0 9:2.0 10:13.0 
-0.0 -0.0 0.8994732096590229 0.0 0.08909235318867383 0.16329853319485454 0.0 0.0 0.0 1:2.0 2:5.0 3:2.0 4:12.0 5:2.0 6:3.0 7:1.0 8:2.0 9:3.0 10:3.0 
-0.0 -0.0 1.157226271617261 0.0 0.07201416692704966 0.19137179412740712 0.05985472115440382 0.0 0.0 1:2.0 2:8.0 3:3.0 4:2.0 5:2.0 6:5.0 7:1.0 8:12.0 9:4.0 10:8.0 
-0.0 -0.0 1.0759770063685408 0.0 0.10908478723280007 0.23869288821859658 0.0 0.0 0.0 1:2.0 2:1.0 3:4.0 4:7.0 5:4.0 6:6.0 7:4.0 8:5.0 9:1.0 10:5.0 
-0.0 -0.0 1.0746908556190988 0.06163328266413211 0.1515177675282408 0.20103040388594706 0.05634113062560925 0.0 0.0 1:4.0 2:10.0 3:4.0 4:13.0 5:3.0 6:5.0 7:2.0 8:8.0 9:1.0 10:10.0 
-0.0 -0.0 1.2211547443836739 0.0 0.0661911000495651 0.3797160309583442 0.0 0.05974039481929261 0.0 1:4.0 2:9.0 3:3.0 4:13.0 5:2.0 6:1.0 7:3.0 8:9.0 9:4.0 10:12.0 
-0.0 -0.0 0.981887960274481 0.0 0.06066145204954131 0.17761206766184112 0.0 0.0 0.0 1:4.0 2:1.0 3:3.0 4:1.0 5:1.0 6:3.0 7:4.0 8:4.0 9:2.0 10:11.0 
-0.0 -0.0 0.9352319141540908 0.0 0.10306140167699218 0.2526366833049164 0.0 0.0 0.0 1:2.0 2:5.0 3:3.0 4:13.0 5:3.0 6:12.0 7:3.0 8:7.0 9:1.0 10:13.0 
-0.0 -0.0 1.0057473784841384 0.0 0.13027665199192168 0.276340955099615 0.0 0.0 0.0 1:4.0 2:8.0 3:3.0 4:2.0 5:2.0 6:8.0 7:2.0 8:9.0 9:3.0 10:11.0 
-0.0 -0.0 0.9980004953680559 0.0 0.11776395663879102 0.3633542217994132 0.0 0.0 0.0 1:3.0 2:13.0 3:2.0 4:2.0 5:4.0 6:10.0 7:3.0 8:3.0 9:2.0 10:13.0 
-0.0 -0.0 1.0052069306642895 0.0 0.06445055262912729 0.18015552474124089 0.06006847408534721 0.0 0.0 1:2.0 2:1.0 3:1.0 4:4.0 5:4.0 6:1.0 7:4.0 8:11.0 9:3.0 10:7.0 
-0.0 -0.0 1.3288289989064124 0.0 0.06235691510138532 0.2015103763714276 0.0 0.0618808796431754 0.0 1:2.0 2:9.0 3:4.0 4:2.0 5:3.0 6:3.0 7:2.0 8:6.0 9:3.0 10:9.0 
-0.0 -0.0 1.1603995131126088 0.0 0.06289060177270231 0.19370104395347199 0.0622768711475723 0.0 0.0 1:3.0 2:1.0 3:1.0 4:5.0 5:4.0 6:8.0 7:3.0 8:10.0 9:3.0 10:5.0 
-0.0 -0.0 0.9939016148852071 0.0 0.0687806983704923 0.22552703462845242 0.0 0.0 0.0 1:4.0 2:7.0 3:4.0 4:5.0 5:2.0 6:9.0 7:3.0 8:8.0 9:1.0 10:5.0 
-0.061173861533505014 -0.0 1.101779796828254 0.05566321010255726 0.12190346604230845 0.19230748406082188 0.0 0.06066176518117716 0.0 1:4.0 2:13.0 3:3.0 4:8.0 5:1.0 6:1.0 7:4.0 8:6.0 9:1.0 10:13.0 
-0.0 -0.0 0.9438714602377658 0.05840808725957162 0.05905459495449915 0.17395298313606417 0.0 0.0 0.0 1:2.0 2:3.0 3:4.0 4:10.0 5:3.0 6:5.0 7:3.0 8:13.0 9:4.0 10:3.0 
-0.0 -0.0 1.0667836954735666 0.0 0.06639216842895102 0.17722530389257707 0.0 0.0 0.0 1:3.0 2:2.0 3:4.0 4:10.0 5:2.0 6:6.0 7:1.0 8:12.0 9:3.0 10:10.0 
-0.0 -0.0 1.0945421323189606 0.05909060700785651 0.1429904518838917 0.19123737395687518 0.05933666504033985 0.0 0.0 1:2.0 2:4.0 3:1.0 4:4.0 5:2.0 6:5.0 7:1.0 8:8.0 9:1.0 10:13.0 
-0.0 -0.0 1.134134841001429 0.0 0.07067744590604108 0.19085441935299824 0.059623375167029424 0.0 0.0 1:2.0 2:13.0 3:1.0 4:9.0 5:1.0 6:2.0 7:1.0 8:4.0 9:4.0 10:4.0 
-0.0 -0.0 1.1085029958951318 0.0 0.118752149895888 0.18864512406035283 0.0595547496759406 0.0 0.0 1:2.0 2:12.0 3:4.0 4:6.0 5:3.0 6:9.0 7:4.0 8:1.0 9:4.0 10:12.0 
-0.0 -0.0 1.064373472224701 0.0 0.061446993953298334 0.1844375173522912 0.0 0.0 0.0 1:2.0 2:1.0 3:3.0 4:12.0 5:3.0 6:8.0 7:1.0 8:2.0 9:3.0 10:1.0 
-0.0 -0.0 0.7895532207142825 0.0 0.06411150086087747 0.1744022666542281 0.0 0.0 0.0 1:2.0 2:1.0 3:2.0 4:8.0 5:2.0 6:6.0 7:3.0 8:1.0 9:3.0 10:4.0 
-0.0 -0.0 1.1525240147969997 0.0 0.06495426381729316 0.1858045859258241 0.06125719742754317 0.0 0.0 1:4.0 2:11.0 3:3.0 4:12.0 5:3.0 6:4.0 7:4.0 8:12.0 9:4.0 10:7.0 
-0.0 -0.0 0.8269070536472987 0.0 0.06855930486208431 0.09764526270633983 0.0 0.0 0.0 1:3.0 2:12.0 3:2.0 4:12.0 5:2.0 6:8.0 7:3.0 8:11.0 9:1.0 10:6.0 
-0.0 -0.0 1.0106354635674573 0.0 0.10540147012466539 0.22985012716451497 0.0 0.0 0.0 1:3.0 2:10.0 3:1.0 4:7.0 5:4.0 6:7.0 7:4.0 8:6.0 9:1.0 10:11.0 
-0.0 -0.0 1.0898465123755834 0.0 0.11365235020588484 0.182604838162587 0.0 0.0 0.0 1:2.0 2:10.0 3:1.0 4:4.0 5:3.0 6:12.0 7:4.0 8:9.0 9:2.0 10:9.0 
-0.0 -0.0 1.0688503859051681 0.0617015843675901 0.12129358125156159 0.24408058327765425 0.0 0.0 0.0 1:1.0 2:13.0 3:1.0 4:3.0 5:1.0 6:12.0 7:4.0 8:11.0 9:2.0 10:12.0 
-0.0 -0.0 0.9555814601629276 0.0 0.06026407300286457 0.21111596150499728 0.0 0.0 0.0 1:2.0 2:7.0 3:1.0 4:6.0 5:3.0 6:6.0 7:4.0 8:13.0 9:4.0 10:9.0 
-0.0 -0.0 1.1492865262251621 0.0 0.13343714185852595 0.18837755024578795 0.0 0.0 0.0 1:2.0 2:1.0 3:3.0 4:2.0 5:2.0 6:10.0 7:4.0 8:1.0 9:4.0 10:12.0 
-0.0 -0.0 1.011754488865218 0.0 0.07720432501517484 0.17219331448550873 0.0 0.0 0.0 1:1.0 2:6.0 3:3.0 4:9.0 5:2.0 6:8.0 7:2.0 8:2.0 9:4.0 10:9.0 
-0.0 -0.0 0.9980946669491096 0.0 0.06074913411928723 0.2366513603643105 0.0 0.0 0.0 1:1.0 2:7.0 3:4.0 4:4.0 5:4.0 6:12.0 7:3.0 8:7.0 9:2.0 10:2.0 
-0.0 -0.0 0.9203588000828609 0.0 0.060633678440998345 0.2257954237621354 0.0 0.0 0.0 1:4.0 2:5.0 3:3.0 4:11.0 5:2.0 6:7.0 7:4.0 8:8.0 9:3.0 10:8.0 
-0.0 -0.0 0.809974167710092 0.0 0.06549831673904483 0.11985573361543139 0.0 0.0 0.0 1:2.0 2:2.0 3:3.0 4:4.0 5:4.0 6:13.0 7:1.0 8:5.0 9:2.0 10:13.0 
-0.0 -0.0 1.05670446631082 0.0 0.10769637783878722 0.18156378364401077 0.0 0.0 0.0 1:3.0 2:6.0 3:2.0 4:13.0 5:4.0 6:13.0 7:3.0 8:10.0 9:2.0 10:12.0 
-0.0 -0.0 1.0120154407985091 0.0 0.05550429605630406 0.1685139960931049 0.061199282962416036 0.0 0.0 1:4.0 2:7.0 3:3.0 4:2.0 5:4.0 6:5.0 7:3.0 8:9.0 9:2.0 10:5.0 
-0.0 -0.0 1.1149730115550627 0.0 0.11353407558427214 0.28706726895466783 0.0 0.0 0.0 1:4.0 2:2.0 3:2.0 4:7.0 5:3.0 6:13.0 7:2.0 8:12.0 9:1.0 10:7.0 
-0.0 -0.0 1.1655801850000114 0.05975369980488395 0.0661973267016557 0.17918975593285422 0.0 0.0 0.0 1:3.0 2:1.0 3:4.0 4:10.0 5:2.0 6:10.0 7:1.0 8:5.0 9:2.0 10:11.0 
-0.0 -0.0 1.085298493280447 0.0 0.09014972527405585 0.19256301904484904 0.0 0.0 0.0 1:4.0 2:11.0 3:3.0 4:13.0 5:1.0 6:1.0 7:1.0 8:13.0 9:2.0 10:2.0 
-0.0 -0.0 1.2778176917609834 0.0 0.06253223143643943 0.21952259831574522 0.0 0.0 0.0 1:2.0 2:12.0 3:2.0 4:4.0 5:3.0 6:2.0 7:2.0 8:7.0 9:4.0 10:12.0 
-0.0 -0.0 1.0548455990676162 0.05696218647538015 0.11753573721450883 0.19690998581597313 0.0 0.0 0.0 1:1.0 2:2.0 3:4.0 4:2.0 5:4.0 6:10.0 7:2.0 8:11.0 9:3.0 10:1.0 
-0.0 -0.0 1.0472516094763826 0.0 0.10751377507696122 0.30766244759438344 0.0 0.0 0.0 1:3.0 2:10.0 3:1.0 4:9.0 5:4.0 6:3.0 7:2.0 8:4.0 9:1.0 10:4.0 
-0.0 -0.0 1.1655594714600053 0.0 0.09124615521852314 0.14161948054179052 0.0 0.0 0.0 1:3.0 2:12.0 3:3.0 4:10.0 5:4.0 6:6.0 7:2.0 8:6.0 9:2.0 10:13.0 
-0.0 -0.0 1.243843646049068 0.058712614678860076 0.07039726019429665 0.1938312861875316 0.06564204682124525 0.0 0.0 1:4.0 2:12.0 3:3.0 4:1.0 5:2.0 6:13.0 7:2.0 8:6.0 9:2.0 10:1.0 
-0.0 -0.0 0.9450254075566922 0.0 0.06921566198209111 0.18494766319404754 0.0 0.0 0.0 1:4.0 2:12.0 3:2.0 4:9.0 5:2.0 6:5.0 7:2.0 8:12.0 9:3.0 10:10.0 
-0.0 -0.0 1.0069208473961586 0.06494136908312292 0.059496115664403104 0.17353278224821378 0.0 0.0 0.0 1:3.0 2:10.0 3:1.0 4:7.0 5:4.0 6:7.0 7:2.0 8:6.0 9:2.0 10:4.0 
-0.0 -0.0 1.1074564062734749 0.0 0.11752306848222988 0.18886686628036603 0.0 0.0 0.0 1:1.0 2:13.0 3:2.0 4:5.0 5:4.0 6:12.0 7:2.0 8:12.0 9:4.0 10:1.0 
-0.0 -0.0 1.040566958784597 0.0 0.06594622042890155 0.18577129146063076 0.0 0.0 0.0 1:1.0 2:8.0 3:4.0 4:7.0 5:4.0 6:13.0 7:2.0 8:6.0 9:3.0 10:6.0 
-0.0 -0.0 1.1011129234911623 0.0 0.05975793897857051 0.2770867430807425 0.0 0.0 0.0 1:3.0 2:8.0 3:1.0 4:8.0 5:2.0 6:5.0 7:3.0 8:3.0 9:3.0 10:1.0 
-0.0 -0.0 1.0207663750988512 0.0 0.056740249890077976 0.22932083619242355 0.0 0.0 0.0 1:3.0 2:7.0 3:2.0 4:5.0 5:1.0 6:11.0 7:3.0 8:4.0 9:3.0 10:5.0 
-0.0 -0.0 1.1206152204471 0.07947349582332008 0.06971510175363774 0.24698109189429146 0.0 0.0 0.0 1:2.0 2:4.0 3:1.0 4:4.0 5:1.0 6:7.0 7:4.0 8:8.0 9:1.0 10:5.0 
-0.0 -0.0 1.0952018828970451 0.0 0.13056255152744728 0.23219458028042234 0.0 0.0 0.0 1:4.0 2:7.0 3:2.0 4:12.0 5:3.0 6:3.0 7:1.0 8:8.0 9:1.0 10:7.0 
-0.0 -0.0 1.0676971686424075 0.0 0.06549597772375321 0.23974273282495168 0.0 0.0 0.0 1:1.0 2:4.0 3:1.0 4:6.0 5:4.0 6:13.0 7:2.0 8:13.0 9:4.0 10:3.0 
-0.0 -0.0 1.146447309301641 0.0 0.1166307125292192 0.22163979037573314 0.0 0.0 0.0 1:2.0 2:7.0 3:4.0 4:10.0 5:1.0 6:10.0 7:1.0 8:2.0 9:4.0 10:5.0 
-0.0 -0.0 1.0295950241577962 0.0 0.05769908527281046 0.1799519167906124 0.0 0.05981582450846134 0.0 1:2.0 2:9.0 3:2.0 4:4.0 5:1.0 6:10.0 7:3.0 8:7.0 9:2.0 10:7.0 
-0.0 -0.0 1.0230016509567768 0.0 0.06291572849143308 0.19408435820894718 0.0 0.0 0.0 1:3.0 2:3.0 3:3.0 4:8.0 5:4.0 6:8.0 7:1.0 8:1.0 9:1.0 10:11.0 
-0.0 -0.0 1.1389240088924302 0.0 0.074915838071835 0.1912216797950263 0.06074325604038022 0.0 0.0 1:2.0 2:12.0 3:4.0 4:2.0 5:1.0 6:5.0 7:3.0 8:10.0 9:1.0 10:10.0 
-0.0 -0.0 1.0883412889494166 0.0 0.06511917643940174 0.1294906673674553 0.0 0.0 0.0 1:2.0 2:3.0 3:1.0 4:6.0 5:2.0 6:12.0 7:3.0 8:6.0 9:4.0 10:5.0 
-0.0 -0.0 0.790824462977952 0.0 0.0 0.12051305928947763 0.0 0.0590457211170215 0.0 1:2.0 2:6.0 3:4.0 4:4.0 5:1.0 6:13.0 7:4.0 8:6.0 9:4.0 10:5.0 
-0.0 -0.0 1.070682623850824 0.0 0.11499240459739579 0.2909021113406358 0.0 0.0 0.0 1:4.0 2:3.0 3:4.0 4:10.0 5:2.0 6:8.0 7:1.0 8:7.0 9:3.0 10:10.0 
-0.0 -0.0 1.1143264818948238 0.0 0.11508032158294346 0.17404980376009116 0.0 0.0 0.0 1:4.0 2:5.0 3:1.0 4:11.0 5:3.0 6:10.0 7:1.0 8:1.0 9:3.0 10:1.0 
-0.0 -0.0 1.0093504607833703 0.0 0.059176902372940876 0.18925960256323432 0.0 0.0 0.0 1:3.0 2:11.0 3:2.0 4:7.0 5:2.0 6:12.0 7:2.0 8:5.0 9:1.0 10:7.0 
-0.0 -0.0 1.0623963602053341 0.0 0.06264827371282694 0.1791360894792175 0.0 0.06444742939468151 0.0 1:2.0 2:10.0 3:3.0 4:1.0 5:3.0 6:9.0 7:2.0 8:9.0 9:3.0 10:5.0 
-0.0 -0.0 1.1629605950119137 0.06097465364021365 0.06537539091364417 0.1957117830022574 0.06861386685058374 0.0590774661023184 0.0 1:2.0 2:13.0 3:1.0 4:1.0 5:2.0 6:12.0 7:1.0 8:7.0 9:2.0 10:7.0 
-0.0 -0.0 1.4471056045465964 0.0 0.0649956985134705 0.2402263756872691 0.0 0.0 0.0 1:3.0 2:10.0 3:2.0 4:3.0 5:2.0 6:1.0 7:4.0 8:7.0 9:4.0 10:10.0 
-0.0 -0.0 1.0848835843417555 0.0 0.12129136614078695 0.24026171492429077 0.0 0.0594429258410627 0.0 1:3.0 2:1.0 3:2.0 4:11.0 5:4.0 6:11.0 7:1.0 8:13.0 9:2.0 10:2.0 
-0.0 -0.0 1.0235028901194132 0.0 0.054587408458438125 0.16446024129308096 0.0 0.0 0.0 1:2.0 2:4.0 3:2.0 4:7.0 5:4.0 6:4.0 7:2.0 8:6.0 9:2.0 10:8.0 
-0.0 -0.0 1.0775120990937799 0.0 0.06483218621444925 0.24258287225725256 0.06223605250558456 0.0 0.06024599387345259 1:1.0 2:3.0 3:4.0 4:3.0 5:4.0 6:4.0 7:3.0 8:1.0 9:4.0 10:13.0 
-0.0 -0.0 1.080205565968141 0.0 0.11830161313914717 0.1883056504601536 0.0 0.06030726620600981 0.0 1:3.0 2:3.0 3:1.0 4:1.0 5:4.0 6:3.0 7:2.0 8:13.0 9:4.0 10:8.0 
-0.0 -0.0 1.105639363588115 0.0 0.10598045306398618 0.18841182776881987 0.0 0.0 0.0 1:4.0 2:5.0 3:2.0 4:5.0 5:2.0 6:1.0 7:4.0 8:8.0 9:1.0 10:13.0 
-0.0 -0.0 1.0755328314780839 0.07226978109326043 0.12064811570950379 0.19103966237932302 0.0 0.0 0.06867536815775077 1:1.0 2:10.0 3:3.0 4:9.0 5:3.0 6:10.0 7:1.0 8:8.0 9:4.0 10:13.0 
-0.0 -0.0 1.0249244188232836 0.0 0.06418243505115068 0.13141075428706683 0.0 0.0 0.0 1:2.0 2:1.0 3:2.0 4:9.0 5:3.0 6:9.0 7:3.0 8:13.0 9:2.0 10:8.0 
-0.0 -0.0 1.0072647293427337 0.061791859137727556 0.11548279567912995 0.19054589926523646 0.0 0.0 0.0 1:3.0 2:10.0 3:1.0 4:12.0 5:1.0 6:7.0 7:3.0 8:13.0 9:2.0 10:12.0 
-0.0 -0.0 1.1344409330918241 0.0 0.11280151787200254 0.21823103493050866 0.0 0.0 0.0 1:3.0 2:10.0 3:2.0 4:7.0 5:4.0 6:2.0 7:3.0 8:12.0 9:2.0 10:2.0 
-0.0 -0.0 1.0699352706063927 0.07022614857715809 0.07167017566801337 0.1567074110066684 0.0 0.0 0.0 1:2.0 2:7.0 3:4.0 4:9.0 5:1.0 6:5.0 7:3.0 8:9.0 9:3.0 10:6.0 
-0.0 -0.0 0.9815765611906381 0.0 0.1180111367395611 0.32148941590779195 0.0 0.0 0.0 1:2.0 2:4.0 3:2.0 4:2.0 5:2.0 6:5.0 7:4.0 8:1.0 9:4.0 10:4.0 
-0.0 -0.0 1.0078581129479385 0.0 0.05767858685359469 0.28662041122763043 0.0 0.0 0.0 1:1.0 2:12.0 3:2.0 4:8.0 5:2.0 6:2.0 7:1.0 8:1.0 9:3.0 10:8.0 
-0.0 -0.0 1.109005390152444 0.05721622727222425 0.12178159558480478 0.19078147793466113 0.06378188599852386 0.0 0.0 1:1.0 2:1.0 3:1.0 4:13.0 5:4.0 6:11.0 7:3.0 8:13.0 9:4.0 10:4.0 
-0.0 -0.0 1.121003327228511 0.0 0.06434154208094281 0.19455883842924826 0.0 0.0 0.0 1:3.0 2:13.0 3:1.0 4:2.0 5:3.0 6:2.0 7:1.0 8:9.0 9:3.0 10:11.0 
-0.0 -0.0 0.8940929435782858 0.0 0.05287816639283844 0.12085584160190438 0.0 0.0 0.0 1:3.0 2:6.0 3:2.0 4:11.0 5:3.0 6:2.0 7:3.0 8:10.0 9:1.0 10:11.0 
-0.0 -0.0 1.0173887797265408 0.0 0.0646251841855756 0.17393504922562436 0.0 0.0 0.0 1:4.0 2:8.0 3:2.0 4:11.0 5:2.0 6:12.0 7:3.0 8:3.0 9:4.0 10:11.0 
-0.0 -0.0 1.0698814859043313 0.0 0.11831024074871102 0.2268918919637019 0.0 0.0 0.0 1:3.0 2:13.0 3:1.0 4:3.0 5:2.0 6:7.0 7:1.0 8:8.0 9:4.0 10:8.0 
-0.0 -0.0 0.8286883559711735 0.061936567275216875 0.11690594844774166 0.12459293929953114 0.0 0.0 0.0 1:1.0 2:7.0 3:3.0 4:1.0 5:1.0 6:5.0 7:1.0 8:1.0 9:2.0 10:3.0 
-0.0 -0.0 1.0887258733631557 0.06332161835456845 0.12041004634612268 0.18721614563471062 0.05975280954651718 0.0 0.0 1:1.0 2:4.0 3:1.0 4:12.0 5:1.0 6:2.0 7:4.0 8:9.0 9:2.0 10:12.0 
-0.0 -0.0 1.1132534622547618 0.0 0.11940335974854788 0.32209158397925713 0.0 0.0 0.0 1:4.0 2:11.0 3:1.0 4:1.0 5:2.0 6:1.0 7:1.0 8:3.0 9:3.0 10:5.0 
-0.0 -0.0 1.1661784891410132 0.0 0.11649877600558217 0.21063723082791663 0.0 0.0 0.0 1:3.0 2:1.0 3:3.0 4:10.0 5:1.0 6:4.0 7:2.0 8:10.0 9:2.0 10:3.0 
-0.0 -0.0 1.0719611642660574 0.0 0.05669895269168852 0.17554240467405335 0.0 0.0 0.0 1:3.0 2:13.0 3:2.0 4:4.0 5:2.0 6:9.0 7:2.0 8:3.0 9:3.0 10:3.0 
-0.0 -0.0 1.0141630387003753 0.0 0.06102101443142477 0.2501131265833596 0.07047666282362469 0.0 0.0 1:3.0 2:11.0 3:2.0 4:10.0 5:3.0 6:12.0 7:1.0 8:3.0 9:1.0 10:10.0 
-0.0 -0.0 1.0782596995493545 0.0 0.0582262386684483 0.16673198889127439 0.0 0.0 0.0 1:2.0 2:7.0 3:2.0 4:3.0 5:3.0 6:13.0 7:1.0 8:5.0 9:4.0 10:5.0 
-0.0 -0.0 1.0881942207065558 0.0 0.11632895859824194 0.2066151837356971 0.0 0.0 0.0 1:2.0 2:9.0 3:4.0 4:8.0 5:2.0 6:8.0 7:2.0 8:3.0 9:2.0 10:7.0 
-0.0 -0.0 1.0480590548753073 0.0 0.11798745654739518 0.18473660274063503 0.0 0.0 0.0 1:3.0 2:9.0 3:1.0 4:13.0 5:4.0 6:8.0 7:4.0 8:9.0 9:1.0 10:6.0 
-0.0 -0.0 1.0348419208401103 0.0 0.0677544653749467 0.19889527547402433 0.0 0.0 0.0 1:4.0 2:2.0 3:1.0 4:8.0 5:2.0 6:6.0 7:2.0 8:10.0 9:3.0 10:8.0 
-0.0 -0.0 0.9821199329271324 0.0 0.06293922867620971 0.1821424061104837 0.0 0.0 0.0 1:4.0 2:7.0 3:3.0 4:7.0 5:4.0 6:9.0 7:4.0 8:3.0 9:4.0 10:10.0 
-0.0 -0.0 0.8074391938891782 0.07217376196903141 0.0 0.10148068660504495 0.0 0.0 0.0 1:3.0 2:7.0 3:2.0 4:7.0 5:3.0 6:4.0 7:3.0 8:6.0 9:1.0 10:3.0 
-0.0 -0.0 0.9422522144783843 0.0 0.10699902676390638 0.35584701405847446 0.0 0.0 0.06070249487300319 1:4.0 2:6.0 3:2.0 4:9.0 5:4.0 6:7.0 7:1.0 8:8.0 9:3.0 10:8.0 
-0.0 -0.0 1.1341881079759617 0.0 0.06653588815289668 0.1884275825245879 0.0 0.0 0.0 1:4.0 2:12.0 3:1.0 4:3.0 5:3.0 6:3.0 7:4.0 8:7.0 9:3.0 10:10.0 
-0.0 -0.0 1.1305713973532165 0.0 0.12019537155706334 0.1897106167990324 0.0 0.0 0.0 1:1.0 2:11.0 3:2.0 4:6.0 5:2.0 6:3.0 7:4.0 8:12.0 9:4.0 10:11.0 
-0.0 -0.0 1.130136933537024 0.0 0.07312105288389759 0.1840464578499464 0.0 0.0 0.0 1:3.0 2:6.0 3:2.0 4:13.0 5:3.0 6:9.0 7:1.0 8:13.0 9:1.0 10:10.0 
-0.0 -0.0 1.0947929449239753 0.0 0.057309504627715835 0.16863945286291093 0.0 0.0 0.0 1:2.0 2:11.0 3:3.0 4:6.0 5:4.0 6:7.0 7:3.0 8:2.0 9:3.0 10:11.0 
-0.0 -0.0 1.1065638461618428 0.0 0.11873330817613892 0.19334396631682327 0.0 0.0 0.0 1:3.0 2:1.0 3:2.0 4:9.0 5:2.0 6:8.0 7:2.0 8:6.0 9:1.0 10:1.0 
-0.0 -0.0 1.0536663758187135 0.0 0.07228242239151583 0.17175813300349208 0.0 0.0 0.0 1:3.0 2:7.0 3:1.0 4:4.0 5:2.0 6:2.0 7:3.0 8:2.0 9:2.0 10:12.0 
-0.0 -0.0 1.2363561655779236 0.06578497548370821 0.061732310445853755 0.2071539436373083 0.0 0.0 0.0 1:2.0 2:7.0 3:2.0 4:13.0 5:3.0 6:10.0 7:1.0 8:9.0 9:1.0 10:10.0 
-0.0 -0.0 1.187164268975809 0.0 0.12014870463138577 0.23288154503147201 0.0 0.0 0.0 1:4.0 2:9.0 3:2.0 4:2.0 5:1.0 6:11.0 7:2.0 8:12.0 9:3.0 10:11.0 
-0.0 -0.0 1.294866388215962 0.0 0.11277549389874725 0.17906414255083425 0.0 0.0 0.0 1:2.0 2:3.0 3:3.0 4:4.0 5:2.0 6:8.0 7:4.0 8:4.0 9:3.0 10:12.0 
-0.0 -0.0 1.0156612715105677 0.0 0.112786430414409 0.304462340884606 0.0 0.0 0.0 1:2.0 2:8.0 3:1.0 4:6.0 5:2.0 6:6.0 7:2.0 8:7.0 9:3.0 10:13.0 
-0.0 -0.0 1.0763079626583854 0.058094986124514636 0.11763883832750621 0.18863614207832366 0.0 0.0 0.0 1:1.0 2:1.0 3:1.0 4:12.0 5:4.0 6:3.0 7:4.0 8:6.0 9:3.0 10:1.0 
-0.0 -0.0 0.906771305806369 0.0 0.05395763860288272 0.17512389799478925 0.0 0.0 0.0 1:4.0 2:10.0 3:1.0 4:5.0 5:3.0 6:7.0 7:4.0 8:9.0 9:1.0 10:9.0 
-0.0 -0.0 0.8441660640120471 0.057391636542759805 0.05348619250626696 0.10732635103114246 0.0 0.0 0.0 1:1.0 2:5.0 3:4.0 4:3.0 5:4.0 6:12.0 7:3.0 8:5.0 9:2.0 10:13.0 
-0.0 -0.0 1.1361016836203266 0.05594634540516025 0.1199307516031815 0.19237109269004232 0.0 0.0 0.0 1:4.0 2:9.0 3:1.0 4:12.0 5:4.0 6:1.0 7:1.0 8:4.0 9:3.0 10:1.0 
-0.0 -0.0 1.1233386118231512 0.0 0.06479415703844102 0.186310502057172 0.0 0.0 0.0 1:1.0 2:8.0 3:2.0 4:8.0 5:1.0 6:7.0 7:1.0 8:12.0 9:2.0 10:4.0 
-0.0 -0.0 0.879740511666418 0.0 0.05852983218936486 0.16555745500619679 0.0 0.0 0.0 1:1.0 2:8.0 3:2.0 4:2.0 5:2.0 6:3.0 7:4.0 8:2.0 9:2.0 10:7.0 
-0.0 -0.0 1.0182787613200872 0.0 0.11923674914750398 0.17922791583789982 0.0 0.0 0.0 1:1.0 2:3.0 3:2.0 4:13.0 5:3.0 6:4.0 7:4.0 8:5.0 9:1.0 10:5.0 
-0.0 -0.0 1.007576933068745 0.0 0.07175969380179933 0.18597717559313987 0.0 0.062039669328282865 0.0 1:4.0 2:4.0 3:2.0 4:3.0 5:3.0 6:12.0 7:1.0 8:10.0 9:3.0 10:10.0 
-0.0 -0.0 1.030785590521068 0.0 0.13964779474228767 0.17735795482073768 0.0 0.0 0.0 1:4.0 2:4.0 3:2.0 4:8.0 5:4.0 6:12.0 7:1.0 8:4.0 9:3.0 10:2.0 
-0.0 -0.0 0.9347172506340333 0.060403962700909475 0.056907126706718596 0.16928800577179426 0.0 0.0 0.0 1:2.0 2:7.0 3:1.0 4:4.0 5:1.0 6:12.0 7:1.0 8:13.0 9:4.0 10:4.0 
-0.0 -0.0 0.8824874254631685 0.0 0.10714051706320854 0.111978563940793 0.0 0.0 0.0 1:4.0 2:10.0 3:2.0 4:9.0 5:2.0 6:4.0 7:4.0 8:13.0 9:3.0 10:9.0 
-0.0 -0.0 1.0786274112066712 0.05469183507786313 0.11605754542771601 0.18678011549241902 0.0 0.0 0.0 1:1.0 2:2.0 3:2.0 4:10.0 5:4.0 6:1.0 7:2.0 8:2.0 9:4.0 10:5.0 
-0.0 -0.0 1.0168109839258346 0.0 0.06256815288207462 0.17031623904144932 0.0 0.0 0.0 1:2.0 2:8.0 3:4.0 4:11.0 5:2.0 6:5.0 7:4.0 8:5.0 9:4.0 10:2.0 
-0.0 -0.0 1.038041916465892 0.0 0.12009303946718744 0.2172607343789581 0.0 0.0 0.0 1:3.0 2:2.0 3:3.0 4:11.0 5:1.0 6:1.0 7:4.0 8:7.0 9:4.0 10:2.0 
-0.0 -0.0 1.054872059568301 0.0 0.05897557695609251 0.19763461616954542 0.0 0.06048283126875659 0.0 1:2.0 2:12.0 3:4.0 4:4.0 5:4.0 6:6.0 7:1.0 8:12.0 9:1.0 10:9.0 
-0.0 -0.0 1.083396198734919 0.0 0.11762542425674927 0.18911112552455595 0.0 0.0 0.0 1:4.0 2:1.0 3:1.0 4:13.0 5:1.0 6:7.0 7:3.0 8:13.0 9:3.0 10:11.0 
-0.0 -0.0 1.2402214992008054 0.0 0.06280339059241624 0.13608960326630526 0.0 0.0 0.0 1:1.0 2:10.0 3:2.0 4:10.0 5:4.0 6:2.0 7:2.0 8:6.0 9:4.0 10:4.0 
-0.0 -0.0 1.0730664685415365 0.0 0.06404175966532477 0.21459839288100324 0.0 0.0 0.0 1:1.0 2:5.0 3:1.0 4:7.0 5:4.0 6:7.0 7:1.0 8:13.0 9:3.0 10:11.0 
-0.0 -0.0 1.0929554409873607 0.0 0.06518993719438837 0.1910514840905122 0.06002904087016225 0.0 0.0 1:2.0 2:3.0 3:1.0 4:13.0 5:1.0 6:4.0 7:2.0 8:13.0 9:4.0 10:8.0 
-0.0 -0.0 1.0862772170120374 0.0 0.12173869724061753 0.1910364896634864 0.06213913811714744 0.059571143394182735 0.05215624927758328 1:1.0 2:1.0 3:1.0 4:13.0 5:4.0 6:1.0 7:2.0 8:6.0 9:4.0 10:10.0 
-0.0 -0.0 1.1247615748269348 0.060744152003004426 0.1174616620099696 0.1883159018390092 0.0 0.0 0.0 1:1.0 2:6.0 3:1.0 4:13.0 5:3.0 6:11.0 7:3.0 8:6.0 9:1.0 10:2.0 
-0.0 -0.0 1.093878297289856 0.0 0.12316979672943107 0.2045288316520028 0.059495823932195935 0.058097701486484354 0.0 1:1.0 2:11.0 3:1.0 4:13.0 5:4.0 6:9.0 7:1.0 8:7.0 9:3.0 10:13.0 
-0.0 -0.0 0.9484569957094011 0.06219005119096843 0.07216566541865813 0.2160834972817608 0.0 0.0 0.0 1:4.0 2:3.0 3:2.0 4:12.0 5:4.0 6:12.0 7:1.0 8:13.0 9:3.0 10:10.0 
-0.0 -0.0 0.9448564296307325 0.0 0.10244282429200058 0.24949793232605852 0.0 0.0 0.0 1:3.0 2:7.0 3:3.0 4:12.0 5:1.0 6:12.0 7:4.0 8:3.0 9:4.0 10:4.0 
-0.0 -0.0 1.0109811669236342 0.05970227575769321 0.07088592770524993 0.19316364063854946 0.0 0.0 0.0 1:4.0 2:4.0 3:4.0 4:9.0 5:1.0 6:7.0 7:1.0 8:9.0 9:4.0 10:5.0 
-0.0 -0.0 1.090991090548766 0.05103923227131901 0.12060304655389514 0.18952601329745933 0.0 0.058773652222259 0.0 1:1.0 2:4.0 3:1.0 4:7.0 5:3.0 6:7.0 7:1.0 8:3.0 9:1.0 10:13.0 
-0.0 -0.0 0.9783655124850071 0.0 0.061247795475123046 0.1682125768791879 0.0 0.0 0.0 1:1.0 2:11.0 3:2.0 4:9.0 5:4.0 6:10.0 7:4.0 8:5.0 9:1.0 10:9.0 
-0.0 -0.0 1.0364398723337118 0.0 0.061199675850968346 0.4536643318138678 0.0 0.0 0.0 1:2.0 2:11.0 3:1.0 4:2.0 5:1.0 6:3.0 7:3.0 8:11.0 9:4.0 10:4.0 
-0.0 -0.0 0.83447144615775 0.0 0.0 0.08800564795504884 0.0 0.0 0.0 1:2.0 2:12.0 3:1.0 4:2.0 5:4.0 6:12.0 7:4.0 8:8.0 9:2.0 10:11.0 
-0.0 -0.0 0.9529439266232944 0.05375535032677564 0.06580866195858726 0.23970956744965521 0.0 0.0 0.0 1:2.0 2:1.0 3:3.0 4:6.0 5:2.0 6:2.0 7:4.0 8:4.0 9:3.0 10:1.0 
-0.0 -0.0 1.0223869293148902 0.06260500162247398 0.054834625396210535 0.17917326321399168 0.0 0.0 0.0 1:1.0 2:9.0 3:2.0 4:13.0 5:4.0 6:5.0 7:1.0 8:11.0 9:2.0 10:9.0 
-0.0 -0.0 1.1745714595327985 0.06041074719808115 0.11567606722116214 0.227638720485293 0.0 0.0 0.0 1:2.0 2:13.0 3:4.0 4:8.0 5:4.0 6:13.0 7:4.0 8:6.0 9:3.0 10:2.0 
-0.0 -0.0 1.1115290228434576 0.0 0.11564405344425926 0.21613116303104518 0.0 0.0 0.0 1:4.0 2:10.0 3:3.0 4:12.0 5:3.0 6:7.0 7:1.0 8:12.0 9:2.0 10:5.0 
-0.0 -0.0 1.0843738773809206 0.0 0.12046935019512384 0.20679016105470527 0.0 0.0 0.0 1:2.0 2:13.0 3:4.0 4:12.0 5:4.0 6:13.0 7:1.0 8:7.0 9:4.0 10:8.0 
-0.0 -0.0 1.1672137359365604 0.0 0.1206239363027949 0.24077633231642026 0.0 0.0 0.0 1:1.0 2:3.0 3:2.0 4:6.0 5:1.0 6:6.0 7:2.0 8:13.0 9:3.0 10:11.0 
-0.0 -0.0 1.0086340071494453 0.07388888965842971 0.0586689945700961 0.1768599577161844 0.0 0.0 0.0 1:1.0 2:5.0 3:2.0 4:1.0 5:3.0 6:5.0 7:3.0 8:2.0 9:1.0 10:6.0 
-0.0 -0.0 0.9869838932355752 0.0 0.06716774717934115 0.13808888865379332 0.0 0.0 0.0 1:3.0 2:13.0 3:1.0 4:13.0 5:2.0 6:1.0 7:3.0 8:8.0 9:1.0 10:4.0 
-0.0 -0.0 1.1252776445148736 0.0 0.05934089781996058 0.289476888835683 0.0 0.0 0.0 1:1.0 2:4.0 3:2.0 4:9.0 5:2.0 6:5.0 7:3.0 8:5.0 9:4.0 10:7.0 
-0.0 -0.0 0.9066280815094885 0.0 0.05695727279244808 0.16614725009886333 0.0 0.0 0.0 1:2.0 2:7.0 3:4.0 4:7.0 5:1.0 6:4.0 7:3.0 8:11.0 9:3.0 10:9.0 
-0.0 -0.0 1.0770431924441781 0.05745163071640991 0.1204993238040592 0.2362000271364117 0.0605164691479908 0.0 0.0 1:2.0 2:1.0 3:4.0 4:6.0 5:1.0 6:4.0 7:1.0 8:9.0 9:1.0 10:1.0 
-0.0 -0.0 1.0000559703477534 0.0 0.06036954813550152 0.17148729158747006 0.0 0.0 0.0 1:2.0 2:12.0 3:1.0 4:7.0 5:2.0 6:9.0 7:4.0 8:8.0 9:3.0 10:7.0 
-0.0 -0.0 1.0159057211051448 0.0675388992333113 0.06280510659707038 0.30900721287128224 0.0 0.0 0.0 1:3.0 2:6.0 3:3.0 4:8.0 5:2.0 6:12.0 7:4.0 8:8.0 9:3.0 10:11.0 
-0.0 -0.0 1.1154060382194801 0.0 0.10503265405465186 0.2339885094027 0.0 0.0 0.0 1:2.0 2:9.0 3:4.0 4:8.0 5:4.0 6:2.0 7:4.0 8:9.0 9:4.0 10:11.0 
-0.0 -0.0 1.140006819147063 0.0 0.12367906871895656 0.1818875408071905 0.0 0.0 0.0 1:3.0 2:4.0 3:2.0 4:10.0 5:3.0 6:3.0 7:4.0 8:13.0 9:4.0 10:4.0 
-0.0 -0.0 1.215252155503074 0.0 0.05956188562869186 0.23053597015707677 0.0 0.0 0.0 1:4.0 2:5.0 3:4.0 4:2.0 5:2.0 6:10.0 7:4.0 8:11.0 9:2.0 10:11.0 
-0.0 -0.0 1.2060965440285405 0.0 0.11765596427624003 0.18873819069992329 0.0 0.0 0.0 1:2.0 2:7.0 3:3.0 4:3.0 5:4.0 6:3.0 7:4.0 8:10.0 9:3.0 10:12.0 
-0.0 -0.0 1.175037876298845 0.0 0.06678671853914026 0.23732492226923046 0.0 0.0 0.0 1:4.0 2:7.0 3:3.0 4:2.0 5:2.0 6:3.0 7:4.0 8:13.0 9:4.0 10:2.0 
-0.0 -0.0 1.0865460628824752 0.05919834569612619 0.241946507093457 0.17383558195026988 0.0 0.0 0.0 1:3.0 2:4.0 3:3.0 4:13.0 5:2.0 6:8.0 7:3.0 8:9.0 9:1.0 10:9.0 
-0.0 -0.0 1.0110099771436951 0.0 0.06702139077273594 0.201621466062532 0.0 0.0 0.0 1:3.0 2:8.0 3:4.0 4:2.0 5:2.0 6:13.0 7:3.0 8:13.0 9:4.0 10:11.0 
-0.0 -0.0 1.1218987260450646 0.0 0.11265708959792281 0.18601575456150415 0.0 0.0 0.0 1:4.0 2:1.0 3:3.0 4:9.0 5:3.0 6:2.0 7:2.0 8:11.0 9:2.0 10:9.0 
-0.0 -0.0 1.1335916502382748 0.0 0.06569546647961486 0.18761654973906422 0.0 0.0 0.0 1:2.0 2:4.0 3:3.0 4:12.0 5:2.0 6:1.0 7:2.0 8:7.0 9:1.0 10:7.0 
-0.0 -0.0 1.0767614551185842 0.0 0.11906649762665819 0.17793656148441264 0.0 0.0 0.0 1:3.0 2:3.0 3:1.0 4:13.0 5:2.0 6:9.0 7:2.0 8:8.0 9:3.0 10:8.0 
-0.0 -0.0 1.1389796188796428 0.0 0.11203284491374436 0.2334674536917462 0.0 0.0 0.0 1:4.0 2:1.0 3:2.0 4:6.0 5:3.0 6:8.0 7:3.0 8:2.0 9:1.0 10:6.0 
-0.0 -0.0 1.0401296617025901 0.0 0.06423105000922615 0.22968026792164076 0.05038876858493507 0.0 0.0 1:4.0 2:5.0 3:1.0 4:8.0 5:2.0 6:12.0 7:1.0 8:12.0 9:1.0 10:13.0 
-0.0 -0.0 1.0503347286456277 0.0 0.13121666952057365 0.1847627146382041 0.0 0.0 0.0 1:2.0 2:5.0 3:3.0 4:5.0 5:3.0 6:2.0 7:2.0 8:13.0 9:4.0 10:4.0 
-0.0 -0.0 1.0568354888934677 0.0 0.05620113899803186 0.1693489076958034 0.0636607001478251 0.0 0.0 1:2.0 2:13.0 3:1.0 4:3.0 5:1.0 6:7.0 7:2.0 8:9.0 9:3.0 10:7.0 
-0.0 -0.0 1.034229934207038 0.0 0.05877722669157215 0.14074160398312996 0.0 0.0 0.0 1:4.0 2:2.0 3:3.0 4:11.0 5:2.0 6:4.0 7:4.0 8:13.0 9:2.0 10:13.0 
-0.0 -0.061407191143739936 1.0089601423163042 0.06093632802679985 0.08375530912034673 0.22875567594045482 0.0 0.0 0.0 1:4.0 2:1.0 3:2.0 4:1.0 5:4.0 6:3.0 7:2.0 8:4.0 9:2.0 10:8.0 
-0.0 -0.0 1.1486587681805625 0.0 0.11965354806045003 0.1752968595992884 0.0 0.0 0.0 1:4.0 2:6.0 3:1.0 4:11.0 5:3.0 6:5.0 7:2.0 8:5.0 9:1.0 10:10.0 
-0.0 -0.0 1.06629414564398 0.0 0.12334521038043689 0.21948730024419116 0.0 0.0 0.0 1:4.0 2:11.0 3:3.0 4:4.0 5:4.0 6:2.0 7:2.0 8:4.0 9:1.0 10:6.0 
-0.0 -0.0 0.8981057341808545 0.0 0.05464890313762499 0.3184299742182951 0.0 0.0 0.0 1:4.0 2:9.0 3:2.0 4:8.0 5:2.0 6:6.0 7:3.0 8:6.0 9:4.0 10:11.0 
-0.0 -0.0 0.8926216743057458 0.0 0.05815861398237007 0.1122526790669926 0.0 0.0 0.0 1:2.0 2:5.0 3:3.0 4:8.0 5:2.0 6:4.0 7:1.0 8:5.0 9:3.0 10:11.0 
-0.0 -0.0 1.0438751357824707 0.0 0.163554242045583 0.1269994824434849 0.06160153797578255 0.0 0.0 1:3.0 2:9.0 3:3.0 4:13.0 5:1.0 6:5.0 7:2.0 8:8.0 9:4.0 10:8.0 
-0.0 -0.0 1.121585827704119 0.0 0.11399302845045195 0.17931520535792794 0.0 0.0 0.0 1:1.0 2:1.0 3:3.0 4:11.0 5:2.0 6:4.0 7:2.0 8:8.0 9:1.0 10:8.0 
-0.0 -0.0 1.0332066860290363 0.0 0.1213763306264265 0.22406536255260356 0.0 0.0 0.0 1:3.0 2:9.0 3:3.0 4:1.0 5:1.0 6:8.0 7:4.0 8:9.0 9:2.0 10:10.0 
-0.0 -0.0 1.0058918617326293 0.0 0.05926999353023294 0.18126245125155105 0.06831390295132483 0.0 0.0 1:2.0 2:10.0 3:1.0 4:11.0 5:1.0 6:7.0 7:1.0 8:2.0 9:3.0 10:11.0 
-0.0 -0.0 1.1042078586253137 0.057086518890154925 0.12022817910647814 0.23896167925352746 0.0 0.0 0.0 1:1.0 2:4.0 3:1.0 4:11.0 5:4.0 6:6.0 7:4.0 8:10.0 9:3.0 10:10.0 
-0.0 -0.0 1.254206808226741 0.05238909271362391 0.06580107756675578 0.23650603614074847 0.0 0.0 0.0 1:2.0 2:7.0 3:4.0 4:8.0 5:3.0 6:11.0 7:4.0 8:5.0 9:4.0 10:7.0 
-0.0 -0.0 1.0800825674173393 0.0 0.07192843216473732 0.17690831445422178 0.0 0.0 0.0 1:3.0 2:5.0 3:1.0 4:13.0 5:4.0 6:11.0 7:2.0 8:2.0 9:3.0 10:11.0 
-0.0 -0.0 1.1512317647473873 0.0 0.1179136889673032 0.19198950194772282 0.059827121865922483 0.0 0.0 1:1.0 2:10.0 3:1.0 4:4.0 5:1.0 6:3.0 7:3.0 8:3.0 9:3.0 10:1.0 
-0.0 -0.0 0.8962073623930973 0.0 0.05746568674192968 0.17122516399313373 0.0 0.0 0.0 1:1.0 2:13.0 3:2.0 4:12.0 5:4.0 6:13.0 7:2.0 8:4.0 9:2.0 10:2.0 
-0.0 -0.06115573110800322 0.9998757147115689 0.0 0.12209270555759733 0.180690466365397 0.0 0.0 0.0 1:1.0 2:10.0 3:1.0 4:1.0 5:1.0 6:3.0 7:2.0 8:2.0 9:1.0 10:2.0 
-0.0 -0.0 1.113980076359818 0.0 0.10053185092132894 0.19985268255784533 0.0 0.0 0.0 1:3.0 2:9.0 3:4.0 4:11.0 5:2.0 6:5.0 7:3.0 8:5.0 9:1.0 10:13.0 
-0.0 -0.0 1.0680426470809123 0.05682275574200818 0.12269210720513594 0.21003147492077656 0.0 0.0 0.0 1:1.0 2:2.0 3:1.0 4:7.0 5:3.0 6:2.0 7:4.0 8:1.0 9:4.0 10:5.0 
-0.0 -0.0 1.1426933611653582 0.0 0.057513068703117544 0.16952560946294362 0.09102587439133941 0.0 0.0 1:3.0 2:2.0 3:3.0 4:4.0 5:2.0 6:12.0 7:3.0 8:12.0 9:1.0 10:6.0 
-0.0 -0.0 0.9975705943173472 0.2086378207192615 0.12323653291177966 0.18740028787283056 0.0 0.0 0.0 1:4.0 2:7.0 3:2.0 4:9.0 5:2.0 6:7.0 7:4.0 8:6.0 9:1.0 10:4.0 
-0.0 -0.0 1.0727684037179637 0.054360830639609115 0.06716241676080525 0.19095662443021483 0.0 0.0 0.059584017395078855 1:4.0 2:13.0 3:1.0 4:7.0 5:4.0 6:11.0 7:1.0 8:11.0 9:2.0 10:4.0 
-0.0 -0.0 1.11607054239926 0.0 0.12020482763911994 0.2595817872812888 0.0 0.0 0.0 1:4.0 2:13.0 3:1.0 4:9.0 5:3.0 6:7.0 7:3.0 8:11.0 9:1.0 10:7.0 
-0.0 -0.07899132756644525 1.0593648413100816 0.05653371941383436 0.07803458951801828 0.16805168950632945 0.0 0.0 0.0 1:2.0 2:3.0 3:2.0 4:6.0 5:2.0 6:9.0 7:2.0 8:7.0 9:3.0 10:9.0 
-0.0 -0.0 1.1055947124115426 0.06140325296557719 0.16949484717739083 0.19076147042732305 0.0 0.0 0.0 1:1.0 2:3.0 3:3.0 4:3.0 5:1.0 6:13.0 7:1.0 8:6.0 9:1.0 10:4.0 
-0.0 -0.0 0.9415292242874951 0.0 0.06262476564954043 0.17706611621928597 0.0 0.0 0.0 1:3.0 2:6.0 3:3.0 4:5.0 5:1.0 6:13.0 7:1.0 8:6.0 9:2.0 10:10.0 
-0.0 -0.0 1.0248960168663845 0.0 0.0651402976034508 0.21550428097122104 0.0 0.0 0.0 1:1.0 2:11.0 3:4.0 4:11.0 5:1.0 6:5.0 7:3.0 8:1.0 9:2.0 10:9.0 
-0.0 -0.0 0.947236955522488 0.0 0.06221155510573895 0.22782199687878557 0.0 0.05852378452027701 0.0 1:1.0 2:5.0 3:2.0 4:5.0 5:3.0 6:2.0 7:3.0 8:1.0 9:4.0 10:3.0 
-0.0 -0.0 1.0163201545791414 0.06219356340081217 0.06462576033985246 0.2362704439586525 0.06045457550226291 0.0 0.0 1:1.0 2:4.0 3:4.0 4:4.0 5:2.0 6:12.0 7:1.0 8:3.0 9:1.0 10:10.0 
-0.0 -0.0 0.9984591416602129 0.0 0.057323936912605566 0.1716595245486317 0.0 0.0 0.0 1:3.0 2:1.0 3:1.0 4:5.0 5:4.0 6:5.0 7:3.0 8:9.0 9:4.0 10:4.0 
-0.0 -0.0 1.076389127209091 0.0 0.1212376560069614 0.17937603009652636 0.0 0.0 0.0 1:2.0 2:13.0 3:1.0 4:9.0 5:3.0 6:8.0 7:4.0 8:1.0 9:1.0 10:1.0 
-0.0 -0.0 1.114562122034035 0.0 0.12090178915191113 0.190268324433513 0.0 0.0 0.0 1:2.0 2:6.0 3:4.0 4:11.0 5:4.0 6:6.0 7:4.0 8:5.0 9:3.0 10:10.0 
-0.0 -0.0 1.3329623293424306 0.0 0.11402934950801086 0.15781578624600004 0.2091590273334757 0.0 0.0 1:3.0 2:6.0 3:2.0 4:12.0 5:3.0 6:3.0 7:2.0 8:3.0 9:1.0 10:9.0 
-0.0 -0.0 1.0433119975628986 0.0 0.0638468251647828 0.177236645860804 0.0 0.0 0.0 1:2.0 2:10.0 3:4.0 4:5.0 5:2.0 6:13.0 7:2.0 8:2.0 9:3.0 10:13.0 
-0.0 -0.0 1.1878167332685465 0.05951422593953909 0.11458017964124095 0.18840868122708346 0.05789652138235085 0.06319808692612494 0.0 1:4.0 2:10.0 3:1.0 4:9.0 5:1.0 6:4.0 7:2.0 8:4.0 9:1.0 10:2.0 
-0.06309043118782896 -0.0 1.1021313431507838 0.0 0.06761040730322732 0.22918694594141698 0.0 0.0 0.0 1:2.0 2:9.0 3:3.0 4:7.0 5:1.0 6:13.0 7:2.0 8:13.0 9:1.0 10:2.0 
-0.0 -0.0 1.004947856666634 0.0 0.10054314903421324 0.2944645140355235 0.0 0.0 0.0 1:2.0 2:12.0 3:4.0 4:12.0 5:4.0 6:11.0 7:1.0 8:4.0 9:3.0 10:13.0 
-0.0 -0.0 1.1590396134649237 0.0 0.11476208209990235 0.13265939281045508 0.0 0.0 0.0 1:4.0 2:3.0 3:3.0 4:9.0 5:2.0 6:12.0 7:3.0 8:5.0 9:2.0 10:9.0 
-0.0 -0.0 1.3248050895806127 0.0 0.05933321435400385 0.1751922980020787 0.0 0.0 0.0 1:1.0 2:3.0 3:3.0 4:9.0 5:3.0 6:12.0 7:3.0 8:6.0 9:2.0 10:9.0 
-0.0 -0.0 1.0627879619305312 0.0 0.11076370269149854 0.32222219278848385 0.0 0.0 0.0 1:4.0 2:8.0 3:4.0 4:10.0 5:3.0 6:5.0 7:2.0 8:12.0 9:1.0 10:5.0 
-0.0 -0.0 0.9889862306746445 0.05539364965625189 0.11957154286792993 0.23124119971466262 0.0 0.0 0.0 1:1.0 2:11.0 3:1.0 4:9.0 5:4.0 6:11.0 7:2.0 8:13.0 9:3.0 10:10.0 
-0.0 -0.0 1.226562899562047 0.0 0.053740598083150785 0.12365907911395174 0.05571188284625328 0.05698398306882496 0.0 1:3.0 2:10.0 3:2.0 4:12.0 5:2.0 6:10.0 7:3.0 8:2.0 9:3.0 10:4.0 
-0.0 -0.0 1.2818771609356412 0.0 0.06610028307983429 0.19070040399452132 0.0 0.0 0.0 1:3.0 2:4.0 3:4.0 4:4.0 5:4.0 6:10.0 7:4.0 8:13.0 9:2.0 10:2.0 
-0.0 -0.060155814230110516 1.0659708058811213 0.0 0.10747312037795514 0.1967858461672577 0.0 0.0 0.0 1:2.0 2:2.0 3:2.0 4:1.0 5:4.0 6:12.0 7:4.0 8:13.0 9:3.0 10:13.0 
-0.0 -0.0 0.9825487804989868 0.06442110379672479 0.1291853370860651 0.23388259089397395 0.0 0.0 0.0 1:1.0 2:8.0 3:3.0 4:9.0 5:2.0 6:6.0 7:4.0 8:11.0 9:2.0 10:9.0 
-0.0 -0.0 0.965099349591492 0.06032020147131012 0.06072999834740606 0.21222479610989653 0.0 0.0 0.0 1:2.0 2:13.0 3:2.0 4:8.0 5:1.0 6:8.0 7:4.0 8:10.0 9:4.0 10:1.0 
-0.0 -0.0 1.1377303129975236 0.0 0.11636052643765965 0.21956246087111603 0.0 0.05928516120673165 0.0 1:4.0 2:3.0 3:3.0 4:3.0 5:3.0 6:8.0 7:1.0 8:5.0 9:2.0 10:13.0 
-0.0 -0.0 1.045999501884146 0.0 0.07561677397843486 0.17754538072222054 0.0 0.0 0.0 1:2.0 2:3.0 3:3.0 4:6.0 5:2.0 6:13.0 7:4.0 8:3.0 9:2.0 10:5.0 
-0.0 -0.0 0.9389384982126063 0.0 0.1039787668400145 0.12714605657089612 0.0 0.0 0.0 1:3.0 2:4.0 3:4.0 4:7.0 5:2.0 6:12.0 7:2.0 8:7.0 9:4.0 10:10.0 
-0.0 -0.0 1.0655354977917588 0.0 0.06072011358921536 0.28105082036874196 0.0 0.0 0.0 1:3.0 2:7.0 3:1.0 4:7.0 5:3.0 6:5.0 7:2.0 8:4.0 9:2.0 10:13.0 
-0.0 -0.0 1.0319400114807151 0.0 0.056610768945115804 0.17770112000205768 0.0 0.06921792385884667 0.0 1:2.0 2:6.0 3:1.0 4:10.0 5:2.0 6:10.0 7:2.0 8:4.0 9:3.0 10:3.0 
-0.0 -0.0 1.3707172441532642 0.0 0.1152594892869408 0.23552240126820267 0.0 0.0 0.0 1:2.0 2:1.0 3:3.0 4:12.0 5:3.0 6:8.0 7:1.0 8:8.0 9:4.0 10:10.0 
-0.0 -0.0 0.8401884535591363 0.0 0.0 0.10323878886496758 0.0 0.0 0.0 1:2.0 2:12.0 3:3.0 4:3.0 5:1.0 6:7.0 7:3.0 8:6.0 9:4.0 10:12.0 
-0.0 -0.0 1.1175841431505817 0.0 0.07183385079683548 0.2441706011050282 0.0 0.0 0.0 1:4.0 2:1.0 3:2.0 4:1.0 5:2.0 6:7.0 7:3.0 8:6.0 9:2.0 10:8.0 
-0.0 -0.0 1.2280903539469121 0.0 0.07694521948037811 0.11459056622997481 0.0 0.0 0.0 1:3.0 2:7.0 3:2.0 4:10.0 5:3.0 6:10.0 7:2.0 8:8.0 9:1.0 10:3.0 
-0.0 -0.0 1.119019954095709 0.0 0.05986584797542032 0.17070478035406444 0.0 0.0 0.0 1:3.0 2:4.0 3:3.0 4:13.0 5:3.0 6:8.0 7:2.0 8:3.0 9:3.0 10:3.0 
-0.0 -0.0 1.1621223848166673 0.0 0.12112643107075798 0.2069286232096937 0.0 0.0 0.0 1:4.0 2:4.0 3:3.0 4:7.0 5:1.0 6:7.0 7:2.0 8:12.0 9:4.0 10:11.0 
-0.0 -0.0 1.0954142954093131 0.0 0.11864475493757777 0.21123778930549697 0.0 0.0 0.0 1:2.0 2:9.0 3:3.0 4:13.0 5:1.0 6:10.0 7:2.0 8:7.0 9:1.0 10:13.0 
-0.0 -0.0 1.15497241327666 0.11579075602181327 0.16910538070552122 0.1341731242080499 0.0 0.0 0.0 1:2.0 2:2.0 3:2.0 4:11.0 5:2.0 6:13.0 7:3.0 8:11.0 9:1.0 10:10.0 
-0.0 -0.0 1.0371674491719074 0.0 0.06269985541563314 0.19803015426399456 0.0 0.0 0.0 1:3.0 2:4.0 3:1.0 4:3.0 5:1.0 6:11.0 7:2.0 8:3.0 9:1.0 10:8.0 
-0.0 -0.0 0.8709640624978284 0.0 0.05857255526865492 0.12267502447658618 0.0 0.0 0.0 1:4.0 2:2.0 3:1.0 4:4.0 5:2.0 6:9.0 7:3.0 8:5.0 9:3.0 10:4.0 
-0.0 -0.0 1.0273744475653668 0.0 0.059312183849495936 0.177706813389857 0.0 0.0 0.0 1:2.0 2:1.0 3:1.0 4:9.0 5:2.0 6:10.0 7:4.0 8:6.0 9:2.0 10:6.0 
-0.0 -0.0 1.1651316950066355 0.0 0.06183568311584288 0.1563909949241562 0.0 0.0551325830433162 0.0 1:3.0 2:6.0 3:2.0 4:6.0 5:4.0 6:10.0 7:1.0 8:7.0 9:3.0 10:13.0 
-0.0 -0.0 1.1056612651019186 0.0 0.08948539312915096 0.290817937053766 0.0 0.0 0.0 1:2.0 2:9.0 3:3.0 4:13.0 5:4.0 6:6.0 7:2.0 8:13.0 9:1.0 10:8.0 
-0.0 -0.0 1.004606058264077 0.0 0.07848605578357892 0.17312815360802353 0.0 0.0 0.0 1:2.0 2:1.0 3:2.0 4:7.0 5:1.0 6:2.0 7:3.0 8:2.0 9:1.0 10:8.0 
-0.0 -0.0 1.1527069244678751 0.05788413558797695 0.10791948160502912 0.22748925469063563 0.0 0.0 0.0 1:4.0 2:12.0 3:2.0 4:12.0 5:1.0 6:4.0 7:1.0 8:3.0 9:2.0 10:11.0 
-0.0 -0.0 1.1527784992491588 0.0 0.061915459446521826 0.23002590672802348 0.0 0.0 0.0 1:3.0 2:11.0 3:2.0 4:8.0 5:1.0 6:2.0 7:3.0 8:1.0 9:4.0 10:11.0 
-0.0 -0.0 1.0103834235428497 0.0 0.12905502831162374 0.1771451724580679 0.0 0.0 0.0 1:4.0 2:7.0 3:3.0 4:10.0 5:3.0 6:11.0 7:1.0 8:11.0 9:3.0 10:3.0 
-0.0 -0.0 1.0876993876875078 0.0 0.11555053649961189 0.3206449807518305 0.0 0.0 0.0 1:2.0 2:9.0 3:3.0 4:11.0 5:4.0 6:4.0 7:1.0 8:4.0 9:2.0 10:12.0 
-0.0 -0.0 1.1537453699764115 0.0 0.0677682007712274 0.18830577657860992 0.06313874817273252 0.0 0.0 1:1.0 2:10.0 3:2.0 4:2.0 5:4.0 6:12.0 7:4.0 8:10.0 9:2.0 10:5.0 
-0.0 -0.0 1.0212364966841136 0.057759086496067646 0.06344301645885841 0.20980517735786097 0.0 0.0 0.0 1:1.0 2:1.0 3:4.0 4:4.0 5:1.0 6:8.0 7:2.0 8:1.0 9:3.0 10:9.0 
-0.0 -0.0 1.0191086605409572 0.0 0.11764228531204178 0.18792060038218272 0.0 0.0 0.0 1:4.0 2:7.0 3:1.0 4:5.0 5:4.0 6:2.0 7:4.0 8:5.0 9:1.0 10:11.0 
-0.0 -0.060563500956096306 1.1044346566757135 0.0 0.112148730255968 0.18885346466734204 0.0 0.0 0.0 1:1.0 2:13.0 3:1.0 4:8.0 5:2.0 6:13.0 7:1.0 8:10.0 9:4.0 10:2.0 
-0.0 -0.0 1.1167676577867869 0.058067171759951464 0.12220028434729363 0.19200142891277144 0.0 0.0 0.0 1:1.0 2:9.0 3:4.0 4:13.0 5:2.0 6:5.0 7:4.0 8:5.0 9:1.0 10:8.0 
-0.0 -0.0 1.2014220911566584 0.0 0.06185051194913982 0.24291362419172513 0.0 0.0 0.0 1:3.0 2:7.0 3:2.0 4:3.0 5:3.0 6:11.0 7:3.0 8:3.0 9:3.0 10:12.0 
-0.0 -0.0 1.1643167419650966 0.0 0.1192491731146087 0.1896131432714066 0.0 0.0 0.0 1:1.0 2:12.0 3:4.0 4:1.0 5:3.0 6:12.0 7:4.0 8:4.0 9:3.0 10:7.0 
-0.0 -0.0 0.9412755663737151 0.0 0.13178382263237137 0.18425288663639694 0.0 0.0 0.0 1:2.0 2:7.0 3:1.0 4:3.0 5:2.0 6:4.0 7:4.0 8:9.0 9:4.0 10:4.0 
-0.0 -0.0 1.103345874529616 0.060412041372749345 0.11946728613761426 0.1920593685895582 0.05192578412572896 0.0 0.0 1:4.0 2:6.0 3:3.0 4:13.0 5:4.0 6:1.0 7:2.0 8:13.0 9:2.0 10:7.0 
-0.0 -0.0 1.0612022434690824 0.0 0.12335757849970887 0.20265713998993462 0.0 0.0 0.0 1:3.0 2:11.0 3:3.0 4:1.0 5:2.0 6:3.0 7:3.0 8:12.0 9:1.0 10:12.0 
-0.0 -0.0 0.8927952807544703 0.0 0.054700584734989066 0.11291897117311184 0.0 0.0 0.0 1:2.0 2:2.0 3:3.0 4:13.0 5:2.0 6:13.0 7:3.0 8:11.0 9:3.0 10:1.0 
-0.0 -0.0 1.01162716285277 0.0 0.1736845560136614 0.23094808319318894 0.0 0.0 0.0 1:2.0 2:6.0 3:3.0 4:13.0 5:2.0 6:7.0 7:4.0 8:8.0 9:3.0 10:8.0 
-0.0 -0.0 1.0587886536337634 0.0 0.0600269152105648 0.1252740533364055 0.0 0.0 0.0 1:1.0 2:3.0 3:1.0 4:7.0 5:4.0 6:11.0 7:3.0 8:10.0 9:4.0 10:7.0 
-0.0 -0.0 1.134203493598447 0.0 0.06385170391023928 0.24196261201037503 0.0574723513168352 0.0 0.0 1:4.0 2:8.0 3:1.0 4:3.0 5:2.0 6:13.0 7:4.0 8:10.0 9:2.0 10:10.0 
-0.0 -0.0 0.9177775658992389 0.0 0.05924927723998674 0.11982119519748546 0.0 0.0 0.0 1:3.0 2:8.0 3:4.0 4:7.0 5:4.0 6:12.0 7:2.0 8:5.0 9:2.0 10:7.0 
-0.0 -0.0 0.8840384291367633 0.0 0.05343028350883189 0.11278108627614147 0.0 0.0 0.0 1:2.0 2:10.0 3:3.0 4:8.0 5:1.0 6:3.0 7:3.0 8:10.0 9:4.0 10:7.0 
-0.0 -0.0 0.9625172002376003 0.0 0.15729782759787847 0.23857239364635885 0.0 0.0 0.0 1:3.0 2:2.0 3:2.0 4:3.0 5:2.0 6:1.0 7:2.0 8:9.0 9:4.0 10:2.0 
-0.0 -0.0 1.0184712447679043 0.0 0.05904465310444379 0.2377824502602759 0.0 0.0 0.0 1:2.0 2:8.0 3:2.0 4:10.0 5:1.0 6:6.0 7:3.0 8:10.0 9:3.0 10:13.0 
-0.0 -0.0 1.1225783976385921 0.06053267887658714 0.11451545140665337 0.19468879355089555 0.0 0.0 0.0 1:4.0 2:4.0 3:2.0 4:9.0 5:2.0 6:13.0 7:1.0 8:9.0 9:2.0 10:3.0 
-0.0 -0.0 1.0576702303557786 0.0 0.12062400419225394 0.26694771295013703 0.06046673164385591 0.0 0.0 1:2.0 2:12.0 3:3.0 4:7.0 5:1.0 6:12.0 7:4.0 8:8.0 9:4.0 10:9.0 
-0.0 -0.0 1.1011389976404988 0.0 0.08899393124434812 0.19025894975282953 0.0 0.0 0.0 1:4.0 2:8.0 3:1.0 4:4.0 5:4.0 6:5.0 7:1.0 8:5.0 9:1.0 10:3.0 
-0.0 -0.0 1.1865362143065126 0.054078775445727124 0.0664376290935858 0.18493361068210074 0.0 0.0 0.0 1:4.0 2:5.0 3:4.0 4:1.0 5:3.0 6:11.0 7:1.0 8:5.0 9:1.0 10:10.0 
-0.0 -0.0 1.1186777058076636 0.058963537237023744 0.06309530619927828 0.1857537794635869 0.0 0.0 0.0 1:4.0 2:9.0 3:4.0 4:4.0 5:1.0 6:3.0 7:3.0 8:13.0 9:1.0 10:4.0 
-0.0 -0.0 1.1713428499863625 0.0 0.11770934004705647 0.190024506852076 0.0 0.0 0.0 1:1.0 2:1.0 3:2.0 4:13.0 5:1.0 6:10.0 7:1.0 8:2.0 9:2.0 10:10.0 
-0.0 -0.0 1.0820132032063714 0.0 0.06570479828439979 0.2089473243614587 0.0 0.0 0.0 1:1.0 2:8.0 3:3.0 4:12.0 5:1.0 6:13.0 7:4.0 8:8.0 9:1.0 10:6.0 
-0.0 -0.0 1.0804995032168347 0.0 0.1289973503825353 0.18946719780017685 0.0 0.0 0.0 1:3.0 2:3.0 3:3.0 4:1.0 5:1.0 6:9.0 7:1.0 8:6.0 9:1.0 10:1.0 
-0.0 -0.0 1.0209795684906449 0.0 0.08561578458753917 0.17102076349942918 0.0 0.0 0.0 1:3.0 2:5.0 3:2.0 4:10.0 5:1.0 6:6.0 7:3.0 8:13.0 9:2.0 10:6.0 
-0.0 -0.0 0.9427396554162047 0.0 0.061688883935396836 0.17186980420569403 0.0 0.0 0.0 1:4.0 2:3.0 3:3.0 4:9.0 5:4.0 6:9.0 7:1.0 8:8.0 9:2.0 10:5.0 
-0.0 -0.0 1.0896049767000429 0.0 0.06719748809994558 0.29130949628575 0.0 0.0 0.0 1:1.0 2:13.0 3:4.0 4:5.0 5:3.0 6:13.0 7:3.0 8:7.0 9:2.0 10:4.0 
-0.0 -0.0 0.981009686635581 0.0 0.07239331468093363 0.18621208401028977 0.0 0.0 0.0 1:4.0 2:12.0 3:3.0 4:8.0 5:2.0 6:7.0 7:4.0 8:7.0 9:3.0 10:3.0 
-0.0 -0.0 1.1684592029513974 0.06388785858142826 0.11894952470550058 0.3217859338026999 0.06184192747876194 0.0 0.0 1:1.0 2:1.0 3:2.0 4:11.0 5:3.0 6:12.0 7:2.0 8:5.0 9:1.0 10:5.0 
-0.0 -0.0 1.057596925490482 0.0 0.05637735614206443 0.1662961123649676 0.0626548489612246 0.0 0.0 1:2.0 2:7.0 3:1.0 4:12.0 5:1.0 6:4.0 7:2.0 8:2.0 9:2.0 10:12.0 
-0.0 -0.0 1.0910900694799173 0.0 0.11919289906991126 0.19351294637170413 0.0 0.0 0.0 1:2.0 2:12.0 3:4.0 4:11.0 5:4.0 6:1.0 7:2.0 8:4.0 9:1.0 10:1.0 
-0.0 -0.0 1.1424192584518045 0.0 0.15544002246076588 0.20166652249142064 0.0 0.0 0.0 1:4.0 2:13.0 3:1.0 4:7.0 5:2.0 6:7.0 7:1.0 8:9.0 9:3.0 10:10.0 
-0.0 -0.0 0.9339024920010883 0.0 0.058106473526657675 0.17451530073706234 0.0 0.056382956302572396 0.0 1:3.0 2:8.0 3:4.0 4:1.0 5:1.0 6:2.0 7:2.0 8:2.0 9:1.0 10:9.0 
-0.0 -0.0 1.0289426429979798 0.0 0.05704672583133724 0.17657433172454096 0.0 0.0 0.0 1:3.0 2:11.0 3:2.0 4:6.0 5:1.0 6:12.0 7:1.0 8:4.0 9:3.0 10:12.0 
-0.0 -0.0 1.031409808037466 0.0 0.058538241748236575 0.17506004123972568 0.0 0.0 0.0 1:2.0 2:12.0 3:2.0 4:4.0 5:2.0 6:7.0 7:3.0 8:13.0 9:3.0 10:12.0 
-0.0 -0.0 1.1671400167539587 0.0 0.1183613583102302 0.18862662552013426 0.06331640749374257 0.0 0.0 1:1.0 2:10.0 3:1.0 4:2.0 5:4.0 6:7.0 7:3.0 8:7.0 9:3.0 10:4.0 
-0.0 -0.0 1.0453843850840712 0.0 0.16434449241302584 0.17415087877028396 0.0 0.0 0.0 1:2.0 2:13.0 3:1.0 4:2.0 5:2.0 6:2.0 7:2.0 8:3.0 9:3.0 10:4.0 
-0.0 -0.0 1.0144153130357152 0.06172755733026397 0.06113116686541242 0.13286404193424156 0.0 0.0 0.0 1:4.0 2:5.0 3:4.0 4:4.0 5:4.0 6:10.0 7:1.0 8:7.0 9:1.0 10:10.0 
-0.0 -0.0 1.0019898245489518 0.0 0.08753335550759012 0.22853676789667143 0.0 0.0 0.0 1:3.0 2:10.0 3:1.0 4:6.0 5:2.0 6:7.0 7:1.0 8:13.0 9:3.0 10:6.0 
-0.0 -0.0 1.0137958797097255 0.06042466094306609 0.14924997164925718 0.18667111583644885 0.0 0.0 0.0 1:2.0 2:10.0 3:2.0 4:11.0 5:4.0 6:11.0 7:4.0 8:12.0 9:1.0 10:2.0 
-0.0 -0.0 1.313380733690401 0.061082590613367405 0.056839559216232904 0.22601245473235176 0.0 0.0 0.0 1:2.0 2:9.0 3:2.0 4:12.0 5:3.0 6:11.0 7:3.0 8:9.0 9:4.0 10:2.0 
-0.0 -0.0 0.9653209429401269 0.0 0.053660921924278016 0.12081349959954696 0.0 0.0 0.0 1:4.0 2:4.0 3:3.0 4:7.0 5:4.0 6:12.0 7:1.0 8:5.0 9:2.0 10:7.0 
-0.0 -0.0 1.0616469906064037 0.0 0.11469477182835619 0.19075127947600162 0.0 0.0 0.0 1:4.0 2:5.0 3:4.0 4:9.0 5:3.0 6:13.0 7:2.0 8:7.0 9:4.0 10:13.0 
-0.0 -0.0 1.0158934134609194 0.0 0.06976344391279427 0.19821533257613244 0.05421353744480867 0.0 0.0 1:2.0 2:11.0 3:2.0 4:13.0 5:2.0 6:12.0 7:1.0 8:4.0 9:3.0 10:12.0 
-0.0 -0.0 1.1718413785341826 0.0 0.11701484933789363 0.23100981635248385 0.06122979507457608 0.0 0.0 1:4.0 2:9.0 3:2.0 4:12.0 5:3.0 6:8.0 7:1.0 8:3.0 9:4.0 10:12.0 
-0.0 -0.0 1.06807220933939 0.0 0.11153568231392876 0.17273948106750786 0.0 0.0 0.0 1:3.0 2:7.0 3:1.0 4:3.0 5:2.0 6:9.0 7:4.0 8:12.0 9:2.0 10:3.0 
-0.0 -0.0 1.061811400388904 0.0880869111705922 0.05582049167261649 0.16691592488307033 0.0 0.0 0.0 1:2.0 2:3.0 3:4.0 4:7.0 5:1.0 6:6.0 7:2.0 8:2.0 9:2.0 10:6.0 
-0.0 -0.0 1.1190057713655222 0.0 0.05852567624651767 0.2957071742062068 0.0 0.0 0.0 1:3.0 2:3.0 3:1.0 4:11.0 5:2.0 6:9.0 7:2.0 8:10.0 9:2.0 10:3.0 
-0.0 -0.0 1.0763970963805078 0.0 0.10876556448609326 0.18547695852017315 0.0 0.0 0.0 1:4.0 2:6.0 3:2.0 4:13.0 5:2.0 6:10.0 7:4.0 8:13.0 9:3.0 10:4.0 
-0.0 -0.0 1.0794023019793975 0.06052228207230875 0.12256588542201072 0.19054800644681127 0.0 0.0 0.0 1:3.0 2:2.0 3:3.0 4:5.0 5:4.0 6:2.0 7:1.0 8:1.0 9:1.0 10:13.0 
-0.0 -0.0 0.9411419179657186 0.06245828735397653 0.0516546693809235 0.17236788765977468 0.0 0.0 0.0 1:4.0 2:11.0 3:1.0 4:9.0 5:2.0 6:3.0 7:3.0 8:13.0 9:3.0 10:9.0 
-0.0 -0.0 0.7259684263938228 0.0 0.0 0.09836474626867237 0.0 0.0 0.0 1:1.0 2:13.0 3:3.0 4:6.0 5:1.0 6:12.0 7:4.0 8:11.0 9:2.0 10:13.0 
-0.0 -0.0 0.9610520303387298 0.061471142059294104 0.1390113906057759 0.2386027022147672 0.0 0.0 0.0 1:4.0 2:4.0 3:2.0 4:13.0 5:1.0 6:12.0 7:2.0 8:9.0 9:4.0 10:12.0 
-0.0 -0.07343478396144865 1.0035174418387625 0.1022502890332791 0.07834910047992949 0.2397956279649319 0.0 0.060473760659796816 0.0 1:1.0 2:1.0 3:2.0 4:3.0 5:2.0 6:4.0 7:3.0 8:2.0 9:3.0 10:4.0 
-0.0 -0.0 1.0183855753040134 0.06216615415519468 0.061270128485224784 0.21978968440325658 0.0 0.0 0.0 1:1.0 2:8.0 3:2.0 4:11.0 5:1.0 6:4.0 7:2.0 8:6.0 9:3.0 10:8.0 
-0.0 -0.0 1.1209934556101204 0.0 0.11968282689975479 0.23649359258284244 0.0 0.0 0.06073477037958819 1:2.0 2:10.0 3:4.0 4:6.0 5:1.0 6:7.0 7:2.0 8:7.0 9:3.0 10:13.0 
-0.0 -0.0 1.01381037722119 0.0 0.057204680611553926 0.17373233556019468 0.0 0.0 0.0 1:4.0 2:9.0 3:3.0 4:12.0 5:2.0 6:8.0 7:4.0 8:8.0 9:2.0 10:7.0 
-0.0 -0.0 0.835383663046372 0.0 0.0 0.24692904209694966 0.0 0.0 0.0 1:2.0 2:12.0 3:1.0 4:7.0 5:3.0 6:4.0 7:4.0 8:5.0 9:1.0 10:4.0 
-0.0 -0.0 0.9564905148127172 0.0 0.05830486859348765 0.23007468203825915 0.0 0.0 0.0 1:4.0 2:4.0 3:2.0 4:8.0 5:3.0 6:10.0 7:3.0 8:7.0 9:1.0 10:10.0 
-0.0 -0.0 0.8610091994149393 0.0 0.057939854397878875 0.10121496052348211 0.0 0.0 0.0 1:2.0 2:4.0 3:4.0 4:4.0 5:2.0 6:9.0 7:1.0 8:10.0 9:2.0 10:5.0 
-0.0 -0.0 0.9011299311616388 0.0 0.1194796874027827 0.16852111674476866 0.0 0.0 0.0 1:2.0 2:5.0 3:4.0 4:11.0 5:3.0 6:7.0 7:4.0 8:5.0 9:2.0 10:6.0 
-0.0 -0.0 1.1308565782930218 0.0 0.11689443296963636 0.190751688074145 0.0 0.0 0.0 1:4.0 2:9.0 3:1.0 4:2.0 5:1.0 6:5.0 7:3.0 8:2.0 9:4.0 10:1.0 
-0.0 -0.0 1.004949346254425 0.0 0.05889964597144787 0.17966994061627234 0.06012309100241246 0.0 0.0 1:3.0 2:10.0 3:2.0 4:2.0 5:2.0 6:12.0 7:1.0 8:10.0 9:1.0 10:4.0 
-0.0 -0.0 1.0661296342457773 0.0 0.06232685709861064 0.1497257334474863 0.0 0.0 0.0 1:4.0 2:7.0 3:3.0 4:1.0 5:3.0 6:6.0 7:2.0 8:7.0 9:1.0 10:12.0 
-0.0 -0.0 1.094670239501638 0.0 0.11533753431724042 0.23466398727752968 0.0 0.0 0.0 1:3.0 2:3.0 3:1.0 4:6.0 5:3.0 6:2.0 7:3.0 8:13.0 9:4.0 10:3.0 
-0.0 -0.0 1.1340707640630234 0.0 0.11723487218414383 0.1884285137833422 0.0 0.0 0.0 1:2.0 2:11.0 3:2.0 4:8.0 5:4.0 6:8.0 7:1.0 8:5.0 9:4.0 10:1.0 
-0.0 -0.0 1.0461202549620625 0.0 0.05407155383298002 0.14038223791155635 0.0 0.0 0.0 1:3.0 2:4.0 3:4.0 4:9.0 5:2.0 6:12.0 7:1.0 8:6.0 9:1.0 10:12.0 
-0.0 -0.0 0.9548727411368065 0.058907881512634375 0.11061116058056346 0.3417703111124845 0.0 0.05891937045302936 0.0 1:2.0 2:5.0 3:4.0 4:7.0 5:2.0 6:3.0 7:1.0 8:3.0 9:3.0 10:2.0 
-0.0 -0.0 1.0855300307280853 0.0 0.12033146253970534 0.24969410906799366 0.0 0.0 0.0 1:1.0 2:5.0 3:1.0 4:12.0 5:3.0 6:10.0 7:1.0 8:10.0 9:1.0 10:13.0 
-0.05953170941812369 -0.0 1.0892106793786607 0.059918834279352906 0.11760372493645704 0.23848600556043542 0.0 0.0588060723191203 0.0 1:1.0 2:13.0 3:4.0 4:7.0 5:1.0 6:1.0 7:1.0 8:10.0 9:2.0 10:7.0 
-0.0 -0.0 1.0843373632036304 0.0 0.0649821663242854 0.23938347262159212 0.0 0.0 0.0 1:1.0 2:8.0 3:4.0 4:10.0 5:4.0 6:12.0 7:2.0 8:10.0 9:4.0 10:1.0 
-0.0 -0.0 1.1322843147174024 0.0 0.11323515286313346 0.23492472203419584 0.06075649941913169 0.0 0.0 1:1.0 2:12.0 3:2.0 4:2.0 5:2.0 6:12.0 7:1.0 8:4.0 9:4.0 10:8.0 
-0.0 -0.0 0.9621868239487057 0.08961593045461713 0.1306227489680948 0.16387073926701431 0.0 0.0 0.0 1:1.0 2:5.0 3:1.0 4:4.0 5:2.0 6:8.0 7:2.0 8:6.0 9:3.0 10:6.0 
-0.06341646311482362 -0.0 1.0330490453698595 0.0 0.0684117498905714 0.21204660089098382 0.0 0.0 0.0 1:3.0 2:11.0 3:2.0 4:10.0 5:1.0 6:10.0 7:3.0 8:12.0 9:2.0 10:2.0 
-0.0 -0.0 0.9958666352558528 0.0 0.05919348417236869 0.4320002340460672 0.0 0.0 0.0 1:4.0 2:4.0 3:3.0 4:3.0 5:2.0 6:3.0 7:2.0 8:11.0 9:2.0 10:2.0 
-0.0 -0.0 1.0062909177274184 0.0 0.08207532043782112 0.30288020231855994 0.0 0.06463317819647615 0.0 1:4.0 2:2.0 3:2.0 4:4.0 5:2.0 6:2.0 7:2.0 8:5.0 9:4.0 10:6.0 
-0.0 -0.0 1.1967352116878676 0.0 0.06083593284931921 0.23561700436532357 0.0 0.0 0.0 1:4.0 2:11.0 3:2.0 4:1.0 5:4.0 6:1.0 7:3.0 8:5.0 9:3.0 10:10.0 
-0.0 -0.0 1.157303244273739 0.0 0.0880799335849907 0.23671450513101966 0.0 0.0 0.0 1:2.0 2:6.0 3:3.0 4:12.0 5:2.0 6:11.0 7:3.0 8:8.0 9:3.0 10:6.0 
-0.0 -0.0 0.9539336601296792 0.0 0.057310270469143165 0.19326914243302104 0.0 0.0 0.0 1:3.0 2:9.0 3:3.0 4:4.0 5:2.0 6:3.0 7:1.0 8:5.0 9:4.0 10:9.0 
-0.0 -0.0 1.1150612227243353 0.0 0.14026874633450753 0.18354482083229123 0.0 0.0 0.0 1:3.0 2:10.0 3:3.0 4:1.0 5:2.0 6:4.0 7:1.0 8:10.0 9:2.0 10:11.0 
-0.0 -0.0 1.13956398978887 0.0 0.12045019377350946 0.23756901343104525 0.0 0.0 0.0 1:3.0 2:2.0 3:3.0 4:13.0 5:3.0 6:7.0 7:4.0 8:7.0 9:2.0 10:11.0 
-0.0 -0.0 1.2035674501919658 0.0 0.0642629200220905 0.23947375396368242 0.0 0.0 0.0 1:4.0 2:4.0 3:2.0 4:12.0 5:2.0 6:4.0 7:2.0 8:2.0 9:1.0 10:10.0 
-0.0 -0.0 0.9353448340991812 0.0 0.0579763544681631 0.18029171317031756 0.0 0.0 0.0 1:3.0 2:6.0 3:1.0 4:1.0 5:4.0 6:6.0 7:2.0 8:2.0 9:1.0 10:12.0 
-0.0 -0.0 0.9234730279200196 0.0 0.05932366062136141 0.11543998602562155 0.0 0.0 0.0 1:3.0 2:1.0 3:4.0 4:11.0 5:1.0 6:10.0 7:2.0 8:4.0 9:4.0 10:10.0 
-0.0 -0.06189915137780505 0.9330878010509893 0.0 0.0905243617772353 0.12526106673157772 0.0 0.0 0.0 1:1.0 2:2.0 3:1.0 4:7.0 5:2.0 6:3.0 7:1.0 8:3.0 9:2.0 10:5.0 
-0.0 -0.0 1.2680996542830658 0.0602856331370441 0.09473525106158365 0.1908257392720668 0.0 0.0 0.0 1:2.0 2:3.0 3:1.0 4:13.0 5:2.0 6:9.0 7:1.0 8:7.0 9:3.0 10:3.0 
-0.0 -0.0 1.1530222684112463 0.06803754828230557 0.12245053522342242 0.18512088883758498 0.06002199632267141 0.05912832381242317 0.0 1:4.0 2:6.0 3:4.0 4:13.0 5:4.0 6:2.0 7:1.0 8:6.0 9:4.0 10:10.0 
-0.0 -0.0 1.0994146933889895 0.0 0.1200128305845583 0.1858194802353036 0.0 0.0619255788422059 0.0 1:4.0 2:2.0 3:1.0 4:2.0 5:2.0 6:11.0 7:1.0 8:1.0 9:3.0 10:5.0 
-0.0 -0.0 1.0573460759106208 0.0 0.1328351877097273 0.1868420967952304 0.0 0.0 0.0 1:2.0 2:11.0 3:4.0 4:5.0 5:3.0 6:2.0 7:1.0 8:1.0 9:2.0 10:2.0 
-0.0 -0.0 1.110973790952724 0.0 0.06313081267635823 0.18258657671053455 0.0 0.0 0.0 1:4.0 2:2.0 3:2.0 4:13.0 5:3.0 6:8.0 7:1.0 8:2.0 9:3.0 10:5.0 
-0.0 -0.0 1.0057735658372249 0.0 0.11340669515320706 0.20922582090500663 0.053420356129487034 0.0 0.0 1:1.0 2:9.0 3:1.0 4:7.0 5:1.0 6:5.0 7:4.0 8:5.0 9:4.0 10:3.0 
-0.0 -0.0 0.992081153742504 0.06483177842119581 0.062110987698752895 0.18872107801886095 0.0 0.0 0.0 1:3.0 2:4.0 3:1.0 4:6.0 5:4.0 6:5.0 7:3.0 8:8.0 9:1.0 10:8.0 
-0.0 -0.06058575352250556 0.9569992270897629 0.0 0.13311254500406816 0.18011096412984062 0.0 0.0 0.0 1:2.0 2:12.0 3:3.0 4:12.0 5:4.0 6:13.0 7:4.0 8:2.0 9:1.0 10:10.0 
-0.0 -0.0 1.146853773182503 0.0 0.12312653937225576 0.19065296363824913 0.0 0.0 0.0 1:4.0 2:7.0 3:3.0 4:5.0 5:3.0 6:1.0 7:1.0 8:13.0 9:2.0 10:7.0 
-0.0 -0.0 0.8935441496285477 0.0 0.05723135955799981 0.16957748810818807 0.0 0.0 0.0 1:2.0 2:1.0 3:4.0 4:8.0 5:4.0 6:7.0 7:3.0 8:9.0 9:1.0 10:8.0 
-0.0 -0.0 1.0146145689679806 0.06202335954577637 0.06416979198134481 0.18833088979490809 0.0 0.0 0.0 1:1.0 2:2.0 3:2.0 4:12.0 5:4.0 6:13.0 7:3.0 8:8.0 9:1.0 10:13.0 
-0.0 -0.0 1.0241721871361633 0.0 0.12238836705455958 0.25098797877700735 0.0 0.0 0.0 1:2.0 2:4.0 3:1.0 4:9.0 5:3.0 6:5.0 7:3.0 8:11.0 9:3.0 10:4.0 
-0.0 -0.0 1.0591802762332172 0.0 0.26184645526764105 0.2272057632273618 0.0 0.0 0.0 1:1.0 2:11.0 3:4.0 4:4.0 5:3.0 6:12.0 7:2.0 8:5.0 9:1.0 10:5.0 
-0.0 -0.0 1.0026090732267408 0.0 0.11632706688854827 0.18557934777588525 0.06055279342976172 0.0 0.0 1:3.0 2:13.0 3:4.0 4:7.0 5:1.0 6:7.0 7:4.0 8:9.0 9:3.0 10:1.0 
-0.0 -0.0 0.8594627911658618 0.08024783917877715 0.0 0.15793157673135275 0.0 0.0 0.0 1:2.0 2:6.0 3:4.0 4:3.0 5:3.0 6:6.0 7:4.0 8:9.0 9:1.0 10:4.0 
-0.0 -0.0 1.0208910615043048 0.0 0.11321062691523848 0.1944279311521181 0.0 0.0 0.0 1:4.0 2:3.0 3:2.0 4:3.0 5:2.0 6:13.0 7:1.0 8:2.0 9:4.0 10:6.0 
-0.0 -0.0 1.0569101847475215 0.0 0.058796845826117994 0.17706856793481246 0.0 0.0 0.0 1:3.0 2:3.0 3:1.0 4:10.0 5:1.0 6:4.0 7:2.0 8:4.0 9:4.0 10:8.0 
-0.0 -0.0 1.063162972726703 0.0 0.07298195664401147 0.1838190753063395 0.0 0.0 0.0 1:3.0 2:5.0 3:2.0 4:4.0 5:1.0 6:12.0 7:4.0 8:2.0 9:2.0 10:2.0 
-0.0 -0.0 1.1193761205238388 0.0 0.11394298248500156 0.23443866013494835 0.0 0.0 0.0 1:3.0 2:2.0 3:1.0 4:2.0 5:4.0 6:6.0 7:2.0 8:12.0 9:4.0 10:10.0 
-0.0 -0.0 1.0891394286224219 0.05863781942237391 0.11963865127728884 0.19040593057277405 0.0 0.0 0.0 1:2.0 2:11.0 3:4.0 4:1.0 5:1.0 6:1.0 7:1.0 8:7.0 9:4.0 10:4.0 
-0.0 -0.0 1.0574250521103334 0.0 0.12044314703232939 0.1882598628641241 0.0 0.059222317001877745 0.0 1:3.0 2:8.0 3:1.0 4:11.0 5:1.0 6:10.0 7:1.0 8:6.0 9:4.0 10:8.0 
-0.0 -0.0 0.9133773929487659 0.0 0.05435027820766558 0.15530304733361155 0.0 0.0 0.0 1:2.0 2:5.0 3:4.0 4:12.0 5:2.0 6:12.0 7:2.0 8:4.0 9:2.0 10:13.0 
-0.0 -0.0 1.165502895042015 0.0 0.059096626701793435 0.17897789507170653 0.0 0.0 0.0 1:4.0 2:7.0 3:4.0 4:2.0 5:3.0 6:5.0 7:2.0 8:5.0 9:2.0 10:11.0 
-0.0 -0.0 1.1514695040250214 0.053264617334312744 0.14169175152332916 0.2633772658598975 0.0 0.0 0.0 1:2.0 2:8.0 3:4.0 4:12.0 5:2.0 6:6.0 7:3.0 8:11.0 9:4.0 10:8.0 
-0.0 -0.0 0.9531249168700213 0.0 0.06003276141270468 0.24200260553884262 0.0 0.0 0.0 1:4.0 2:12.0 3:3.0 4:9.0 5:2.0 6:12.0 7:4.0 8:3.0 9:3.0 10:13.0 
-0.0 -0.0 1.0424492616351815 0.061658781670147766 0.17020982389964173 0.19412310403182997 0.0 0.0 0.0 1:2.0 2:9.0 3:3.0 4:10.0 5:4.0 6:13.0 7:1.0 8:10.0 9:2.0 10:8.0 
-0.0 -0.0 1.093714648082525 0.0 0.11939458556766147 0.18743447880979608 0.0 0.0 0.0 1:1.0 2:7.0 3:2.0 4:12.0 5:4.0 6:10.0 7:1.0 8:10.0 9:4.0 10:6.0 
-0.0 -0.0 1.0910461310604704 0.05735915750348908 0.11871942807114116 0.21084706392405805 0.05658139833077919 0.05734338623970548 0.0 1:3.0 2:13.0 3:1.0 4:13.0 5:4.0 6:3.0 7:4.0 8:9.0 9:1.0 10:10.0 
-0.0 -0.0 1.0853578142304554 0.0 0.11890800451616679 0.22300823091895577 0.0 0.0 0.0 1:4.0 2:9.0 3:2.0 4:9.0 5:1.0 6:2.0 7:3.0 8:1.0 9:3.0 10:13.0 
-0.0 -0.0 1.085388978413004 0.0 0.06360006317801736 0.22125259055455815 0.0 0.0 0.0 1:2.0 2:3.0 3:1.0 4:10.0 5:4.0 6:8.0 7:1.0 8:3.0 9:4.0 10:7.0 
-0.0 -0.0 1.0287051851764057 0.0 0.06628940767589271 0.17622366986076943 0.0 0.0 0.0 1:3.0 2:1.0 3:2.0 4:1.0 5:3.0 6:5.0 7:2.0 8:2.0 9:4.0 10:8.0 
-0.0 -0.0 0.9534024081024502 0.0 0.12346832965105059 0.1740389579821235 0.0 0.05995270053798703 0.0 1:4.0 2:7.0 3:2.0 4:8.0 5:1.0 6:2.0 7:4.0 8:2.0 9:2.0 10:3.0 
-0.0 -0.0 1.2761272539826907 0.05985507592750111 0.12051992144495097 0.19168690601913974 0.0 0.05157810600073276 0.0 1:4.0 2:1.0 3:4.0 4:9.0 5:3.0 6:6.0 7:4.0 8:6.0 9:2.0 10:13.0 
-0.0 -0.0 1.162600884578482 0.0 0.05926385910910849 0.14819241565951927 0.05197983732634104 0.0 0.0 1:3.0 2:5.0 3:2.0 4:12.0 5:1.0 6:5.0 7:3.0 8:3.0 9:1.0 10:8.0 
-0.0 -0.0 1.0715453839900673 0.0 0.12443930683989195 0.23566479284858421 0.0 0.0 0.0 1:3.0 2:1.0 3:3.0 4:9.0 5:4.0 6:7.0 7:1.0 8:9.0 9:1.0 10:6.0 
-0.0 -0.0 1.0908159822474597 0.0 0.06729073627324264 0.19411654249475535 0.0 0.0 0.0 1:1.0 2:13.0 3:4.0 4:8.0 5:4.0 6:11.0 7:3.0 8:11.0 9:1.0 10:5.0 
-0.0 -0.0 1.1164075811201883 0.0 0.11016165775652204 0.23642660994797965 0.0 0.0 0.0 1:3.0 2:13.0 3:1.0 4:11.0 5:1.0 6:5.0 7:4.0 8:13.0 9:4.0 10:9.0 
-0.0 -0.0 1.01991948176773 0.0 0.059230570429944784 0.19026509623491683 0.0 0.0 0.0 1:4.0 2:4.0 3:3.0 4:1.0 5:2.0 6:1.0 7:2.0 8:8.0 9:3.0 10:7.0 
-0.0 -0.0 0.7564431444015505 0.09918450174123078 0.06053696191112748 0.1149351517615837 0.0 0.0 0.0 1:1.0 2:7.0 3:1.0 4:10.0 5:1.0 6:5.0 7:3.0 8:8.0 9:2.0 10:8.0 
-0.0 -0.0 0.8967536720832271 0.0 0.06409942117851453 0.13188398871242218 0.0 0.0 0.0 1:2.0 2:12.0 3:4.0 4:11.0 5:1.0 6:6.0 7:1.0 8:11.0 9:3.0 10:5.0 
-0.0 -0.0 1.084991414544663 0.0 0.1153661915261312 0.1887702698637425 0.0 0.0 0.0 1:1.0 2:2.0 3:4.0 4:8.0 5:1.0 6:10.0 7:2.0 8:8.0 9:1.0 10:11.0 
-0.0 -0.0 1.1618154675696033 0.05923305431452763 0.11782338777444812 0.23335391104565723 0.0 0.0 0.0 1:4.0 2:3.0 3:3.0 4:2.0 5:4.0 6:9.0 7:1.0 8:9.0 9:1.0 10:12.0 
-0.0 -0.0 1.08960889570731 0.0 0.06380713139940784 0.21407537166366586 0.0 0.0 0.0 1:2.0 2:4.0 3:4.0 4:3.0 5:2.0 6:10.0 7:1.0 8:8.0 9:4.0 10:4.0 
-0.0 -0.0 1.154947669464382 0.0 0.12033190713567765 0.1883972109912731 0.0 0.0 0.0 1:4.0 2:9.0 3:4.0 4:2.0 5:2.0 6:9.0 7:3.0 8:12.0 9:3.0 10:4.0 
-0.0 -0.0 1.1740177056478454 0.0 0.06433298532587939 0.1436583118302745 0.0 0.0 0.0 1:1.0 2:11.0 3:3.0 4:1.0 5:3.0 6:3.0 7:1.0 8:7.0 9:2.0 10:11.0 
-0.0 -0.0 1.0862669024294802 0.057645521005251166 0.12089599821920305 0.2271499595804527 0.0 0.0 0.0 1:4.0 2:12.0 3:4.0 4:9.0 5:1.0 6:13.0 7:4.0 8:13.0 9:3.0 10:3.0 
-0.0 -0.0 1.0339249877013543 0.0 0.12131812376434087 0.181892139557201 0.0 0.0 0.0 1:2.0 2:7.0 3:4.0 4:9.0 5:3.0 6:2.0 7:4.0 8:8.0 9:1.0 10:7.0 
-0.0 -0.0 0.990184077105684 0.0 0.08459549515848386 0.24345612778876777 0.0 0.0 0.0 1:4.0 2:12.0 3:2.0 4:8.0 5:1.0 6:8.0 7:4.0 8:6.0 9:4.0 10:5.0 
-0.0 -0.0 1.1361911204828008 0.0 0.1327238357717348 0.14029722994532534 0.061699115110314603 0.0 0.0 1:3.0 2:8.0 3:2.0 4:10.0 5:3.0 6:7.0 7:1.0 8:7.0 9:2.0 10:2.0 
-0.0 -0.0 1.0612834075405926 0.059963893638428356 0.16995532224181253 0.23902270698970424 0.0 0.0 0.0 1:4.0 2:1.0 3:3.0 4:13.0 5:2.0 6:2.0 7:2.0 8:1.0 9:3.0 10:9.0 
-0.0 -0.0 0.9318619605074268 0.0 0.05678197881679447 0.2992336823824012 0.0 0.0 0.0 1:3.0 2:11.0 3:4.0 4:12.0 5:2.0 6:11.0 7:4.0 8:5.0 9:1.0 10:6.0 
-0.0 -0.0 0.9425676860221456 0.0 0.20624309151992948 0.34270966952345666 0.0 0.0 0.0 1:2.0 2:1.0 3:1.0 4:2.0 5:3.0 6:11.0 7:2.0 8:3.0 9:4.0 10:2.0 
-0.0 -0.0 1.0408887946791028 0.0 0.06095168063767639 0.15916861995493548 0.06135484208007069 0.0 0.0 1:2.0 2:13.0 3:2.0 4:5.0 5:3.0 6:13.0 7:3.0 8:4.0 9:1.0 10:1.0 
-0.0 -0.0 1.0105263195736556 0.08783311664925653 0.06327608978039284 0.3758916577681818 0.06160538683875538 0.0 0.0 1:4.0 2:4.0 3:3.0 4:5.0 5:1.0 6:9.0 7:2.0 8:7.0 9:2.0 10:5.0 
-0.06183066142838978 -0.0 1.0877627575377997 0.0 0.11917573705307422 0.1917977557049068 0.05990501535803283 0.0 0.0 1:4.0 2:9.0 3:3.0 4:1.0 5:4.0 6:13.0 7:4.0 8:7.0 9:1.0 10:13.0 
-0.0 -0.0 1.1466910003153417 0.0 0.12294761598725845 0.1945448327610238 0.0 0.0 0.0 1:4.0 2:2.0 3:4.0 4:10.0 5:1.0 6:10.0 7:1.0 8:7.0 9:2.0 10:5.0 
-0.0 -0.0 1.0820858270196045 0.05906938079025065 0.12698786166873327 0.19004736950410278 0.060856735447147425 0.059170418535287816 0.0 1:2.0 2:4.0 3:1.0 4:13.0 5:1.0 6:12.0 7:2.0 8:5.0 9:2.0 10:13.0 
-0.0 -0.0 0.9605850817955979 0.0 0.06903006001270406 0.20322818236356077 0.0 0.0 0.0 1:1.0 2:10.0 3:4.0 4:9.0 5:3.0 6:12.0 7:3.0 8:13.0 9:2.0 10:13.0 
-0.0 -0.0 1.0882130594739357 0.0 0.05701651028117157 0.12454870351747661 0.0 0.0 0.0 1:1.0 2:7.0 3:4.0 4:6.0 5:3.0 6:6.0 7:2.0 8:11.0 9:3.0 10:2.0 
-0.0 -0.0 1.0811829973040892 0.0 0.1039851075402738 0.19286527045454344 0.0 0.06386073730195202 0.0 1:4.0 2:9.0 3:3.0 4:13.0 5:1.0 6:12.0 7:2.0 8:9.0 9:4.0 10:8.0 
-0.0 -0.0 1.3215552921735876 0.06755996588682461 0.11925595698635016 0.19274751596814937 0.0 0.07508112160942534 0.0 1:1.0 2:9.0 3:1.0 4:2.0 5:4.0 6:10.0 7:3.0 8:9.0 9:4.0 10:3.0 
-0.0 -0.0 1.0436863444566373 0.0 0.057552456619793246 0.22582939842656108 0.0 0.0 0.0 1:3.0 2:10.0 3:2.0 4:3.0 5:2.0 6:9.0 7:3.0 8:3.0 9:3.0 10:1.0 
-0.0 -0.0 1.1307399687833368 0.05838184140928088 0.06390749316256394 0.18768715882628945 0.0 0.0 0.0 1:4.0 2:10.0 3:3.0 4:5.0 5:3.0 6:1.0 7:2.0 8:1.0 9:1.0 10:7.0 
-0.0 -0.0 1.095993306711395 0.058283707891750025 0.06065860972743381 0.23083031327819664 0.0 0.0 0.0 1:3.0 2:10.0 3:4.0 4:4.0 5:2.0 6:4.0 7:4.0 8:1.0 9:1.0 10:2.0 
-0.0 -0.0 1.1363153468688765 0.0 0.1196067380853651 0.22520520894422022 0.0 0.0 0.0 1:3.0 2:13.0 3:3.0 4:9.0 5:2.0 6:1.0 7:1.0 8:3.0 9:2.0 10:9.0 
-0.0 -0.0 1.1458381894101026 0.0587663035700729 0.0660018497975414 0.19524320197035533 0.06166678187777441 0.0 0.0 1:3.0 2:1.0 3:1.0 4:9.0 5:4.0 6:1.0 7:3.0 8:8.0 9:2.0 10:12.0 
-0.0 -0.0 1.2582276185987724 0.0 0.09382203592609367 0.2265275639407553 0.0 0.0 0.0 1:2.0 2:6.0 3:4.0 4:11.0 5:3.0 6:11.0 7:4.0 8:4.0 9:4.0 10:10.0 
-0.0 -0.0 1.156974369291016 0.0 0.06571792520035735 0.19014949061821562 0.0 0.0 0.0 1:1.0 2:6.0 3:4.0 4:8.0 5:2.0 6:12.0 7:4.0 8:2.0 9:2.0 10:6.0 
-0.0 -0.0 0.8894154958095801 0.0 0.06068773498652189 0.11068332466490644 0.0 0.0 0.0 1:3.0 2:3.0 3:2.0 4:8.0 5:4.0 6:8.0 7:1.0 8:5.0 9:2.0 10:10.0 
-0.0 -0.0 1.0646149528087425 0.06642110466336415 0.20346543279085227 0.375676971210316 0.0 0.0 0.0 1:2.0 2:12.0 3:3.0 4:13.0 5:1.0 6:11.0 7:4.0 8:11.0 9:2.0 10:10.0 
-0.0 -0.0 1.0781624189887467 0.0 0.11538519252616447 0.36881294210342086 0.0 0.0 0.0 1:3.0 2:2.0 3:4.0 4:4.0 5:1.0 6:5.0 7:1.0 8:8.0 9:1.0 10:2.0 
-0.0 -0.0 0.9280650803558157 0.06189462873785001 0.06146557120915045 0.5799064691355896 0.0 0.054607802105222314 0.0 1:4.0 2:9.0 3:2.0 4:6.0 5:4.0 6:7.0 7:1.0 8:4.0 9:3.0 10:4.0 
-0.0 -0.0 1.2044275199258545 0.0 0.06762990839617594 0.2383312312488079 0.0 0.0 0.0 1:4.0 2:12.0 3:4.0 4:8.0 5:3.0 6:6.0 7:2.0 8:4.0 9:3.0 10:4.0 
-0.0 -0.0 1.017847285838586 0.0 0.09839263068353549 0.19288482459998077 0.0 0.0 0.0 1:4.0 2:2.0 3:1.0 4:2.0 5:1.0 6:10.0 7:4.0 8:3.0 9:2.0 10:4.0 
-0.0 -0.0 1.1280692037866549 0.0 0.05995149845207509 0.18027633055336623 0.0 0.0 0.0 1:3.0 2:7.0 3:4.0 4:3.0 5:1.0 6:9.0 7:3.0 8:5.0 9:3.0 10:3.0 
-0.0 -0.0 1.0116246721757622 0.0 0.09299024345887254 0.26894697898383907 0.0 0.05767851054796436 0.0 1:3.0 2:8.0 3:3.0 4:9.0 5:1.0 6:12.0 7:2.0 8:8.0 9:2.0 10:11.0 
-0.0 -0.0 1.0624525048781717 0.060982806683163526 0.11782116466851816 0.1897901812602647 0.0 0.060585648599380315 0.0 1:1.0 2:13.0 3:4.0 4:1.0 5:1.0 6:3.0 7:3.0 8:12.0 9:4.0 10:13.0 
-0.0 -0.0 1.0587815099236582 0.0 0.058557643735451914 0.17443109143161561 0.0 0.0 0.0 1:3.0 2:8.0 3:4.0 4:3.0 5:1.0 6:3.0 7:2.0 8:9.0 9:3.0 10:13.0 
-0.0 -0.0 1.0257113368320783 0.059688631932842795 0.05854457278776463 0.12943340111133034 0.060550749460863064 0.0 0.0 1:4.0 2:11.0 3:4.0 4:10.0 5:4.0 6:12.0 7:3.0 8:1.0 9:2.0 10:12.0 
-0.0 -0.0 1.104535298475856 0.056681040487681744 0.12266453518929454 0.19190936461020836 0.0 0.0 0.0 1:2.0 2:1.0 3:3.0 4:11.0 5:3.0 6:13.0 7:4.0 8:5.0 9:4.0 10:1.0 
-0.0 -0.0 1.1081614089595333 0.056114577982844305 0.12056065799309224 0.20377448548890226 0.0 0.0 0.0 1:1.0 2:11.0 3:4.0 4:1.0 5:1.0 6:12.0 7:4.0 8:12.0 9:3.0 10:2.0 
-0.0 -0.0 1.1046057143779946 0.05867736084481967 0.11919440871296594 0.19158430147260558 0.0 0.0 0.0 1:1.0 2:13.0 3:4.0 4:8.0 5:3.0 6:1.0 7:2.0 8:5.0 9:1.0 10:5.0 
-0.0 -0.0 0.9664215907007282 0.0665110493955628 0.163765515643927 0.2156314206801208 0.0 0.0 0.0 1:3.0 2:9.0 3:1.0 4:8.0 5:2.0 6:7.0 7:4.0 8:9.0 9:2.0 10:6.0 
-0.0 -0.0 1.0497913029740464 0.0 0.2537701415112256 0.17979881528636582 0.0 0.0 0.0 1:3.0 2:2.0 3:4.0 4:8.0 5:1.0 6:7.0 7:2.0 8:13.0 9:3.0 10:8.0 
-0.0 -0.0 1.0955246889991976 0.05724877065394962 0.06607946880059573 0.2962182307212754 0.0 0.0 0.0 1:4.0 2:6.0 3:2.0 4:13.0 5:4.0 6:13.0 7:4.0 8:3.0 9:2.0 10:5.0 
-0.0 -0.0 1.1466329698474158 0.05710353287868858 0.11721212025327832 0.24097370349223488 0.0 0.0 0.0 1:4.0 2:7.0 3:2.0 4:8.0 5:1.0 6:11.0 7:3.0 8:2.0 9:1.0 10:2.0 
-0.0 -0.0 1.1082175774923728 0.059177881457668446 0.12053752812499685 0.18986654740737224 0.0 0.0 0.0 1:4.0 2:1.0 3:1.0 4:13.0 5:1.0 6:3.0 7:3.0 8:7.0 9:2.0 10:7.0 
-0.0 -0.0 1.1493252632792594 0.0 0.06508610372622697 0.2290122096202219 0.06127878048490387 0.0 0.0 1:4.0 2:1.0 3:1.0 4:8.0 5:3.0 6:13.0 7:4.0 8:9.0 9:2.0 10:1.0 
-0.0 -0.0 0.848269099172165 0.0 0.1069276785328516 0.1156720067757389 0.06118133144088762 0.0 0.0 1:4.0 2:7.0 3:1.0 4:4.0 5:4.0 6:12.0 7:3.0 8:4.0 9:1.0 10:3.0 
-0.0 -0.0 1.067209787834532 0.0 0.059840641492625024 0.16929605022194455 0.0694910905353757 0.0 0.0 1:4.0 2:2.0 3:3.0 4:6.0 5:2.0 6:11.0 7:2.0 8:13.0 9:1.0 10:6.0 
-0.0 -0.0 1.1035227111331563 0.0 0.11809239991238707 0.23539806473372854 0.0 0.0 0.0 1:4.0 2:9.0 3:1.0 4:12.0 5:3.0 6:9.0 7:1.0 8:6.0 9:1.0 10:13.0 
-0.0 -0.0 1.0484961502727599 0.0 0.05837918396507619 0.18047468973546804 0.0 0.0 0.0 1:3.0 2:11.0 3:3.0 4:13.0 5:1.0 6:6.0 7:2.0 8:11.0 9:3.0 10:3.0 
-0.0 -0.0 1.0583230081460036 0.0 0.05948852516247921 0.17709044370810462 0.0 0.0 0.06072351543636732 1:3.0 2:10.0 3:1.0 4:13.0 5:3.0 6:9.0 7:2.0 8:10.0 9:3.0 10:4.0 
-0.0 -0.0 1.0093900189798801 0.0 0.12537188560888812 0.18689374657097696 0.0 0.0 0.0 1:4.0 2:11.0 3:1.0 4:12.0 5:1.0 6:13.0 7:1.0 8:3.0 9:3.0 10:3.0 
-0.0 -0.0 0.9674151691727964 0.0 0.06462978709884389 0.22371792691417922 0.0 0.0 0.0 1:1.0 2:3.0 3:4.0 4:6.0 5:3.0 6:2.0 7:2.0 8:6.0 9:2.0 10:1.0 
-0.0 -0.0 1.067338471779174 0.0 0.11598708740683134 0.25205559980065645 0.0 0.0 0.0 1:2.0 2:6.0 3:2.0 4:3.0 5:1.0 6:2.0 7:4.0 8:1.0 9:4.0 10:2.0 
-0.0 -0.0 1.0098401178614234 0.0 0.05806327420530437 0.12823158779649346 0.0804366151350115 0.0 0.0 1:2.0 2:8.0 3:3.0 4:2.0 5:3.0 6:5.0 7:1.0 8:8.0 9:3.0 10:4.0 
-0.0 -0.0 0.9074513083628339 0.0 0.0 0.1701966891253553 0.0 0.0 0.0 1:3.0 2:9.0 3:3.0 4:3.0 5:4.0 6:9.0 7:4.0 8:13.0 9:1.0 10:11.0 
-0.0 -0.0 1.0703281679369905 0.0 0.11799270609143964 0.36235446000644417 0.0 0.0 0.0 1:1.0 2:2.0 3:4.0 4:4.0 5:4.0 6:10.0 7:3.0 8:2.0 9:1.0 10:11.0 
-0.0 -0.0 1.1950553182875623 0.0 0.116855110200828 0.22189169052017005 0.05875091625336887 0.0 0.0 1:4.0 2:8.0 3:4.0 4:11.0 5:1.0 6:2.0 7:2.0 8:4.0 9:3.0 10:11.0 
-0.0 -0.0 1.0005134935081639 0.061885977338029974 0.06480448215623413 0.1876682806191271 0.0 0.0 0.0 1:2.0 2:10.0 3:4.0 4:1.0 5:1.0 6:7.0 7:3.0 8:1.0 9:1.0 10:5.0 
-0.0 -0.0 1.0716507803477637 0.059703683386140294 0.06460372461549546 0.14366749327165979 0.056007762042475775 0.06000496551576173 0.0 1:2.0 2:2.0 3:1.0 4:13.0 5:4.0 6:10.0 7:4.0 8:13.0 9:1.0 10:9.0 
-0.0 -0.0 1.1530186324053098 0.0 0.06323841576532702 0.19361113604562769 0.0 0.0 0.0 1:4.0 2:12.0 3:2.0 4:12.0 5:2.0 6:1.0 7:4.0 8:7.0 9:4.0 10:4.0 
-0.0 -0.0 1.078208451889761 0.06600156947613717 0.06357040090304383 0.21717614300134694 0.0 0.0 0.0 1:1.0 2:7.0 3:4.0 4:5.0 5:4.0 6:4.0 7:2.0 8:9.0 9:3.0 10:4.0 
-0.0 -0.0 0.9321298793816326 0.0 0.12622404786878708 0.14788374161687007 0.0 0.0 0.0 1:4.0 2:4.0 3:2.0 4:7.0 5:3.0 6:6.0 7:4.0 8:3.0 9:2.0 10:4.0 
-0.0 -0.0 1.1096555821583247 0.06201331671493754 0.12082114147632467 0.23318612576318648 0.0 0.05672547919099857 0.0 1:3.0 2:7.0 3:1.0 4:4.0 5:2.0 6:10.0 7:4.0 8:2.0 9:1.0 10:10.0 
-0.0 -0.0 1.142933405754155 0.05923185683771354 0.12019217220286077 0.24191269939029386 0.0 0.0 0.0 1:3.0 2:12.0 3:2.0 4:1.0 5:3.0 6:9.0 7:1.0 8:1.0 9:1.0 10:6.0 
-0.0 -0.0 0.9697576994599764 0.0 0.057408783313051624 0.13089629944030973 0.0 0.0 0.0 1:3.0 2:11.0 3:1.0 4:3.0 5:1.0 6:11.0 7:2.0 8:2.0 9:4.0 10:6.0 
-0.0 -0.0 1.0330575767876922 0.0 0.05461873299141434 0.33455666002802203 0.0 0.0 0.0 1:4.0 2:11.0 3:2.0 4:9.0 5:1.0 6:5.0 7:3.0 8:9.0 9:2.0 10:7.0 
-0.0 -0.0 1.1079516496803714 0.0 0.13063346653979646 0.17978122990646994 0.0 0.0 0.0 1:3.0 2:8.0 3:2.0 4:7.0 5:2.0 6:3.0 7:3.0 8:7.0 9:1.0 10:12.0 
-0.0 -0.061826997493853175 0.9792817416755868 0.0 0.1151675119152935 0.1910911288774924 0.0 0.0 0.0 1:2.0 2:7.0 3:2.0 4:5.0 5:4.0 6:9.0 7:4.0 8:6.0 9:1.0 10:9.0 
-0.0 -0.0 1.1978378827329532 0.0 0.10307145042997412 0.17577870723753047 0.0 0.0 0.0 1:2.0 2:9.0 3:3.0 4:9.0 5:2.0 6:7.0 7:2.0 8:5.0 9:3.0 10:1.0 
-0.0 -0.0 0.9610430820119269 0.0 0.058682358652581666 0.31018810973805583 0.0 0.0 0.0 1:3.0 2:12.0 3:3.0 4:2.0 5:4.0 6:11.0 7:2.0 8:11.0 9:1.0 10:3.0 
-0.0 -0.0 1.137619201055196 0.0 0.1267385189332041 0.2243762781316539 0.0 0.0 0.0 1:4.0 2:10.0 3:4.0 4:11.0 5:1.0 6:10.0 7:2.0 8:9.0 9:4.0 10:1.0 
-0.0 -0.0 0.9392660639623077 0.0 0.0846559860791497 0.13656430418759852 0.0 0.0 0.0 1:4.0 2:2.0 3:3.0 4:10.0 5:4.0 6:7.0 7:4.0 8:10.0 9:2.0 10:6.0 
-0.0 -0.0 0.9021804911954165 0.0 0.05608970698205318 0.16685115905810066 0.0 0.0 0.0 1:2.0 2:10.0 3:3.0 4:9.0 5:1.0 6:11.0 7:2.0 8:11.0 9:4.0 10:5.0 
-0.0 -0.0 1.1487838881554326 0.0 0.11470997191149118 0.18492448593373373 0.0 0.0 0.0 1:2.0 2:10.0 3:3.0 4:10.0 5:2.0 6:3.0 7:2.0 8:5.0 9:1.0 10:6.0 
-0.0 -0.0 1.0170364327545536 0.0 0.05848938862951919 0.1740906009457383 0.0 0.0 0.0 1:3.0 2:9.0 3:1.0 4:2.0 5:1.0 6:9.0 7:1.0 8:10.0 9:3.0 10:3.0 
-0.0 -0.0 1.0997528551433167 0.06635510224530122 0.11963300688500822 0.23855154727895825 0.0 0.0 0.0 1:3.0 2:3.0 3:4.0 4:13.0 5:1.0 6:5.0 7:1.0 8:11.0 9:1.0 10:3.0 
-0.0 -0.0 0.9724776859974871 0.0 0.13249709509834318 0.1076632113906234 0.0 0.0 0.0 1:3.0 2:4.0 3:3.0 4:7.0 5:3.0 6:11.0 7:2.0 8:4.0 9:3.0 10:2.0 
-0.0 -0.0 0.9288886757398839 0.0 0.062103072266013915 0.17217023761035039 0.0 0.0 0.0 1:3.0 2:1.0 3:3.0 4:9.0 5:2.0 6:10.0 7:1.0 8:8.0 9:3.0 10:8.0 
-0.0 -0.06500432123088609 0.9516938675833786 0.054487463029924854 0.13553613072771947 0.26373831334751713 0.0 0.0 0.0 1:3.0 2:1.0 3:2.0 4:5.0 5:2.0 6:3.0 7:3.0 8:4.0 9:3.0 10:5.0 
-0.0 -0.0 1.1683707494494453 0.0 0.06459309259880786 0.18324671778590643 0.0 0.0 0.0 1:2.0 2:9.0 3:2.0 4:13.0 5:3.0 6:11.0 7:2.0 8:6.0 9:2.0 10:11.0 
-0.0 -0.0 1.0376117773646083 0.0 0.12052215522273785 0.19196021276308078 0.0 0.0 0.07219795876154717 1:4.0 2:13.0 3:1.0 4:12.0 5:4.0 6:11.0 7:2.0 8:11.0 9:1.0 10:6.0 
-0.0 -0.0 1.0110288590533152 0.0 0.15914535627571436 0.18295724553166065 0.0 0.0 0.0 1:2.0 2:7.0 3:4.0 4:8.0 5:3.0 6:5.0 7:3.0 8:1.0 9:1.0 10:5.0 
-0.0 -0.0 0.9165826285398225 0.0 0.06320761727350081 0.17864073542621542 0.0 0.0 0.0 1:2.0 2:8.0 3:3.0 4:6.0 5:2.0 6:7.0 7:4.0 8:7.0 9:2.0 10:1.0 
-0.0 -0.0 1.2384777882724431 0.0 0.12666439901558235 0.17438193266754481 0.0 0.0 0.0 1:3.0 2:9.0 3:2.0 4:9.0 5:1.0 6:6.0 7:1.0 8:3.0 9:2.0 10:5.0 
-0.0 -0.0 0.9918530220732265 0.07957194013506058 0.12154827939430884 0.21479590826369854 0.0 0.0 0.0 1:2.0 2:10.0 3:4.0 4:6.0 5:4.0 6:8.0 7:3.0 8:8.0 9:3.0 10:9.0 
-0.0 -0.0 1.1493955698713385 0.061498087942604814 0.10957923918378815 0.2562775810060192 0.0 0.06810410441148283 0.0 1:3.0 2:6.0 3:2.0 4:7.0 5:2.0 6:1.0 7:4.0 8:4.0 9:4.0 10:1.0 
-0.0 -0.0 1.0386956744770375 0.0 0.11751995247104041 0.17979903500116717 0.0 0.0 0.0 1:2.0 2:7.0 3:1.0 4:4.0 5:2.0 6:1.0 7:4.0 8:7.0 9:4.0 10:10.0 
-0.0 -0.0 1.026607443422886 0.0 0.06454583319320722 0.13316019359626524 0.0 0.0 0.0 1:2.0 2:4.0 3:1.0 4:4.0 5:2.0 6:7.0 7:3.0 8:1.0 9:1.0 10:13.0 
-0.0 -0.0 0.9200725101116044 0.09361275549360976 0.08467663764551847 0.12891737208192472 0.0 0.05577869017757103 0.0 1:4.0 2:1.0 3:1.0 4:6.0 5:3.0 6:5.0 7:4.0 8:13.0 9:4.0 10:5.0 
-0.0 -0.0 1.100818811597219 0.061204395681146884 0.1210897526896122 0.2417597950716418 0.0 0.060666059419952956 0.0 1:4.0 2:4.0 3:4.0 4:12.0 5:4.0 6:1.0 7:3.0 8:1.0 9:1.0 10:13.0 
-0.0 -0.0 1.24697243098735 0.0 0.0650968566419533 0.19511691812053755 0.0 0.051576734881258135 0.0 1:3.0 2:7.0 3:4.0 4:2.0 5:3.0 6:9.0 7:2.0 8:11.0 9:3.0 10:2.0 
-0.0 -0.0 1.0521567527006925 0.0 0.11765840417680207 0.18736594071540036 0.05854224713186146 0.0 0.0 1:4.0 2:3.0 3:4.0 4:13.0 5:1.0 6:13.0 7:4.0 8:12.0 9:3.0 10:6.0 
-0.0 -0.0 1.1240559421936624 0.0 0.06323015698340001 0.2301170274955115 0.0 0.0 0.0 1:2.0 2:6.0 3:2.0 4:7.0 5:4.0 6:10.0 7:3.0 8:2.0 9:2.0 10:10.0 
-0.0 -0.0 1.2783015275063172 0.0 0.08802010448110187 0.2515485132479721 0.0 0.0 0.0 1:3.0 2:1.0 3:1.0 4:8.0 5:4.0 6:8.0 7:4.0 8:5.0 9:2.0 10:3.0 
-0.0 -0.0 1.085406682947286 0.0 0.06440404557834423 0.22954218987355052 0.0 0.0 0.0 1:4.0 2:10.0 3:4.0 4:3.0 5:1.0 6:5.0 7:2.0 8:3.0 9:2.0 10:9.0 
-0.0 -0.0 1.063812303097811 0.0 0.12300844872363986 0.23992247029933172 0.0 0.0 0.0 1:4.0 2:7.0 3:3.0 4:5.0 5:4.0 6:5.0 7:1.0 8:3.0 9:3.0 10:8.0 
-0.06128188549802088 -0.0 0.9277568113756306 0.0 0.053671666133807416 0.1813025288454369 0.0 0.0 0.0 1:3.0 2:2.0 3:2.0 4:11.0 5:3.0 6:11.0 7:4.0 8:10.0 9:4.0 10:8.0 
-0.0 -0.0 1.3843958619265524 0.0 0.133096088385168 0.19301172861264598 0.0 0.0 0.0 1:2.0 2:2.0 3:2.0 4:13.0 5:3.0 6:13.0 7:3.0 8:1.0 9:3.0 10:11.0 
-0.0 -0.0 1.0288855389149951 0.0 0.06678557924225897 0.16392858006942368 0.0 0.060335614511296695 0.0 1:2.0 2:9.0 3:1.0 4:9.0 5:4.0 6:6.0 7:2.0 8:13.0 9:3.0 10:5.0 
-0.0 -0.0 1.1555959413477104 0.0 0.0644942335848192 0.18888826920340446 0.0 0.0 0.0 1:3.0 2:5.0 3:2.0 4:13.0 5:4.0 6:12.0 7:1.0 8:13.0 9:1.0 10:1.0 
-0.0 -0.0 1.040837224496713 0.0 0.058908557727194444 0.12881590880100582 0.0 0.0 0.0 1:2.0 2:9.0 3:4.0 4:7.0 5:3.0 6:9.0 7:2.0 8:13.0 9:2.0 10:6.0 
-0.0 -0.0 1.0800787480373588 0.0 0.0644907602053492 0.2292844677295101 0.0 0.0 0.0 1:1.0 2:3.0 3:4.0 4:10.0 5:4.0 6:9.0 7:1.0 8:10.0 9:4.0 10:5.0 
-0.0 -0.0 1.0402976270156439 0.0 0.11655211961402251 0.19033603189349912 0.0 0.0 0.0 1:2.0 2:1.0 3:1.0 4:10.0 5:2.0 6:10.0 7:3.0 8:6.0 9:4.0 10:7.0 
-0.0 -0.0 1.1764847398571814 0.060579678793201086 0.121933525645047 0.23568905255490363 0.0 0.0 0.0 1:1.0 2:5.0 3:1.0 4:6.0 5:1.0 6:1.0 7:2.0 8:13.0 9:3.0 10:13.0 
-0.0 -0.0 1.1136386392699553 0.06253024274199076 0.12064953167977854 0.19134619440415146 0.0 0.05829393101316632 0.0 1:1.0 2:5.0 3:4.0 4:11.0 5:4.0 6:5.0 7:4.0 8:1.0 9:2.0 10:8.0 
-0.0 -0.0 1.261636913509457 0.0 0.06471934482616881 0.23415024893488368 0.0 0.0 0.0 1:2.0 2:3.0 3:1.0 4:13.0 5:1.0 6:10.0 7:3.0 8:2.0 9:2.0 10:10.0 
-0.0 -0.0 1.1098028655399754 0.06249624467346404 0.12255045353615981 0.19193137796104565 0.061317515823135826 0.06399651337492196 0.0 1:4.0 2:4.0 3:4.0 4:7.0 5:1.0 6:11.0 7:4.0 8:11.0 9:4.0 10:13.0 
-0.0 -0.0 1.105612961616595 0.06148352463247747 0.12113901922569487 0.19544150379633773 0.06115845688627225 0.0 0.0 1:1.0 2:6.0 3:4.0 4:1.0 5:4.0 6:12.0 7:3.0 8:12.0 9:1.0 10:8.0 
-0.0 -0.0 1.2619560894966348 0.0 0.12249435678459786 0.19347318876072034 0.0 0.0 0.0 1:1.0 2:9.0 3:3.0 4:11.0 5:1.0 6:11.0 7:3.0 8:3.0 9:1.0 10:7.0 
-0.0 -0.0 1.125870087465596 0.05979900331235832 0.06650036139579404 0.18700067894874725 0.0 0.0 0.0 1:3.0 2:1.0 3:1.0 4:6.0 5:4.0 6:11.0 7:3.0 8:3.0 9:4.0 10:6.0 
-0.0 -0.0 1.1022287476332375 0.0 0.12059618172512027 0.5875813784166468 0.0 0.0 0.0 1:4.0 2:13.0 3:1.0 4:2.0 5:2.0 6:8.0 7:3.0 8:2.0 9:4.0 10:9.0 
-0.0 -0.0 1.002833288255111 0.0 0.06262973073114753 0.18448521879662166 0.0 0.05986020093165634 0.0 1:2.0 2:11.0 3:4.0 4:1.0 5:2.0 6:13.0 7:4.0 8:4.0 9:1.0 10:11.0 
-0.0 -0.0 1.1973299055522744 0.0 0.06091736583294005 0.24373262352489003 0.0 0.0664217370066662 0.0 1:3.0 2:6.0 3:3.0 4:4.0 5:2.0 6:13.0 7:4.0 8:10.0 9:2.0 10:10.0 
-0.0 -0.0 0.9331285689519297 0.0 0.0 0.10532017697705769 0.0 0.0 0.0 1:2.0 2:8.0 3:1.0 4:3.0 5:2.0 6:5.0 7:1.0 8:10.0 9:3.0 10:3.0 
-0.0 -0.0 1.1172375113840345 0.0 0.0642324657371739 0.18108350308790916 0.0 0.0 0.0 1:4.0 2:13.0 3:2.0 4:2.0 5:1.0 6:3.0 7:3.0 8:9.0 9:4.0 10:2.0 
-0.0 -0.0 0.9016404704413886 0.0 0.055580653099511546 0.21354450774200345 0.0 0.0 0.0 1:2.0 2:6.0 3:4.0 4:8.0 5:3.0 6:10.0 7:2.0 8:9.0 9:2.0 10:10.0 
-0.0 -0.0 1.076014911693251 0.0 0.1174507550607567 0.2651135392436689 0.0 0.0 0.0 1:1.0 2:12.0 3:4.0 4:11.0 5:4.0 6:3.0 7:3.0 8:9.0 9:1.0 10:9.0 
-0.0 -0.0 0.9885881450722429 0.0 0.17488903016373186 0.1839811478774555 0.0 0.0 0.0 1:2.0 2:13.0 3:3.0 4:13.0 5:1.0 6:7.0 7:3.0 8:12.0 9:2.0 10:3.0 
-0.0 -0.0 1.2226700792479324 0.0 0.1203600771486304 0.24002512410560434 0.058188545264103886 0.0 0.0 1:2.0 2:6.0 3:3.0 4:13.0 5:3.0 6:6.0 7:4.0 8:2.0 9:1.0 10:9.0 
-0.0 -0.0 1.2024532442542404 0.0 0.06116237649575858 0.15139091757534967 0.0 0.0 0.0 1:1.0 2:6.0 3:1.0 4:3.0 5:3.0 6:6.0 7:3.0 8:13.0 9:4.0 10:12.0 
-0.0 -0.0 1.0048120042191095 0.0 0.060308811546494326 0.17400727533481528 0.0 0.0 0.0 1:4.0 2:4.0 3:1.0 4:9.0 5:1.0 6:2.0 7:3.0 8:10.0 9:3.0 10:2.0 
-0.0 -0.0 1.1004623419041322 0.0 0.1183546741795165 0.19407789825109156 0.059714623899739305 0.0 0.0 1:2.0 2:12.0 3:3.0 4:3.0 5:4.0 6:13.0 7:2.0 8:3.0 9:4.0 10:4.0 
-0.0 -0.0 0.9759934645254331 0.0 0.05561929127788767 0.11075518207212987 0.0 0.06158545449778202 0.0 1:4.0 2:5.0 3:3.0 4:5.0 5:1.0 6:10.0 7:3.0 8:11.0 9:2.0 10:3.0 
-0.0 -0.0 0.9769325629623592 0.0 0.17502306676677615 0.22640794670472458 0.0 0.0 0.0 1:1.0 2:3.0 3:1.0 4:12.0 5:3.0 6:11.0 7:2.0 8:12.0 9:3.0 10:10.0 
-0.0 -0.0 1.135097926905279 0.0 0.11792223905824001 0.22489973486629672 0.0 0.0 0.0 1:1.0 2:2.0 3:4.0 4:8.0 5:2.0 6:8.0 7:2.0 8:13.0 9:2.0 10:12.0 
-0.0 -0.0 0.9059098614820609 0.0 0.05848285592703914 0.11736998101538787 0.0 0.0 0.0 1:2.0 2:5.0 3:4.0 4:6.0 5:2.0 6:10.0 7:2.0 8:6.0 9:3.0 10:12.0 
-0.0 -0.0 1.2092699437813494 0.0 0.06234721181988173 0.1967355521216766 0.0 0.0 0.0 1:2.0 2:4.0 3:4.0 4:13.0 5:3.0 6:8.0 7:3.0 8:13.0 9:2.0 10:10.0 
-0.0 -0.0 1.114346501531154 0.0 0.19655549341801748 0.1981513899673491 0.0 0.0 0.0 1:3.0 2:8.0 3:3.0 4:3.0 5:2.0 6:6.0 7:2.0 8:1.0 9:1.0 10:3.0 
-0.0 -0.0 1.099763488161089 0.0 0.06531657646267769 0.19144131297315314 0.0 0.0 0.0 1:1.0 2:13.0 3:1.0 4:2.0 5:1.0 6:9.0 7:2.0 8:2.0 9:3.0 10:6.0 
-0.0 -0.0 0.998284927412679 0.0 0.05793913829749995 0.1771172207563535 0.0 0.0 0.0 1:3.0 2:4.0 3:4.0 4:3.0 5:3.0 6:12.0 7:4.0 8:10.0 9:1.0 10:4.0 
-0.0 -0.0 0.8031512761568267 0.0 0.09510341995824566 0.11705168165442292 0.0 0.0 0.0 1:4.0 2:3.0 3:1.0 4:4.0 5:2.0 6:10.0 7:4.0 8:5.0 9:3.0 10:4.0 
-0.0 -0.0 1.0285544661729364 0.05838667313034157 0.09044772768002218 0.11397555441620667 0.0 0.0 0.0 1:3.0 2:10.0 3:2.0 4:8.0 5:1.0 6:6.0 7:4.0 8:1.0 9:1.0 10:10.0 
-0.0 -0.0 1.3083378116049167 0.0 0.11984422066675249 0.23757332821468885 0.058814637699754924 0.0 0.0 1:1.0 2:13.0 3:2.0 4:8.0 5:2.0 6:10.0 7:2.0 8:5.0 9:1.0 10:5.0 
-0.0 -0.0 0.8775485696063452 0.0 0.05079224312670394 0.10156906381452308 0.0 0.0 0.0 1:2.0 2:4.0 3:2.0 4:8.0 5:4.0 6:4.0 7:1.0 8:11.0 9:3.0 10:12.0 
-0.0 -0.0 1.1209750962570888 0.0 0.11553642298854011 0.22797727262847195 0.0 0.0 0.0 1:4.0 2:9.0 3:4.0 4:2.0 5:2.0 6:6.0 7:3.0 8:13.0 9:2.0 10:2.0 
-0.0 -0.0 1.062572552550057 0.0 0.14053732226363952 0.2113520700900489 0.0 0.0 0.0 1:1.0 2:7.0 3:2.0 4:8.0 5:4.0 6:7.0 7:3.0 8:5.0 9:4.0 10:9.0 
-0.0 -0.0 1.1161966728055717 0.0 0.09523873629458152 0.16656081698217687 0.0 0.06106032555892009 0.0 1:4.0 2:11.0 3:2.0 4:4.0 5:3.0 6:4.0 7:1.0 8:10.0 9:2.0 10:7.0 
-0.0 -0.0 0.9424699632429758 0.0 0.06441821551003304 0.16513990982681764 0.058765263292429315 0.0 0.0 1:3.0 2:6.0 3:1.0 4:11.0 5:1.0 6:12.0 7:1.0 8:6.0 9:1.0 10:5.0 
-0.0 -0.0 1.0520378301245958 0.05976834937457487 0.061529373013552324 0.2140654918558671 0.06158301778708708 0.0 0.0 1:2.0 2:1.0 3:1.0 4:1.0 5:4.0 6:9.0 7:2.0 8:6.0 9:2.0 10:13.0 
-0.0 -0.0 1.1508326510455926 0.05419645482227794 0.12284643373749937 0.19110267006203774 0.0 0.0 0.0 1:1.0 2:8.0 3:2.0 4:7.0 5:1.0 6:13.0 7:1.0 8:3.0 9:3.0 10:8.0 
-0.0 -0.0 0.8852736276089107 0.0 0.0564364600232592 0.11696775024718692 0.0 0.0 0.0 1:1.0 2:8.0 3:1.0 4:12.0 5:4.0 6:5.0 7:2.0 8:5.0 9:4.0 10:11.0 
-0.0 -0.0 0.9987557319075077 0.05942140063827589 0.07053672244979375 0.21868782894505656 0.0 0.0 0.0 1:4.0 2:10.0 3:4.0 4:7.0 5:1.0 6:12.0 7:2.0 8:6.0 9:2.0 10:12.0 
-0.0 -0.0 1.0778368579949789 0.0 0.05848053149491805 0.19080192366257342 0.0 0.0 0.0 1:3.0 2:1.0 3:3.0 4:7.0 5:1.0 6:4.0 7:2.0 8:12.0 9:2.0 10:7.0 
-0.0 -0.0 1.115585430645419 0.0 0.11098233972374516 0.22672690232515608 0.0 0.0 0.0 1:4.0 2:1.0 3:2.0 4:6.0 5:3.0 6:5.0 7:3.0 8:6.0 9:2.0 10:13.0 
-0.0 -0.0 0.9632537360733118 0.0 0.06089945158761519 0.183120257313529 0.0 0.0 0.0 1:1.0 2:10.0 3:4.0 4:5.0 5:1.0 6:6.0 7:3.0 8:7.0 9:2.0 10:5.0 
-0.0 -0.0 0.9932501363572854 0.0 0.059597917689373725 0.18036137310617956 0.062003896115560966 0.0 0.0 1:4.0 2:7.0 3:1.0 4:10.0 5:2.0 6:2.0 7:3.0 8:13.0 9:2.0 10:10.0 
-0.0 -0.0 1.167733006888858 0.05772103365100384 0.11921767519008736 0.30229584715877594 0.05798214926888923 0.061216214247913694 0.0 1:2.0 2:8.0 3:1.0 4:5.0 5:4.0 6:11.0 7:4.0 8:5.0 9:2.0 10:13.0 
-0.0 -0.0 1.3076094602239754 0.0 0.058591838654384165 0.17985964384148917 0.0 0.0 0.0 1:3.0 2:4.0 3:2.0 4:11.0 5:2.0 6:4.0 7:4.0 8:1.0 9:4.0 10:10.0 
-0.0 -0.0 0.9215129746592448 0.0 0.06715517993982062 0.16913682895363252 0.0 0.0 0.0 1:4.0 2:3.0 3:1.0 4:3.0 5:1.0 6:2.0 7:2.0 8:9.0 9:1.0 10:10.0 
-0.0 -0.0 1.0862374727777713 0.05791182555271878 0.11974549978281745 0.23954704701476515 0.0 0.0 0.0 1:1.0 2:12.0 3:4.0 4:11.0 5:3.0 6:4.0 7:1.0 8:3.0 9:1.0 10:11.0 
-0.0 -0.0 1.0068276603501078 0.062016349818337105 0.08111217640993484 0.2148077443637178 0.0 0.0 0.0 1:3.0 2:4.0 3:3.0 4:8.0 5:3.0 6:6.0 7:2.0 8:3.0 9:1.0 10:4.0 
-0.0 -0.0 1.2385090870167192 0.06652892987505865 0.05897193834830905 0.2553372648453604 0.0 0.0 0.0 1:2.0 2:2.0 3:1.0 4:6.0 5:2.0 6:3.0 7:3.0 8:7.0 9:3.0 10:2.0 
-0.0 -0.0 1.1595803858767075 0.0 0.12130172229779446 0.1907163920653222 0.0 0.0 0.0 1:1.0 2:11.0 3:4.0 4:11.0 5:1.0 6:3.0 7:2.0 8:6.0 9:2.0 10:1.0 
-0.0 -0.06183964579285284 0.9434813083955298 0.07588916156032827 0.19522291749082615 0.18196559888443703 0.0 0.061080089500207935 0.0 1:2.0 2:11.0 3:3.0 4:13.0 5:1.0 6:11.0 7:2.0 8:9.0 9:3.0 10:12.0 
-0.0 -0.0 0.9830513319416256 0.061489900792616736 0.07135249794981563 0.22416483645155705 0.0 0.0 0.0 1:1.0 2:9.0 3:1.0 4:6.0 5:2.0 6:9.0 7:3.0 8:8.0 9:3.0 10:10.0 
-0.0 -0.0 1.1501096379878106 0.0 0.11601328817233975 0.18404695371829044 0.0 0.06792900637300403 0.0 1:4.0 2:5.0 3:2.0 4:10.0 5:2.0 6:2.0 7:3.0 8:8.0 9:1.0 10:10.0 
-0.0 -0.0 1.1666754336182679 0.0 0.06356217112147522 0.17976005724641228 0.0 0.0 0.0 1:2.0 2:3.0 3:1.0 4:11.0 5:4.0 6:3.0 7:4.0 8:5.0 9:3.0 10:8.0 
-0.0 -0.0 1.0748986918747077 0.0 0.11898320949562691 0.21733901720932797 0.0 0.0 0.0 1:4.0 2:9.0 3:2.0 4:5.0 5:3.0 6:5.0 7:3.0 8:3.0 9:1.0 10:11.0 
-0.0 -0.0 1.0099379079893522 0.0 0.052739608180657586 0.16564784993902867 0.0 0.0 0.0 1:2.0 2:4.0 3:2.0 4:12.0 5:3.0 6:7.0 7:3.0 8:2.0 9:4.0 10:4.0 
-0.0 -0.0 1.0262300153471668 0.0 0.11868263094549572 0.17562992205863864 0.0 0.0 0.0 1:2.0 2:6.0 3:1.0 4:3.0 5:2.0 6:8.0 7:3.0 8:3.0 9:1.0 10:1.0 
-0.0 -0.0 1.2108514472096177 0.0 0.06683725106389166 0.32268141469811157 0.0 0.0 0.0 1:2.0 2:11.0 3:4.0 4:5.0 5:4.0 6:13.0 7:1.0 8:5.0 9:1.0 10:8.0 
-0.0 -0.0 1.0748451904655612 0.0 0.06644021423862373 0.17732320018603784 0.0 0.0 0.0 1:1.0 2:2.0 3:4.0 4:8.0 5:3.0 6:10.0 7:2.0 8:4.0 9:3.0 10:4.0 
-0.0 -0.0 1.418607128325467 0.0 0.13094188947635238 0.24154466842126016 0.0 0.0 0.0 1:4.0 2:7.0 3:2.0 4:3.0 5:1.0 6:5.0 7:2.0 8:7.0 9:3.0 10:10.0 
-0.0 -0.0 0.8877833261559114 0.0 0.0531236887548127 0.11404873805161461 0.0 0.0 0.0 1:1.0 2:2.0 3:1.0 4:12.0 5:3.0 6:10.0 7:3.0 8:6.0 9:2.0 10:10.0 
-0.0 -0.0 1.0823375441889458 0.05974619422791655 0.06747066950819935 0.19835956673387561 0.05678546863998357 0.0 0.0 1:4.0 2:10.0 3:2.0 4:13.0 5:1.0 6:9.0 7:4.0 8:3.0 9:1.0 10:13.0 
-0.0 -0.06815591110888988 0.9824596586535461 0.0 0.0565481522611152 0.14720134678058894 0.0 0.0 0.0 1:3.0 2:2.0 3:3.0 4:6.0 5:4.0 6:2.0 7:4.0 8:1.0 9:4.0 10:5.0 
-0.0 -0.0 1.0407033937219436 0.0 0.06296528182910976 0.24384226546915658 0.0 0.0 0.0 1:3.0 2:1.0 3:4.0 4:7.0 5:3.0 6:4.0 7:2.0 8:4.0 9:1.0 10:8.0 
-0.0 -0.0 1.231645978803896 0.0 0.060684734848391306 0.18010049127693978 0.0 0.0 0.0 1:3.0 2:10.0 3:3.0 4:8.0 5:4.0 6:5.0 7:2.0 8:12.0 9:1.0 10:5.0 
-0.0 -0.0 1.1331865576242772 0.0 0.06387175388521016 0.23908045262056293 0.0 0.0 0.0 1:4.0 2:7.0 3:2.0 4:10.0 5:2.0 6:4.0 7:1.0 8:4.0 9:3.0 10:11.0 
-0.0 -0.0 1.0932819201735846 0.0 0.09615407346127075 0.1879859805214434 0.0 0.0 0.0 1:3.0 2:2.0 3:2.0 4:3.0 5:2.0 6:2.0 7:3.0 8:6.0 9:3.0 10:12.0 
-0.0 -0.0 1.0849854823667946 0.0 0.06858320033052909 0.22833432285510058 0.0 0.0 0.0 1:1.0 2:7.0 3:4.0 4:10.0 5:4.0 6:7.0 7:3.0 8:6.0 9:1.0 10:4.0 
-0.0 -0.0 0.9747410397437951 0.0 0.05756476262410254 0.1761870277790167 0.0 0.0 0.0 1:4.0 2:5.0 3:2.0 4:9.0 5:1.0 6:6.0 7:1.0 8:9.0 9:4.0 10:4.0 
-0.0 -0.0 1.1674844928135055 0.0 0.05916105616748974 0.1827324295482806 0.0 0.0 0.0 1:1.0 2:12.0 3:3.0 4:1.0 5:3.0 6:5.0 7:3.0 8:12.0 9:2.0 10:9.0 
-0.0 -0.0 0.953927069087913 0.0 0.059523881317931016 0.17706802898482693 0.0 0.0 0.0 1:4.0 2:8.0 3:1.0 4:8.0 5:2.0 6:5.0 7:4.0 8:11.0 9:4.0 10:9.0 
-0.0 -0.0 1.0500891268965056 0.0 0.057338994307540865 0.17129792387159684 0.0 0.0 0.0 1:4.0 2:7.0 3:4.0 4:5.0 5:3.0 6:11.0 7:2.0 8:4.0 9:2.0 10:5.0 
-0.0 -0.0 1.0129040410537085 0.0 0.07448074350244843 0.15389788049522185 0.0 0.055881816335814904 0.0 1:4.0 2:6.0 3:1.0 4:10.0 5:4.0 6:10.0 7:3.0 8:11.0 9:2.0 10:1.0 
-0.0 -0.0 1.0123065198947738 0.0 0.06190412703770787 0.21193789486926784 0.0 0.0 0.0 1:3.0 2:12.0 3:4.0 4:13.0 5:3.0 6:3.0 7:2.0 8:1.0 9:3.0 10:1.0 
-0.0 -0.0 0.9867720692033466 0.0 0.11643978172486971 0.23021194071638829 0.0 0.0 0.0 1:4.0 2:12.0 3:2.0 4:9.0 5:4.0 6:3.0 7:4.0 8:6.0 9:2.0 10:12.0 
-0.0 -0.0 0.8992318971632485 0.0 0.11985817864727255 0.11121755659984751 0.0 0.08079146994354741 0.0 1:1.0 2:12.0 3:3.0 4:13.0 5:2.0 6:7.0 7:2.0 8:9.0 9:2.0 10:12.0 
-0.0 -0.0 1.197629621952082 0.060593581328968416 0.11334345462542383 0.19211497441884806 0.0 0.059820986260744446 0.0 1:1.0 2:9.0 3:4.0 4:10.0 5:4.0 6:4.0 7:2.0 8:1.0 9:4.0 10:9.0 
-0.0 -0.0 1.0098842072529837 0.0 0.11665761175236955 0.17801042257612548 0.0 0.057060180839988844 0.0 1:4.0 2:8.0 3:1.0 4:5.0 5:1.0 6:7.0 7:2.0 8:4.0 9:1.0 10:8.0 
-0.0 -0.0 1.033898640076253 0.0 0.062391506800214436 0.20553261676829215 0.0 0.0 0.0 1:1.0 2:10.0 3:1.0 4:1.0 5:2.0 6:1.0 7:2.0 8:7.0 9:2.0 10:11.0 
-0.0 -0.0 1.1157786771380935 0.0 0.1727301923190383 0.1866675976930453 0.0 0.0 0.0 1:3.0 2:2.0 3:1.0 4:13.0 5:1.0 6:8.0 7:4.0 8:3.0 9:2.0 10:3.0 
-0.0 -0.0 1.251397295985295 0.0 0.06394492558041459 0.2332528188213901 0.0 0.0 0.0 1:4.0 2:12.0 3:2.0 4:12.0 5:1.0 6:8.0 7:1.0 8:6.0 9:1.0 10:3.0 
-0.0 -0.0 0.9633777547934383 0.0 0.11234587475579011 0.26221503424136855 0.11180581748400026 0.0 0.0 1:1.0 2:8.0 3:3.0 4:2.0 5:3.0 6:8.0 7:2.0 8:11.0 9:2.0 10:10.0 
-0.0 -0.0 1.0877894795421053 0.0 0.11640586894425808 0.1967762601067518 0.0 0.0 0.0 1:3.0 2:13.0 3:3.0 4:4.0 5:4.0 6:11.0 7:2.0 8:3.0 9:1.0 10:4.0 
-0.0 -0.0 1.034543652113303 0.0 0.061367538969685054 0.24626014937438045 0.0 0.0 0.0 1:4.0 2:7.0 3:2.0 4:9.0 5:4.0 6:2.0 7:2.0 8:2.0 9:3.0 10:3.0 
-0.0 -0.0 1.082909817078328 0.057818462657286795 0.09283056222140532 0.2726163719179021 0.06118693892668725 0.0 0.0 1:1.0 2:13.0 3:4.0 4:12.0 5:2.0 6:9.0 7:3.0 8:12.0 9:4.0 10:11.0 
-0.0 -0.0 1.0146881387697229 0.0 0.08792075125365811 0.22728073336981802 0.0 0.0 0.0 1:4.0 2:9.0 3:1.0 4:2.0 5:3.0 6:1.0 7:3.0 8:3.0 9:2.0 10:2.0 
-0.0 -0.0 1.1861681701490319 0.0 0.060872046667817384 0.1795734196433349 0.0 0.0 0.0 1:4.0 2:12.0 3:1.0 4:7.0 5:2.0 6:7.0 7:1.0 8:6.0 9:2.0 10:2.0 
-0.0 -0.0 1.0090884924078272 0.0 0.11970007181957443 0.23390057950146448 0.06041983401666379 0.0 0.0 1:4.0 2:13.0 3:1.0 4:1.0 5:3.0 6:1.0 7:3.0 8:2.0 9:4.0 10:3.0 
-0.0 -0.0 1.0932988948879268 0.0590032679600166 0.06725310075131213 0.3004534529342739 0.0 0.0 0.0 1:4.0 2:4.0 3:4.0 4:3.0 5:4.0 6:7.0 7:2.0 8:7.0 9:2.0 10:8.0 
-0.0 -0.0 1.005820030560924 0.0 0.06807328602005897 0.2244541843128509 0.0 0.0 0.0 1:1.0 2:11.0 3:2.0 4:1.0 5:3.0 6:8.0 7:1.0 8:1.0 9:4.0 10:6.0 
-0.0 -0.0 1.0857409505848985 0.0 0.13294431501439508 0.18928354076601767 0.0 0.06032842131165683 0.0 1:2.0 2:7.0 3:4.0 4:10.0 5:1.0 6:10.0 7:3.0 8:12.0 9:1.0 10:4.0 
-0.0 -0.0 1.1599651672604068 0.0 0.11492680735126165 0.18826289825492876 0.0 0.0 0.0 1:4.0 2:1.0 3:2.0 4:5.0 5:1.0 6:6.0 7:3.0 8:9.0 9:1.0 10:5.0 
-0.0 -0.0 1.0989523196507605 0.06252669682084913 0.11891657061236827 0.190684892558384 0.0 0.0 0.0 1:1.0 2:12.0 3:1.0 4:11.0 5:2.0 6:8.0 7:1.0 8:8.0 9:3.0 10:9.0 
-0.0 -0.0 1.0081620595790552 0.0 0.16842219263433572 0.3400963313335694 0.05270128255774986 0.07060602681223255 0.0 1:2.0 2:4.0 3:2.0 4:5.0 5:1.0 6:12.0 7:4.0 8:12.0 9:4.0 10:10.0 
-0.0 -0.0 1.165285618757838 0.0 0.11892179654238647 0.22726159168068966 0.0 0.0 0.0 1:3.0 2:3.0 3:1.0 4:9.0 5:4.0 6:6.0 7:4.0 8:8.0 9:1.0 10:3.0 
-0.0 -0.0 1.0147495225082936 0.0 0.059290036057709605 0.18805876097160074 0.0 0.06389167706601706 0.0 1:2.0 2:1.0 3:2.0 4:10.0 5:3.0 6:11.0 7:4.0 8:5.0 9:3.0 10:5.0 
-0.0 -0.0 1.0150440393236868 0.0 0.06717679617756867 0.12185133832136025 0.0 0.0 0.0 1:2.0 2:11.0 3:2.0 4:3.0 5:1.0 6:7.0 7:3.0 8:3.0 9:3.0 10:2.0 
-0.0 -0.0 0.9842978552520575 0.0931382701757894 0.12188838731336799 0.21767165325762328 0.0 0.0 0.0 1:1.0 2:8.0 3:2.0 4:12.0 5:3.0 6:6.0 7:2.0 8:7.0 9:3.0 10:8.0 
-0.0 -0.0 1.141866383659828 0.0 0.11214582056012617 0.20402517364586653 0.0 0.0 0.0 1:1.0 2:11.0 3:4.0 4:3.0 5:2.0 6:11.0 7:2.0 8:4.0 9:4.0 10:2.0 
-0.0 -0.0 1.106099069139136 0.058452354648467764 0.06511719666699024 0.19138237552732967 0.0 0.0 0.0 1:1.0 2:13.0 3:4.0 4:6.0 5:2.0 6:3.0 7:3.0 8:3.0 9:1.0 10:12.0 
-0.0 -0.0 0.974930723467134 0.0 0.05784750162136523 0.17393303010257946 0.0 0.0 0.0 1:4.0 2:2.0 3:3.0 4:8.0 5:3.0 6:5.0 7:2.0 8:8.0 9:1.0 10:3.0 
-0.0 -0.0 1.1079570098874352 0.06005350720490593 0.12238454132790388 0.19624795919478225 0.0 0.0 0.0 1:1.0 2:12.0 3:2.0 4:9.0 5:4.0 6:1.0 7:3.0 8:9.0 9:2.0 10:2.0 
-0.0 -0.0 1.1308797785827507 0.0 0.11927921796236574 0.19258850134301925 0.061046421639782966 0.0 0.0 1:2.0 2:8.0 3:4.0 4:1.0 5:4.0 6:7.0 7:3.0 8:8.0 9:3.0 10:3.0 
-0.0 -0.0 1.171241379736263 0.0 0.10839266731393654 0.22388730717796534 0.0 0.0 0.0 1:3.0 2:13.0 3:3.0 4:1.0 5:3.0 6:6.0 7:3.0 8:11.0 9:1.0 10:11.0 
-0.0 -0.0 0.9964100865874413 0.05947824474336738 0.05808456355823505 0.12873051214940445 0.0 0.0 0.0 1:2.0 2:7.0 3:4.0 4:2.0 5:1.0 6:2.0 7:3.0 8:4.0 9:3.0 10:11.0 
-0.0 -0.0 1.085317411633306 0.0 0.05960333968977305 0.18198283411296465 0.0 0.06298230447700376 0.0 1:2.0 2:5.0 3:1.0 4:13.0 5:2.0 6:2.0 7:3.0 8:8.0 9:2.0 10:13.0 
-0.0 -0.0 1.0883107589908412 0.06007635792249072 0.12017087454136693 0.1517722835516121 0.0638022059677048 0.0 0.0 1:1.0 2:1.0 3:2.0 4:13.0 5:1.0 6:5.0 7:3.0 8:12.0 9:2.0 10:1.0 
-0.0 -0.0 0.9233374890360262 0.0 0.06639538899006432 0.17554703003727382 0.0 0.0 0.0 1:1.0 2:8.0 3:3.0 4:13.0 5:4.0 6:5.0 7:1.0 8:11.0 9:4.0 10:8.0 
-0.06006681404418046 -0.0 1.0320247345715867 0.051760806459530906 0.06075766747890088 0.21476245626535506 0.0 0.0 0.0 1:3.0 2:13.0 3:1.0 4:4.0 5:1.0 6:12.0 7:2.0 8:3.0 9:1.0 10:13.0 
-0.0 -0.0 1.1112974097977373 0.058332627550659655 0.12002588792088315 0.15518776121894035 0.06492774974035076 0.05967684581259847 0.0 1:4.0 2:1.0 3:1.0 4:12.0 5:1.0 6:9.0 7:1.0 8:1.0 9:4.0 10:6.0 
-0.0 -0.0 1.0882165125457064 0.060419526897005416 0.13292945801364275 0.25091204375946397 0.0 0.0 0.0 1:4.0 2:7.0 3:3.0 4:12.0 5:1.0 6:10.0 7:4.0 8:12.0 9:4.0 10:11.0 
-0.0 -0.0 0.9325060335963689 0.0 0.069363750230985 0.18582137557992723 0.0 0.06395447747929034 0.0 1:4.0 2:5.0 3:2.0 4:4.0 5:1.0 6:5.0 7:1.0 8:8.0 9:3.0 10:7.0 
-0.0 -0.0 1.1119455455953409 0.0 0.11850630399129032 0.18552445333561488 0.05402854583700789 0.0 0.0 1:2.0 2:11.0 3:1.0 4:4.0 5:1.0 6:9.0 7:3.0 8:9.0 9:1.0 10:2.0 
-0.0 -0.0 0.9847335389597509 0.0 0.06050969442957139 0.34521784576974013 0.0 0.0 0.0 1:3.0 2:12.0 3:1.0 4:12.0 5:4.0 6:5.0 7:3.0 8:11.0 9:2.0 10:6.0 
-0.0 -0.0 1.0919418624671093 0.058001091638370916 0.1201315808636407 0.19052984075823876 0.0 0.059347801337491846 0.0 1:2.0 2:2.0 3:4.0 4:2.0 5:3.0 6:1.0 7:1.0 8:10.0 9:1.0 10:6.0 
-0.0 -0.0 0.9978615707157443 0.0 0.089592935265049 0.30471023766036337 0.0 0.0 0.0 1:2.0 2:7.0 3:2.0 4:3.0 5:1.0 6:1.0 7:3.0 8:2.0 9:2.0 10:1.0 
-0.0 -0.0 1.095848989255266 0.052274443658469005 0.06539094658593625 0.18996949688634257 0.0 0.0 0.0 1:3.0 2:13.0 3:1.0 4:7.0 5:2.0 6:13.0 7:1.0 8:4.0 9:1.0 10:9.0 
-0.0 -0.0 0.9791599352403767 0.0 0.06385573088384289 0.1735394090818384 0.0 0.0 0.0 1:4.0 2:12.0 3:3.0 4:5.0 5:3.0 6:10.0 7:1.0 8:10.0 9:1.0 10:6.0 
-0.0 -0.0 0.9718479858592848 0.0 0.06320912249328531 0.18008846997871064 0.0 0.10185931357509764 0.0 1:4.0 2:12.0 3:4.0 4:13.0 5:3.0 6:8.0 7:3.0 8:12.0 9:2.0 10:6.0 
-0.0 -0.0 0.9288258224490885 0.0 0.07679395482043394 0.17266233927245633 0.0 0.0 0.0 1:2.0 2:10.0 3:1.0 4:10.0 5:4.0 6:11.0 7:2.0 8:4.0 9:1.0 10:9.0 
-0.0 -0.0 1.059494113186767 0.0 0.15650462629127182 0.2184983119674298 0.0 0.0 0.0 1:1.0 2:7.0 3:1.0 4:2.0 5:4.0 6:9.0 7:4.0 8:2.0 9:1.0 10:8.0 
-0.0 -0.0 1.4348137250645638 0.0 0.22425157872971235 0.23651916187057648 0.0 0.0 0.0 1:2.0 2:5.0 3:1.0 4:2.0 5:2.0 6:10.0 7:3.0 8:1.0 9:2.0 10:2.0 
-0.0 -0.0 0.9741398465322996 0.0 0.2141750385332184 0.24975950314223178 0.0 0.0 0.0 1:2.0 2:2.0 3:3.0 4:11.0 5:3.0 6:1.0 7:2.0 8:3.0 9:3.0 10:2.0 
-0.0 -0.0 1.141598864647486 0.0 0.1224267902410841 0.2057137108328872 0.0 0.0 0.0 1:3.0 2:12.0 3:4.0 4:4.0 5:3.0 6:2.0 7:3.0 8:1.0 9:4.0 10:12.0 
-0.0 -0.0 0.9255322274595844 0.0 0.12996124085098446 0.13696266104152682 0.0 0.0 0.0 1:4.0 2:7.0 3:2.0 4:9.0 5:4.0 6:11.0 7:3.0 8:11.0 9:1.0 10:4.0 
-0.0 -0.0 0.9884944313145273 0.0 0.056660485304322716 0.16627172525621836 0.0 0.0 0.0 1:1.0 2:5.0 3:3.0 4:10.0 5:2.0 6:10.0 7:3.0 8:11.0 9:3.0 10:13.0 
-0.0 -0.0 1.0041023700823477 0.0 0.059578710975588256 0.18403727373861123 0.0 0.0 0.0 1:3.0 2:4.0 3:3.0 4:1.0 5:3.0 6:11.0 7:2.0 8:1.0 9:1.0 10:8.0 
-0.0 -0.0 1.0185677768947443 0.0 0.0641334152673218 0.1817389015389678 0.0 0.0 0.0 1:1.0 2:8.0 3:1.0 4:2.0 5:2.0 6:4.0 7:1.0 8:11.0 9:4.0 10:4.0 
-0.0 -0.0 1.0078861162730846 0.0 0.06648679204440233 0.18835559933109008 0.059191928295395324 0.0 0.0 1:1.0 2:5.0 3:4.0 4:2.0 5:4.0 6:5.0 7:1.0 8:8.0 9:1.0 10:1.0 
-0.0 -0.0 1.0313752991198804 0.0603190552812507 0.12029439503133987 0.17965320883164204 0.0 0.0 0.0 1:1.0 2:1.0 3:3.0 4:1.0 5:1.0 6:10.0 7:3.0 8:2.0 9:2.0 10:12.0 
-0.0 -0.0 0.9697509208671719 0.0 0.06112170664305022 0.1676356378687705 0.0 0.0 0.0 1:3.0 2:7.0 3:1.0 4:7.0 5:3.0 6:8.0 7:4.0 8:4.0 9:2.0 10:10.0 
-0.0 -0.0 1.1627724887008135 0.0 0.060876005736759865 0.1707978999905665 0.0 0.0 0.0 1:2.0 2:3.0 3:3.0 4:3.0 5:4.0 6:11.0 7:3.0 8:6.0 9:3.0 10:13.0 
-0.0 -0.0 1.0679981519141473 0.0 0.11633698413062799 0.26019421569355755 0.0 0.0 0.0 1:1.0 2:2.0 3:2.0 4:2.0 5:2.0 6:5.0 7:4.0 8:13.0 9:4.0 10:12.0 
-0.0 -0.0 0.7668881492360163 0.05944114024953179 0.0 0.10805086922489175 0.0601256435251849 0.0 0.0 1:3.0 2:13.0 3:1.0 4:13.0 5:3.0 6:7.0 7:2.0 8:12.0 9:1.0 10:1.0 
-0.0 -0.0 1.0057416303099982 0.0551458962590485 0.11509291419912153 0.20393897378948983 0.06518294325612195 0.0 0.0 1:2.0 2:9.0 3:2.0 4:1.0 5:1.0 6:5.0 7:1.0 8:1.0 9:1.0 10:11.0 
-0.0 -0.0 1.090774442173841 0.06183780510510972 0.0610438788145623 0.21259049938393157 0.06383055292737821 0.0 0.0 1:4.0 2:11.0 3:1.0 4:10.0 5:2.0 6:11.0 7:3.0 8:2.0 9:4.0 10:5.0 
-0.0 -0.06119845796472478 0.9805220234184595 0.07442500971802485 0.11667944352083713 0.2249930007462288 0.0 0.06485685188860169 0.057534927341714615 1:3.0 2:7.0 3:4.0 4:6.0 5:4.0 6:9.0 7:1.0 8:5.0 9:3.0 10:6.0 
-0.0 -0.0 1.02290947062219 0.0 0.056584308659099136 0.17236671375624285 0.0 0.0 0.0 1:1.0 2:12.0 3:2.0 4:9.0 5:3.0 6:10.0 7:4.0 8:7.0 9:2.0 10:12.0 
-0.0 -0.0 1.2869363359542572 0.0 0.06236881702709213 0.20498344006147107 0.0 0.0 0.0 1:3.0 2:12.0 3:1.0 4:12.0 5:4.0 6:2.0 7:2.0 8:9.0 9:3.0 10:3.0 
-0.0 -0.0 0.9220729526288765 0.0 0.0 0.15748130708701186 0.0 0.0 0.0 1:3.0 2:7.0 3:3.0 4:11.0 5:1.0 6:10.0 7:2.0 8:4.0 9:1.0 10:7.0 
-0.0 -0.0 1.1196133265669566 0.0 0.06432389013743439 0.19060677180801516 0.0 0.0 0.0 1:4.0 2:11.0 3:2.0 4:1.0 5:4.0 6:4.0 7:3.0 8:1.0 9:2.0 10:5.0 
-0.0 -0.0 1.0155069414939168 0.0 0.05888638435047239 0.18488935129598516 0.0 0.0 0.0 1:1.0 2:3.0 3:3.0 4:7.0 5:4.0 6:13.0 7:3.0 8:12.0 9:1.0 10:7.0 
-0.0 -0.0 1.0104957590802381 0.0 0.06816482384323845 0.18375148316880743 0.0 0.0 0.0 1:1.0 2:2.0 3:3.0 4:12.0 5:3.0 6:6.0 7:4.0 8:12.0 9:2.0 10:10.0 
-0.0 -0.0 1.0874433812851794 0.06055555148304763 0.12100971786191794 0.22339615790192718 0.06136106832614879 0.0 0.0 1:4.0 2:9.0 3:1.0 4:1.0 5:2.0 6:1.0 7:1.0 8:13.0 9:3.0 10:7.0 
-0.0 -0.0 0.9785609968976317 0.0 0.06104782763197614 0.16981165499024842 0.0 0.0 0.0 1:2.0 2:13.0 3:2.0 4:2.0 5:3.0 6:4.0 7:4.0 8:2.0 9:4.0 10:7.0 
